{"learner":{"attributes":{"scikit_learn":"{\"n_estimators\": 100, \"objective\": \"reg:squarederror\", \"max_depth\": null, \"learning_rate\": null, \"verbosity\": null, \"booster\": null, \"tree_method\": null, \"gamma\": null, \"min_child_weight\": null, \"max_delta_step\": null, \"subsample\": null, \"colsample_bytree\": null, \"colsample_bylevel\": null, \"colsample_bynode\": null, \"reg_alpha\": null, \"reg_lambda\": null, \"scale_pos_weight\": null, \"base_score\": null, \"missing\": NaN, \"num_parallel_tree\": null, \"kwargs\": {}, \"random_state\": null, \"n_jobs\": null, \"monotone_constraints\": null, \"interaction_constraints\": null, \"importance_type\": \"gain\", \"gpu_id\": null, \"validate_parameters\": null, \"n_features_in_\": 4, \"type\": \"XGBRegressor\"}"},"gradient_booster":{"model":{"gbtree_model_param":{"num_trees":"100","size_leaf_vector":"0"},"tree_info":[0,0,0,0,0,0,0,0,0,0,0,0,0,0,0,0,0,0,0,0,0,0,0,0,0,0,0,0,0,0,0,0,0,0,0,0,0,0,0,0,0,0,0,0,0,0,0,0,0,0,0,0,0,0,0,0,0,0,0,0,0,0,0,0,0,0,0,0,0,0,0,0,0,0,0,0,0,0,0,0,0,0,0,0,0,0,0,0,0,0,0,0,0,0,0,0,0,0,0,0],"trees":[{"base_weights":[-2.9608364E0,-1.8753297E0,-4.018465E0,-3.0858114E0,-1.6288661E0,-5.5667486E0,-3.038301E0,-2.9494398E0,-2.2989338E1,-1.4433806E0,-2.288719E0,-6.571621E0,-4.9552803E0,-3.5866327E0,-2.4922175E0,-2.5271103E0,-4.568771E0,-2.6680435E1,-1.6254683E1,-1.3302771E0,-1.5866164E0,-3.0509715E0,-1.7802712E0,-6.907087E0,-5.01503E0,2.629E1,-4.9778843E0,-4.204983E0,-3.1380832E0,-2.1778154E0,-2.9327645E0,-3.3387606E0,-2.2865334E0,-5.3072796E0,-4.02054E0,-1.7461424E1,-1.1476923E1,-1.5168211E0,-1.2094684E0,-1.8273128E0,-1.4922986E0,-2.9126563E0,-3.4205077E0,-2.2064278E0,-1.5350665E0,-6.239706E0,-7.74412E0,3.715116E-1,-5.088819E0,3.1079231E1,1.645111E1,-4.3854733E0,-5.7527604E0,-3.5721056E0,-4.9090242E0,-2.6171503E0,-3.515004E0,-2.6074378E0,-1.8510602E0,2.3528334E1,-2.937768E0,-2.1108124E0,-3.7557812E0,-2.5993338E0,-2.108981E0,-5.7762485E0,-4.8960104E0,-2.7938182E0,-4.142124E0,-1.3780863E0,-1.724434E0,1.3921429E1,-1.2176865E0,-1.7317218E0,-2.467301E0,-1.1983014E0,-1.681399E0,-3.0382857E0,-2.6540284E0,-3.6038022E0,-2.6552885E0,-2.4421706E0,-1.3717202E0,-1.6370976E0,-9.665328E-1,-6.598219E0,-5.6864295E0,-7.5616045E0,-1.0071616E1,1.0328333E0,-1.0721428E0,-4.727832E0,-5.797467E0,-4.667305E0,-3.2074645E0,-5.5087113E0,-7.3268795E0,3.2547763E-1,-3.6135166E0,2.0568E1,-4.925883E0,2.054446E0,-2.6661954E0,-3.951487E0,-3.2542338E0,-2.8154895E0,-2.0806437E0,-2.0537362E0,-1.5396543E0,-3.2040048E0,-2.5122402E0],"categories":[],"categories_nodes":[],"categories_segments":[],"categories_sizes":[],"default_left":[true,true,true,true,true,true,true,true,true,true,true,true,true,true,true,true,true,false,true,true,true,true,true,true,true,true,true,true,true,true,true,true,true,true,true,false,false,true,true,true,true,true,true,true,true,true,true,true,true,false,false,true,true,true,true,true,true,true,true,false,true,false,false,false,false,false,false,false,false,false,false,false,false,false,false,false,false,false,false,false,false,false,false,false,false,false,false,false,false,false,false,false,false,false,false,false,false,false,false,false,false,false,false,false,false,false,false,false,false,false,false],"id":0,"left_children":[1,3,5,7,9,11,13,15,17,19,21,23,25,27,29,31,33,-1,35,37,39,41,43,45,47,49,51,53,55,57,59,61,63,65,67,-1,-1,69,71,73,75,77,79,81,83,85,87,89,91,-1,-1,93,95,97,99,101,103,105,107,-1,109,-1,-1,-1,-1,-1,-1,-1,-1,-1,-1,-1,-1,-1,-1,-1,-1,-1,-1,-1,-1,-1,-1,-1,-1,-1,-1,-1,-1,-1,-1,-1,-1,-1,-1,-1,-1,-1,-1,-1,-1,-1,-1,-1,-1,-1,-1,-1,-1,-1,-1],"loss_changes":[2.7110075E5,3.4762906E4,1.8149538E5,5.3438766E4,1.1847531E4,2.845625E4,2.1922562E4,1.3379047E4,2.8973281E3,1.2223594E3,8.228008E3,9.122875E3,2.0491812E4,1.01226875E4,5.076875E3,3.0252188E3,1.6179844E3,0E0,8.787305E1,9.5009375E2,7.542422E2,4.244453E2,1.3285156E3,8.00975E3,1.2392109E3,4.7824707E2,1.3199375E4,6.8269062E3,4.1502812E3,3.0021406E3,2.0923594E3,1.8094414E3,6.6009375E2,3.0384766E2,3.3564844E2,0E0,0E0,4.7572266E2,3.2054844E3,5.697539E2,1.3301484E3,1.9308984E2,3.1429297E2,9.1225E2,4.679336E2,1.5554688E3,2.6404688E3,4.216031E1,7.581953E2,0E0,0E0,5.4069062E3,4.7535938E3,1.3074062E3,3.2233594E3,2.0439453E3,1.3857812E3,1.0080547E3,7.649414E2,0E0,1.7229219E3,0E0,0E0,0E0,0E0,0E0,0E0,0E0,0E0,0E0,0E0,0E0,0E0,0E0,0E0,0E0,0E0,0E0,0E0,0E0,0E0,0E0,0E0,0E0,0E0,0E0,0E0,0E0,0E0,0E0,0E0,0E0,0E0,0E0,0E0,0E0,0E0,0E0,0E0,0E0,0E0,0E0,0E0,0E0,0E0,0E0,0E0,0E0,0E0,0E0,0E0],"parents":[2147483647,0,0,1,1,2,2,3,3,4,4,5,5,6,6,7,7,8,8,9,9,10,10,11,11,12,12,13,13,14,14,15,15,16,16,18,18,19,19,20,20,21,21,22,22,23,23,24,24,25,25,26,26,27,27,28,28,29,29,30,30,31,31,32,32,33,33,34,34,37,37,38,38,39,39,40,40,41,41,42,42,43,43,44,44,45,45,46,46,47,47,48,48,51,51,52,52,53,53,54,54,55,55,56,56,57,57,58,58,60,60],"right_children":[2,4,6,8,10,12,14,16,18,20,22,24,26,28,30,32,34,-1,36,38,40,42,44,46,48,50,52,54,56,58,60,62,64,66,68,-1,-1,70,72,74,76,78,80,82,84,86,88,90,92,-1,-1,94,96,98,100,102,104,106,108,-1,110,-1,-1,-1,-1,-1,-1,-1,-1,-1,-1,-1,-1,-1,-1,-1,-1,-1,-1,-1,-1,-1,-1,-1,-1,-1,-1,-1,-1,-1,-1,-1,-1,-1,-1,-1,-1,-1,-1,-1,-1,-1,-1,-1,-1,-1,-1,-1,-1,-1,-1],"split_conditions":[3.0947942E-1,4.2318183E-1,5.2590907E-1,4.811E-1,1.4560208E-1,3.740909E-1,7.553854E-1,1.799127E-1,3.368182E-1,8.3725E-1,6.068182E-1,5.6449264E-1,3.231E-1,6.45E-1,7.6898754E-1,3.2075003E-2,3.5045454E-1,-8.004131E0,3.968182E-1,5.6045455E-1,6.831818E-1,2.3475707E-1,7.0863634E-1,6.6213536E-1,2.543E-1,2.3735E-1,7.759391E-1,7.8636837E-1,5.244094E-1,7.368182E-1,4.21725E-1,3.1050003E-1,3.4318182E-1,3.140909E-1,3.984615E-3,-5.238427E0,-3.443077E0,3.985E-1,5E-4,5.8655E-1,6.201E-1,5.4136366E-1,8.486567E-1,9.275E-1,9.999667E-1,3.3227274E-1,4.4915E-1,3.059091E-1,8.462482E-1,9.32377E0,4.9353333E0,7.0975E-1,5.684E-1,4.8275715E-1,4.6780002E-1,5.7190496E-1,7.459091E-1,9.1078573E-1,8.884208E-1,7.0585003E0,8.585E-1,-6.3324374E-1,-1.1267344E0,-7.798002E-1,-6.326943E-1,-1.7328746E0,-1.4688032E0,-8.381455E-1,-1.2426373E0,-4.1342592E-1,-5.173302E-1,4.176429E0,-3.6530596E-1,-5.195165E-1,-7.4019027E-1,-3.5949045E-1,-5.0441974E-1,-9.1148573E-1,-7.9620856E-1,-1.0811408E0,-7.965866E-1,-7.3265123E-1,-4.1151607E-1,-4.911293E-1,-2.8995985E-1,-1.9794657E0,-1.7059289E0,-2.2684815E0,-3.021485E0,3.0985E-1,-3.2164288E-1,-1.4183496E0,-1.7392403E0,-1.4001915E0,-9.622394E-1,-1.6526135E0,-2.1980639E0,9.764329E-2,-1.0840551E0,6.1704006E0,-1.4777648E0,6.1633384E-1,-7.998586E-1,-1.1854461E0,-9.762702E-1,-8.446469E-1,-6.2419313E-1,-6.161209E-1,-4.618963E-1,-9.612015E-1,-7.5367206E-1],"split_indices":[3,0,0,1,3,0,2,3,0,2,0,2,1,0,3,2,0,0,0,0,0,3,0,3,1,1,3,3,3,0,1,1,0,0,2,0,0,2,2,1,1,0,2,2,2,0,1,0,3,0,0,2,1,1,1,1,0,2,2,0,2,0,0,0,0,0,0,0,0,0,0,0,0,0,0,0,0,0,0,0,0,0,0,0,0,0,0,0,0,0,0,0,0,0,0,0,0,0,0,0,0,0,0,0,0,0,0,0,0,0,0],"split_type":[0,0,0,0,0,0,0,0,0,0,0,0,0,0,0,0,0,0,0,0,0,0,0,0,0,0,0,0,0,0,0,0,0,0,0,0,0,0,0,0,0,0,0,0,0,0,0,0,0,0,0,0,0,0,0,0,0,0,0,0,0,0,0,0,0,0,0,0,0,0,0,0,0,0,0,0,0,0,0,0,0,0,0,0,0,0,0,0,0,0,0,0,0,0,0,0,0,0,0,0,0,0,0,0,0,0,0,0,0,0,0],"sum_hessian":[2.36143E5,1.16537E5,1.19606E5,1.9712E4,9.6825E4,4.6364E4,7.3242E4,1.9579E4,1.33E2,7.5582E4,2.1243E4,1.7536E4,2.8828E4,3.6543E4,3.6699E4,1.5531E4,4.048E3,8.4E1,4.9E1,4.2239E4,3.3343E4,8.498E3,1.2745E4,1.4424E4,3.112E3,2E1,2.8808E4,1.536E4,2.1183E4,2.1419E4,1.528E4,3.548E3,1.1983E4,1.721E3,2.327E3,3.7E1,1.2E1,1.6598E4,2.5641E4,9.382E3,2.3961E4,6.19E3,2.308E3,4.652E3,8.093E3,8.03E3,6.394E3,4.2E1,3.07E3,1.2E1,8E0,1.633E4,1.2478E4,8.092E3,7.268E3,8.896E3,1.2287E4,9.25E3,1.2169E4,2E0,1.5278E4,9.01E2,2.647E3,4.334E3,7.649E3,7.98E2,9.23E2,2.12E2,2.115E3,9.954E3,6.644E3,1.3E1,2.5628E4,8.166E3,1.216E3,9.382E3,1.4579E4,4.159E3,2.031E3,1.859E3,4.49E2,3.626E3,1.026E3,6.86E3,1.233E3,4.866E3,3.164E3,5.933E3,4.61E2,2.9E1,1.3E1,2.039E3,1.031E3,1.3175E4,3.155E3,1.0807E4,1.671E3,8.5E1,8.007E3,4E0,7.264E3,9.2E1,8.804E3,4.59E3,7.697E3,6.628E3,2.622E3,7.368E3,4.801E3,9.394E3,5.884E3],"tree_param":{"num_deleted":"0","num_feature":"4","num_nodes":"111","size_leaf_vector":"0"}},{"base_weights":[-2.0727117E0,-1.3227565E0,-2.8231642E0,-2.1254363E0,-1.1345599E0,-4.1276426E0,-2.2232454E0,-2.038316E0,-1.5982892E1,-9.9685955E-1,-1.5781537E0,-4.410581E0,-3.1441133E0,-2.698642E0,-1.8119797E0,-1.7308092E0,-3.1733518E0,-1.9188612E1,-1.1876278E1,-8.8884085E-1,-1.1027591E0,-2.005376E0,-1.140605E0,-3.9687555E0,-4.9848037E0,2.209021E1,-3.1771774E0,-3.1766152E0,-2.298693E0,-2.0668535E0,-1.5528967E0,-3.5674047E0,-1.6907033E0,-3.7089596E0,-2.733316E0,-1.3838988E1,-1.0263284E1,-8.634057E-1,-1.5850812E0,-1.3122219E0,-1.0498811E0,-2.0747285E0,-1.1819302E0,-1.2444316E0,-6.8211335E-1,-4.565217E0,-3.6191256E0,-5.586306E0,-4.5646644E0,-2.858724E0,-3.8439124E0,5.313012E0,-3.2138672E0,-1.892216E0,-2.5894992E0,-2.3314433E0,-1.7646737E0,-1.6587678E0,-8.9555025E-1,-5.061988E0,-1.1720835E0,-1.9202977E0,-1.472669E0,-3.8069792E0,-1.2338607E0,-2.3417509E0,-3.0844193E0,-1.0204062E0,-7.605326E-1,-5.4573864E-1,-1.7863928E0,-1.087467E0,-1.7205477E0,-7.884034E-1,-1.1390332E0,-1.9215784E0,-2.4154673E0,-1.25027E0,1.580538E0,-1.3574785E0,-8.7790775E-1,-7.619192E-1,1.3657726E0,-4.791151E0,-4.0185547E0,-4.146228E0,-3.4500782E0,-5.3790684E0,-7.5806127E0,-4.2437987E0,-6.3380136E0,-2.7680871E0,-4.9242697E0,9.231E0,-3.862013E0,1.7319767E1,2.9787295E0,-2.733374E0,-3.7504327E0,1.1125612E0,-1.934911E0,-2.8600526E0,-2.3463087E0,-2.2502584E0,-3.3652809E0,-1.4979043E0,-2.0418637E0,-1.8018001E0,-1.1000218E0,-5.650781E-1,-1.140279E0],"categories":[],"categories_nodes":[],"categories_segments":[],"categories_sizes":[],"default_left":[true,true,true,true,true,true,true,true,true,true,true,true,true,true,true,true,true,false,true,true,true,true,true,true,true,false,true,true,true,true,true,true,true,true,true,false,false,true,true,true,true,true,true,true,true,true,true,true,true,true,true,true,true,true,true,true,true,true,true,false,false,false,false,false,false,false,false,false,false,false,false,false,false,false,false,false,false,false,false,false,false,false,false,false,false,false,false,false,false,false,false,false,false,false,false,false,false,false,false,false,false,false,false,false,false,false,false,false,false,false,false],"id":1,"left_children":[1,3,5,7,9,11,13,15,17,19,21,23,25,27,29,31,33,-1,35,37,39,41,43,45,47,-1,49,51,53,55,57,59,61,63,65,-1,-1,67,69,71,73,75,77,79,81,83,85,87,89,91,93,95,97,99,101,103,105,107,109,-1,-1,-1,-1,-1,-1,-1,-1,-1,-1,-1,-1,-1,-1,-1,-1,-1,-1,-1,-1,-1,-1,-1,-1,-1,-1,-1,-1,-1,-1,-1,-1,-1,-1,-1,-1,-1,-1,-1,-1,-1,-1,-1,-1,-1,-1,-1,-1,-1,-1,-1,-1],"loss_changes":[1.3289944E5,1.7839922E4,9.236044E4,2.704875E4,5.8429766E3,1.03328125E4,1.58028125E4,7.775461E3,1.6151641E3,8.3428906E2,4.2343047E3,7.3051875E3,7.003664E3,7.1614062E3,2.8595312E3,1.2861523E3,1.1096055E3,0E0,6.058008E1,6.3886523E2,4.0696094E2,6.5234766E2,5.3226465E2,3.3872812E3,3.1463125E3,0E0,1.7513047E3,5.4190312E3,2.4088594E3,1.7429531E3,1.4949961E3,1.3329897E3,8.566953E2,5.144844E2,3.51875E2,0E0,0E0,5.625918E2,2.653772E2,6.797285E2,6.8541016E2,5.4715234E2,1.7056274E2,3.771045E2,3.3934735E2,7.252578E2,9.030156E2,2.0905781E3,4.1809062E3,1.0387031E3,6.6991016E2,2.050446E3,4.374422E3,1.0951758E3,7.7633594E2,9.6998047E2,7.515586E2,1.4780312E3,2.4077075E2,0E0,0E0,0E0,0E0,0E0,0E0,0E0,0E0,0E0,0E0,0E0,0E0,0E0,0E0,0E0,0E0,0E0,0E0,0E0,0E0,0E0,0E0,0E0,0E0,0E0,0E0,0E0,0E0,0E0,0E0,0E0,0E0,0E0,0E0,0E0,0E0,0E0,0E0,0E0,0E0,0E0,0E0,0E0,0E0,0E0,0E0,0E0,0E0,0E0,0E0,0E0,0E0],"parents":[2147483647,0,0,1,1,2,2,3,3,4,4,5,5,6,6,7,7,8,8,9,9,10,10,11,11,12,12,13,13,14,14,15,15,16,16,18,18,19,19,20,20,21,21,22,22,23,23,24,24,26,26,27,27,28,28,29,29,30,30,31,31,32,32,33,33,34,34,37,37,38,38,39,39,40,40,41,41,42,42,43,43,44,44,45,45,46,46,47,47,48,48,49,49,50,50,51,51,52,52,53,53,54,54,55,55,56,56,57,57,58,58],"right_children":[2,4,6,8,10,12,14,16,18,20,22,24,26,28,30,32,34,-1,36,38,40,42,44,46,48,-1,50,52,54,56,58,60,62,64,66,-1,-1,68,70,72,74,76,78,80,82,84,86,88,90,92,94,96,98,100,102,104,106,108,110,-1,-1,-1,-1,-1,-1,-1,-1,-1,-1,-1,-1,-1,-1,-1,-1,-1,-1,-1,-1,-1,-1,-1,-1,-1,-1,-1,-1,-1,-1,-1,-1,-1,-1,-1,-1,-1,-1,-1,-1,-1,-1,-1,-1,-1,-1,-1,-1,-1,-1,-1,-1],"split_conditions":[3.213126E-1,4.3772727E-1,4.7954544E-1,4.8360002E-1,1.4248216E-1,5.928846E-1,7.298982E-1,1.7908244E-1,3.2545453E-1,8.0141664E-1,6.6409093E-1,7.6998734E-1,1.7005E-1,6.1227274E-1,8.310606E-1,8.75E-4,3.384389E-1,-5.7565837E0,3.6954546E-1,1.3070759E-1,6.368182E-1,9.543875E-1,9.9001217E-1,3.459091E-1,3.5136363E-1,6.6270633E0,8.5957295E-1,4.4222423E-1,5.233885E-1,7.45E-1,8.45E-1,3.2863638E-1,3.7045455E-1,7.055E-1,2.326109E-1,-4.1516967E0,-3.0789852E0,5.5863637E-1,5.6045455E-1,5.2625895E-1,5.941684E-1,2.353257E-1,5.8924997E-1,8.55E-1,6.8178E-1,3.335E-1,1.2275E-1,4.2275918E-1,5.2975E-1,9.9975E-1,3.27075E-1,3.831437E-1,7.814931E-1,5.539763E-1,7.4045455E-1,7.0465E-1,5.3803647E-1,9.675778E-1,3.8047212E-1,-1.5185964E0,-3.5162506E-1,-5.760893E-1,-4.418007E-1,-1.1420938E0,-3.7015823E-1,-7.0252526E-1,-9.253258E-1,-3.061219E-1,-2.281598E-1,-1.6372159E-1,-5.359179E-1,-3.262401E-1,-5.161643E-1,-2.3652102E-1,-3.4170997E-1,-5.7647353E-1,-7.246402E-1,-3.7508103E-1,4.7416142E-1,-4.0724358E-1,-2.6337233E-1,-2.2857577E-1,4.097318E-1,-1.4373454E0,-1.2055664E0,-1.2438684E0,-1.0350236E0,-1.6137205E0,-2.274184E0,-1.2731397E0,-1.9014041E0,-8.3042616E-1,-1.477281E0,2.7693E0,-1.158604E0,5.1959305E0,8.936189E-1,-8.200123E-1,-1.1251298E0,3.3376837E-1,-5.804733E-1,-8.5801584E-1,-7.0389265E-1,-6.7507756E-1,-1.0095843E0,-4.493713E-1,-6.1255914E-1,-5.4054004E-1,-3.3000657E-1,-1.6952343E-1,-3.4208372E-1],"split_indices":[3,0,0,1,3,2,2,3,0,2,0,3,1,0,2,2,1,0,0,3,0,2,2,0,0,0,3,1,3,0,0,0,0,2,3,0,0,0,0,1,1,3,1,0,1,2,2,1,1,2,1,1,3,1,0,1,3,2,3,0,0,0,0,0,0,0,0,0,0,0,0,0,0,0,0,0,0,0,0,0,0,0,0,0,0,0,0,0,0,0,0,0,0,0,0,0,0,0,0,0,0,0,0,0,0,0,0,0,0,0,0],"split_type":[0,0,0,0,0,0,0,0,0,0,0,0,0,0,0,0,0,0,0,0,0,0,0,0,0,0,0,0,0,0,0,0,0,0,0,0,0,0,0,0,0,0,0,0,0,0,0,0,0,0,0,0,0,0,0,0,0,0,0,0,0,0,0,0,0,0,0,0,0,0,0,0,0,0,0,0,0,0,0,0,0,0,0,0,0,0,0,0,0,0,0,0,0,0,0,0,0,0,0,0,0,0,0,0,0,0,0,0,0,0,0],"sum_hessian":[2.36143E5,1.18112E5,1.18031E5,2.2431E4,9.5681E4,3.718E4,8.0851E4,2.2292E4,1.39E2,7.3018E4,2.2663E4,2.8871E4,8.309E3,3.7499E4,4.3352E4,1.7542E4,4.75E3,7.6E1,6.3E1,3.6152E4,3.6866E4,1.1465E4,1.1198E4,1.6321E4,1.255E4,1E1,8.299E3,1.708E4,2.0419E4,2.185E4,2.1502E4,3.73E2,1.7169E4,2.139E3,2.611E3,2.5E1,3.8E1,3.488E4,1.272E3,7.426E3,2.944E4,1.0573E4,8.92E2,9.129E3,2.069E3,6.027E3,1.0294E4,5.156E3,7.394E3,5.62E3,2.679E3,7.4E1,1.7006E4,8.519E3,1.19E4,1.1646E4,1.0204E4,1.8518E4,2.984E3,2.29E2,1.44E2,8.359E3,8.81E3,2.057E3,8.2E1,1.238E3,1.373E3,1.3804E4,2.1076E4,2.07E2,1.065E3,4.792E3,2.634E3,7.488E3,2.1952E4,7.299E3,3.274E3,8.71E2,2.1E1,6.975E3,2.154E3,1.992E3,7.7E1,4.259E3,1.768E3,2.494E3,7.8E3,4.674E3,4.82E2,6.264E3,1.13E3,5.386E3,2.34E2,3E0,2.676E3,1.1E1,6.3E1,8.975E3,8.031E3,1.19E2,8.4E3,5.628E3,6.272E3,1.0801E4,8.45E2,5.203E3,5.001E3,1.4742E4,3.776E3,1.271E3,1.713E3],"tree_param":{"num_deleted":"0","num_feature":"4","num_nodes":"111","size_leaf_vector":"0"}},{"base_weights":[-1.4510304E0,-9.172166E-1,-1.9682263E0,-1.442693E0,-7.755222E-1,-3.0664854E0,-1.6099993E0,-1.3857142E0,-1.1209455E1,-6.915728E-1,-1.066432E0,-2.9928277E0,-5.0494757E0,-1.9631082E0,-1.2615247E0,-1.1567625E0,-2.1208255E0,-1.3088534E1,-7.6693606E0,-5.5876243E-1,-7.5825685E-1,-1.4375058E0,-8.502313E-1,-3.5657978E0,-2.740299E0,-6.591054E0,-4.207176E0,-2.3050416E0,-1.6343604E0,1.6353466E1,-1.2669158E0,-1.5585762E0,-1.0114068E0,-2.5557022E0,-1.8156534E0,-1.3820134E1,-1.0575043E1,-5.3670233E-1,-1.1560463E0,-7.075797E-1,-8.647033E-1,-9.671194E-1,-1.4882929E0,-1.0119104E0,-6.7922676E-1,-3.3905473E0,-5.647131E0,-2.9265819E0,-2.3535035E0,-7.732743E0,-5.649171E0,-3.6222682E0,-6.183816E0,-2.2195563E0,-3.8714213E0,-1.3683642E0,-1.858884E0,1.8005522E1,7.721943E0,-1.0927111E0,-1.506989E0,-2.0279012E0,-1.1697748E0,-1.3157591E0,-9.2264235E-1,-4.9769148E-1,-2.6273715E0,-1.6255311E0,-2.0697713E0,-6.781773E-1,-4.252887E-1,6.126811E-2,-1.3121524E0,-8.104305E-1,-5.81349E-1,-7.131656E-1,-1.290611E0,-6.261616E-1,-1.900277E0,-1.6153708E0,-1.2642224E0,-1.1080282E0,-5.8826536E-1,-7.29845E-1,-3.6509225E-1,-3.6018646E0,-2.5033362E0,-6.990654E0,-5.0366387E0,-2.7788928E0,-5.045365E0,-2.080946E0,-2.7732775E0,-3.368539E0,-7.848071E0,-6.1313367E0,-4.205161E0,-3.9174273E0,-2.7361999E0,-7.1323147E0,-5.2524414E0,3.4634485E0,-2.238292E0,-5.2078676E0,-3.2882655E0,1.9731834E0,-1.3926213E0,1.2312274E1,-1.865584E0,-1.3503379E0,-9.0969247E-1,-1.5992407E0,-1.1098382E0],"categories":[],"categories_nodes":[],"categories_segments":[],"categories_sizes":[],"default_left":[true,true,true,true,true,true,true,true,true,true,true,true,true,true,true,true,true,true,false,true,true,true,true,true,true,true,true,true,true,true,true,true,true,true,true,false,false,true,true,true,true,true,true,true,true,true,true,true,true,true,true,true,true,true,true,true,true,false,false,true,true,false,false,false,false,false,false,false,false,false,false,false,false,false,false,false,false,false,false,false,false,false,false,false,false,false,false,false,false,false,false,false,false,false,false,false,false,false,false,false,false,false,false,false,false,false,false,false,false,false,false,false,false],"id":2,"left_children":[1,3,5,7,9,11,13,15,17,19,21,23,25,27,29,31,33,35,-1,37,39,41,43,45,47,49,51,53,55,57,59,61,63,65,67,-1,-1,69,71,73,75,77,79,81,83,85,87,89,91,93,95,97,99,101,103,105,107,-1,-1,109,111,-1,-1,-1,-1,-1,-1,-1,-1,-1,-1,-1,-1,-1,-1,-1,-1,-1,-1,-1,-1,-1,-1,-1,-1,-1,-1,-1,-1,-1,-1,-1,-1,-1,-1,-1,-1,-1,-1,-1,-1,-1,-1,-1,-1,-1,-1,-1,-1,-1,-1,-1,-1],"loss_changes":[6.5194344E4,8.6513125E3,4.7181812E4,1.3718297E4,2.2345547E3,4.2934375E3,1.112625E4,4.12725E3,8.5087305E2,6.286758E2,1.6430996E3,4.105828E3,1.3421562E3,5.0456875E3,4.343758E3,1.0913145E3,7.68541E2,2.3027344E1,0E0,3.1228613E2,2.5447461E2,1.787832E2,3.5743555E2,3.1534922E3,1.4159531E3,3.5526758E2,7.6956445E2,2.9393984E3,1.3653984E3,6.059912E1,1.901625E3,9.043428E2,3.7008984E2,3.526836E2,1.6220605E2,0E0,0E0,3.6072998E2,1.60656E2,4.1551367E2,9.831367E2,2.3361768E2,1.917832E2,2.703789E2,9.9877686E1,1.4955312E3,5.176133E2,4.1553438E3,7.2921484E2,5.661035E1,1.1834082E2,1.281543E2,9.946582E1,2.2308438E3,8.697832E2,8.5286523E2,1.2020312E3,0E0,0E0,1.2424141E3,6.992539E2,0E0,0E0,0E0,0E0,0E0,0E0,0E0,0E0,0E0,0E0,0E0,0E0,0E0,0E0,0E0,0E0,0E0,0E0,0E0,0E0,0E0,0E0,0E0,0E0,0E0,0E0,0E0,0E0,0E0,0E0,0E0,0E0,0E0,0E0,0E0,0E0,0E0,0E0,0E0,0E0,0E0,0E0,0E0,0E0,0E0,0E0,0E0,0E0,0E0,0E0,0E0,0E0],"parents":[2147483647,0,0,1,1,2,2,3,3,4,4,5,5,6,6,7,7,8,8,9,9,10,10,11,11,12,12,13,13,14,14,15,15,16,16,17,17,19,19,20,20,21,21,22,22,23,23,24,24,25,25,26,26,27,27,28,28,29,29,30,30,31,31,32,32,33,33,34,34,37,37,38,38,39,39,40,40,41,41,42,42,43,43,44,44,45,45,46,46,47,47,48,48,49,49,50,50,51,51,52,52,53,53,54,54,55,55,56,56,59,59,60,60],"right_children":[2,4,6,8,10,12,14,16,18,20,22,24,26,28,30,32,34,36,-1,38,40,42,44,46,48,50,52,54,56,58,60,62,64,66,68,-1,-1,70,72,74,76,78,80,82,84,86,88,90,92,94,96,98,100,102,104,106,108,-1,-1,110,112,-1,-1,-1,-1,-1,-1,-1,-1,-1,-1,-1,-1,-1,-1,-1,-1,-1,-1,-1,-1,-1,-1,-1,-1,-1,-1,-1,-1,-1,-1,-1,-1,-1,-1,-1,-1,-1,-1,-1,-1,-1,-1,-1,-1,-1,-1,-1,-1,-1,-1,-1,-1],"split_conditions":[3.0677658E-1,4.5136362E-1,4.3772727E-1,4.9040002E-1,1.4168969E-1,5.0345004E-1,7.303667E-1,1.5872891E-1,3.481818E-1,6.76378E-1,6.1136365E-1,3.25E-1,4.1863635E-1,5.931818E-1,3.6494166E-1,4.506579E-2,3.4981668E-1,3.181818E-1,-2.3008082E0,1.3101909E-1,6.4296E-1,1.5022182E-1,7.55E-1,3.7845E-1,3.9863637E-1,8.466936E-1,5.3385E-1,6.3015E-1,7.7382326E-1,2.71725E-1,7.6898754E-1,3.6954546E-1,3.2863638E-1,1.9344827E-3,2.3025644E-1,-4.1460404E0,-3.172513E0,5.531818E-1,4.96775E-1,7.0681816E-1,9.9773335E-1,5.0670004E-1,5.5227274E-1,9.8249996E-1,9.999667E-1,4.8250002E-1,3.1045455E-1,4.6394998E-1,4.7445E-1,5.0499998E-2,8.9196265E-1,6.055E-1,8.486862E-1,4.1208845E-1,5.6863636E-1,5.2672225E-1,5.8105004E-1,5.4016566E0,2.316583E0,7.0863634E-1,8.9864284E-1,-6.0837036E-1,-3.5093245E-1,-3.9472774E-1,-2.767927E-1,-1.4930744E-1,-7.882115E-1,-4.8765934E-1,-6.209314E-1,-2.034532E-1,-1.2758662E-1,1.8380433E-2,-3.9364573E-1,-2.4312916E-1,-1.7440471E-1,-2.1394968E-1,-3.8718334E-1,-1.8784848E-1,-5.7008314E-1,-4.8461124E-1,-3.7926674E-1,-3.3240846E-1,-1.7647961E-1,-2.189535E-1,-1.0952768E-1,-1.0805594E0,-7.510009E-1,-2.0971963E0,-1.5109917E0,-8.336679E-1,-1.5136095E0,-6.242838E-1,-8.3198327E-1,-1.0105618E0,-2.3544214E0,-1.8394011E0,-1.2615484E0,-1.1752282E0,-8.2085997E-1,-2.1396945E0,-1.5757325E0,1.0390346E0,-6.714876E-1,-1.5623604E0,-9.864797E-1,5.9195507E-1,-4.177864E-1,3.6936824E0,-5.596752E-1,-4.051014E-1,-2.7290776E-1,-4.797722E-1,-3.329515E-1],"split_indices":[3,0,0,1,3,1,2,3,0,2,0,0,0,0,1,2,1,0,0,3,1,3,0,1,0,3,1,1,3,1,3,0,0,2,3,0,0,0,1,0,2,1,0,2,2,2,0,1,1,2,3,2,3,1,0,1,1,0,0,0,2,0,0,0,0,0,0,0,0,0,0,0,0,0,0,0,0,0,0,0,0,0,0,0,0,0,0,0,0,0,0,0,0,0,0,0,0,0,0,0,0,0,0,0,0,0,0,0,0,0,0,0,0],"split_type":[0,0,0,0,0,0,0,0,0,0,0,0,0,0,0,0,0,0,0,0,0,0,0,0,0,0,0,0,0,0,0,0,0,0,0,0,0,0,0,0,0,0,0,0,0,0,0,0,0,0,0,0,0,0,0,0,0,0,0,0,0,0,0,0,0,0,0,0,0,0,0,0,0,0,0,0,0,0,0,0,0,0,0,0,0,0,0,0,0,0,0,0,0,0,0,0,0,0,0,0,0,0,0,0,0,0,0,0,0,0,0,0,0],"sum_hessian":[2.36143E5,1.16206E5,1.19937E5,2.4678E4,9.1528E4,2.9497E4,9.044E4,2.4536E4,1.42E2,7.1033E4,2.0495E4,2.8443E4,1.054E3,4.4919E4,4.5521E4,1.8711E4,5.825E3,9.1E1,5.1E1,2.3747E4,4.7286E4,7.543E3,1.2952E4,8.697E3,1.9746E4,3.7E2,6.84E2,2.2015E4,2.2904E4,1.3E1,4.5508E4,4.968E3,1.3743E4,2.399E3,3.426E3,6.7E1,2.4E1,2.2903E4,8.44E2,3.204E4,1.5246E4,7.37E2,6.806E3,6.655E3,6.297E3,8.024E3,6.73E2,1.3323E4,6.423E3,1.64E2,2.06E2,5.3E2,1.54E2,2.0878E4,1.137E3,1.0487E4,1.2417E4,1E1,3E0,2.6375E4,1.9133E4,2.249E3,2.719E3,3.1E3,1.0643E4,8.1E1,2.318E3,1.964E3,1.462E3,1.0088E4,1.2815E4,9.6E1,7.48E2,1.7652E4,1.4388E4,1.1247E4,3.999E3,5.41E2,1.96E2,4.339E3,2.467E3,5.423E3,1.232E3,5.422E3,8.75E2,6.478E3,1.546E3,2.07E2,4.66E2,1.2457E4,8.66E2,3.898E3,2.525E3,5E0,1.59E2,1.52E2,5.4E1,3.95E2,1.35E2,7.3E1,8.1E1,6.8E1,2.081E4,3.43E2,7.94E2,7.5E1,1.0412E4,5E0,1.2412E4,1.0952E4,1.5423E4,1.5524E4,3.609E3],"tree_param":{"num_deleted":"0","num_feature":"4","num_nodes":"113","size_leaf_vector":"0"}},{"base_weights":[-1.0158548E0,-6.507817E-1,-1.3890764E0,-1.1845603E0,-5.7608396E-1,-1.9999143E0,-1.0645467E0,-1.1236925E0,-8.485941E0,-4.990786E-1,-8.253242E-1,-2.1282694E0,-1.2080406E0,-1.2906224E0,-8.52095E-1,-9.501078E-1,-1.7256092E0,-9.735065E0,-6.7558217E0,-4.5808208E-1,-5.8477575E-1,-1.1686764E0,-5.8124435E-1,-2.0761852E0,-3.7968462E0,1.1895058E1,-1.2356955E0,-1.2081884E0,-2.0378613E0,-1.3741864E-1,-8.910012E-1,-1.5365077E0,-7.854992E-1,-2.306136E0,-1.5377704E0,-7.1414113E0,-4.8111396E0,-5.310028E-1,-3.0733892E-1,-5.1546454E-1,-7.9303724E-1,-4.2196313E-1,-1.2015052E0,-7.3640734E-1,-4.6833587E-1,-2.283455E0,-1.5908905E0,-4.6088567E0,-3.1699474E0,-1.0637283E0,-1.7372346E0,1.3492499E1,-1.2121292E0,-2.8093598E0,-1.7178969E0,-1.508626E-1,9.000987E0,-7.5498307E-1,-1.0082706E0,-2.0770755E-1,-2.180432E0,-7.677425E-1,-1.9211085E0,-2.1905904E0,-3.6102247E0,-5.5321044E-1,-1.6294168E0,-2.0545197E0,-5.1570115E0,-5.0926846E-1,-1.0699708E0,1.1653925E1,-3.1478116E-1,-8.746828E-1,-4.9071088E-1,-1.2059016E0,-5.8139634E-1,-1.5561382E-1,-9.052241E-1,-1.4003671E0,-1.0962803E0,-8.430543E-1,-4.7180673E-1,-5.0963444E-1,-1.3637266E-1,-2.2090504E0,-3.7436688E0,-1.4478532E0,-2.3180292E0,-2.3546398E0,-5.1861067E0,-2.7227998E0,-3.6748552E0,-9.620403E-1,-2.4586513E0,-1.895164E0,-9.3635356E-1,1.8451252E1,7.937916E0,-1.3669375E0,-9.157095E-1,-4.3373885E0,-2.603521E0,-1.2759615E0,-2.3121173E0,6.2933826E-1,-2.5985706E-1,-8.8665956E-1,-5.4559726E-1,-1.0417467E0,-5.301369E-1],"categories":[],"categories_nodes":[],"categories_segments":[],"categories_sizes":[],"default_left":[true,true,true,true,true,true,true,true,true,true,true,true,true,true,true,true,true,false,true,true,true,true,true,true,true,false,true,true,true,true,true,true,true,true,true,false,true,true,true,true,true,true,true,true,true,true,true,true,true,true,true,true,true,true,true,true,false,true,true,false,false,false,false,false,false,false,false,false,false,false,false,false,false,false,false,false,false,false,false,false,false,false,false,false,false,false,false,false,false,false,false,false,false,false,false,false,false,false,false,false,false,false,false,false,false,false,false,false,false,false,false],"id":3,"left_children":[1,3,5,7,9,11,13,15,17,19,21,23,25,27,29,31,33,-1,35,37,39,41,43,45,47,-1,49,51,53,55,57,59,61,63,65,-1,67,69,71,73,75,77,79,81,83,85,87,89,91,93,95,97,99,101,103,105,-1,107,109,-1,-1,-1,-1,-1,-1,-1,-1,-1,-1,-1,-1,-1,-1,-1,-1,-1,-1,-1,-1,-1,-1,-1,-1,-1,-1,-1,-1,-1,-1,-1,-1,-1,-1,-1,-1,-1,-1,-1,-1,-1,-1,-1,-1,-1,-1,-1,-1,-1,-1,-1,-1],"loss_changes":[3.2174453E4,4.759125E3,2.3145375E4,6.5029727E3,2.0095352E3,4.1151094E3,3.6615312E3,1.5169238E3,1.9572949E2,2.8082227E2,2.0707363E3,3.0216875E3,2.0631494E3,2.2730898E3,1.0930723E3,1.0879004E3,3.5106934E2,0E0,6.133545E0,5.9477344E2,3.7325195E2,2.5122559E2,2.5279053E2,3.3969062E3,5.2192773E2,0E0,4.8476465E2,1.9440508E3,9.00874E2,2.508792E2,5.939785E2,2.1147056E3,1.7621631E2,1.1158203E2,2.2106738E2,0E0,8.4606934E-1,4.2673828E2,1.5746725E3,1.7229736E2,5.639419E2,5.572197E1,2.0428516E2,1.7128564E2,1.14625E2,2.5652422E3,1.0493086E3,5.82458E2,1.2500342E2,5.93959E2,1.8023389E2,1.0142969E2,1.5252617E3,3.2651074E2,6.787788E2,1.7270479E2,0E0,4.755879E2,3.1988867E2,0E0,0E0,0E0,0E0,0E0,0E0,0E0,0E0,0E0,0E0,0E0,0E0,0E0,0E0,0E0,0E0,0E0,0E0,0E0,0E0,0E0,0E0,0E0,0E0,0E0,0E0,0E0,0E0,0E0,0E0,0E0,0E0,0E0,0E0,0E0,0E0,0E0,0E0,0E0,0E0,0E0,0E0,0E0,0E0,0E0,0E0,0E0,0E0,0E0,0E0,0E0,0E0],"parents":[2147483647,0,0,1,1,2,2,3,3,4,4,5,5,6,6,7,7,8,8,9,9,10,10,11,11,12,12,13,13,14,14,15,15,16,16,18,18,19,19,20,20,21,21,22,22,23,23,24,24,26,26,27,27,28,28,29,29,30,30,31,31,32,32,33,33,34,34,36,36,37,37,38,38,39,39,40,40,41,41,42,42,43,43,44,44,45,45,46,46,47,47,48,48,49,49,50,50,51,51,52,52,53,53,54,54,55,55,57,57,58,58],"right_children":[2,4,6,8,10,12,14,16,18,20,22,24,26,28,30,32,34,-1,36,38,40,42,44,46,48,-1,50,52,54,56,58,60,62,64,66,-1,68,70,72,74,76,78,80,82,84,86,88,90,92,94,96,98,100,102,104,106,-1,108,110,-1,-1,-1,-1,-1,-1,-1,-1,-1,-1,-1,-1,-1,-1,-1,-1,-1,-1,-1,-1,-1,-1,-1,-1,-1,-1,-1,-1,-1,-1,-1,-1,-1,-1,-1,-1,-1,-1,-1,-1,-1,-1,-1,-1,-1,-1,-1,-1,-1,-1,-1,-1],"split_conditions":[3.2978457E-1,3.9136365E-1,4.9954545E-1,4.639E-1,1.4772487E-1,6.8005E-1,6.9954544E-1,1.8186754E-1,3.181818E-1,6.121758E-1,5.95E-1,5.5934E-1,2.5435E-1,6.7705E-1,6.3302505E-1,2.8085107E-2,3.068182E-1,-2.9205198E0,3.7681818E-1,6.4772725E-1,9.9773335E-1,1.5194193E-3,7.204546E-1,4.2227274E-1,8.5833097E-1,3.5685174E0,8.604975E-1,3.8984132E-1,6.6136366E-1,7.891917E-1,5.370742E-1,3.104853E-1,3.956508E-1,3.234282E-1,5.976923E-3,-2.1424234E0,3.7863636E-1,5.8295E-1,5E-4,6.8954545E-1,7.713636E-1,4.9045455E-1,4.6318182E-1,8.6749995E-1,3.118474E-1,4.8595E-1,5.3785E-1,6.486522E-1,5.525E-1,9.9975E-1,8.485E-1,2.9225E-1,6.1863637E-1,6.2136364E-1,6.9560003E-1,6.723737E-1,2.7002962E0,8.340909E-1,9.395E-1,-6.2312268E-2,-6.541296E-1,-2.3032276E-1,-5.7633257E-1,-6.5717715E-1,-1.0830674E0,-1.6596314E-1,-4.8882505E-1,-6.163559E-1,-1.5471035E0,-1.5278055E-1,-3.2099128E-1,3.4961777E0,-9.443435E-2,-2.6240486E-1,-1.4721327E-1,-3.617705E-1,-1.7441891E-1,-4.668415E-2,-2.7156723E-1,-4.2011017E-1,-3.2888412E-1,-2.529163E-1,-1.4154203E-1,-1.5289034E-1,-4.0911797E-2,-6.6271514E-1,-1.1231006E0,-4.3435597E-1,-6.9540876E-1,-7.0639193E-1,-1.555832E0,-8.1684E-1,-1.1024566E0,-2.886121E-1,-7.3759544E-1,-5.685492E-1,-2.8090608E-1,5.5353756E0,2.3813748E0,-4.1008127E-1,-2.7471286E-1,-1.3012166E0,-7.8105634E-1,-3.8278848E-1,-6.936352E-1,1.8880148E-1,-7.795712E-2,-2.659979E-1,-1.6367918E-1,-3.1252402E-1,-1.5904108E-1],"split_indices":[3,0,0,1,3,2,0,3,0,1,0,1,1,1,1,2,0,0,0,0,2,2,0,0,3,0,3,1,0,3,3,1,1,3,2,0,0,1,2,0,0,0,0,2,3,1,1,3,2,2,2,1,0,0,1,2,0,0,2,0,0,0,0,0,0,0,0,0,0,0,0,0,0,0,0,0,0,0,0,0,0,0,0,0,0,0,0,0,0,0,0,0,0,0,0,0,0,0,0,0,0,0,0,0,0,0,0,0,0,0,0],"split_type":[0,0,0,0,0,0,0,0,0,0,0,0,0,0,0,0,0,0,0,0,0,0,0,0,0,0,0,0,0,0,0,0,0,0,0,0,0,0,0,0,0,0,0,0,0,0,0,0,0,0,0,0,0,0,0,0,0,0,0,0,0,0,0,0,0,0,0,0,0,0,0,0,0,0,0,0,0,0,0,0,0,0,0,0,0,0,0,0,0,0,0,0,0,0,0,0,0,0,0,0,0,0,0,0,0,0,0,0,0,0,0],"sum_hessian":[2.36143E5,1.19376E5,1.16767E5,1.4653E4,1.04723E5,4.0511E4,7.6256E4,1.4533E4,1.2E2,8.0007E4,2.4716E4,3.4859E4,5.652E3,3.6941E4,3.9315E4,1.1282E4,3.251E3,6.7E1,5.3E1,5.4122E4,2.5885E4,1.0268E4,1.4448E4,3.3806E4,1.053E3,1.1E1,5.641E3,3.3273E4,3.668E3,2.03E3,3.7285E4,2.471E3,8.811E3,7.92E2,2.459E3,4.2E1,1.1E1,3.6475E4,1.7647E4,1.9424E4,6.461E3,4.33E2,9.835E3,6.083E3,8.365E3,2.3686E4,1.012E4,4.56E2,5.97E2,4.203E3,1.438E3,8E0,3.3265E4,1.073E3,2.595E3,2.028E3,2E0,1.7266E4,2.0019E4,8.07E2,1.664E3,8.677E3,1.34E2,7.3E2,6.2E1,2.1E2,2.249E3,2E0,9E0,3.5063E4,1.412E3,1E1,1.7637E4,1.25E3,1.8174E4,2.188E3,4.273E3,2.8E2,1.53E2,3.399E3,6.436E3,4.334E3,1.749E3,7.439E3,9.26E2,2.254E4,1.146E3,8.459E3,1.661E3,9.4E1,3.62E2,3.2E2,2.77E2,3.919E3,2.84E2,1.2E3,2.38E2,3E0,5E0,2.185E4,1.1415E4,1.25E2,9.48E2,1.49E3,1.105E3,2.48E2,1.78E3,1.0598E4,6.668E3,1.8708E4,1.311E3],"tree_param":{"num_deleted":"0","num_feature":"4","num_nodes":"111","size_leaf_vector":"0"}},{"base_weights":[-7.1114177E-1,-4.664571E-1,-9.885152E-1,-7.83653E-1,-3.752339E-1,-1.4691197E0,-7.936856E-1,-7.5776815E-1,-5.4630504E0,-3.2514668E-1,-4.8003158E-1,-1.4047381E0,-2.5899167E0,-9.226338E-1,-5.404467E-1,-5.7549024E-1,-1.1613622E0,-6.5557313E0,-3.780674E0,4.334469E-2,-3.404985E-1,-6.6276616E-1,-3.5904095E-1,-1.6340704E0,-1.0332519E0,-3.810754E0,-2.3337355E0,3.384919E0,-9.303895E-1,1.3971363E1,-5.420648E-1,-7.531259E-1,-4.640862E-1,-1.6814468E0,-1.067229E0,-7.2491345E0,-5.516397E0,-4.315079E0,-1.1498628E0,1.405969E-1,-2.5070176E-1,-2.863311E-1,-4.1466564E-1,-6.996975E-1,-1.7809713E-1,-3.7977874E-1,4.1370565E-1,-1.5523894E0,-3.2372394E0,8.209574E0,-1.0444006E0,-4.387692E0,-3.4157572E0,-2.071606E0,-3.4124093E0,1.1344661E1,2.6140816E0,-1.0858114E0,-7.4001354E-1,-6.4480805E-1,-3.814012E-1,-1.7092843E0,-5.772534E-1,7.6816374E-1,-5.255314E-1,-1.5289236E0,-2.1376188E0,-8.2769567E-1,-1.2499591E0,-3.8636303E-1,-5.634989E0,-2.074984E0,-4.409881E0,-2.1365537E-1,3.3747867E-1,-1.0683536E-1,-3.4917346E-1,-5.458197E-1,-2.523894E-1,-6.1387455E-1,-3.369505E-1,-6.205746E-1,-8.3134264E-1,6.65563E-1,-3.041442E-1,-4.3709725E-1,-1.2084175E-1,-6.6153634E-1,1.1066145E0,-1.8070118E0,-1.2196981E0,-4.105172E0,-2.772881E0,9.402282E0,4.182241E0,-1.7368875E0,-9.9093E-1,-4.8061676E0,-3.1128457E0,-3.5485399E0,-2.756683E0,-1.9042718E0,-2.6249535E0,-4.448417E0,-2.8087828E0,1.1576322E0,3.7199478E0,-8.604971E-1,-1.3125001E0,-1.2644225E0,-6.923944E-1,-7.115808E-1,-2.111966E-1,-3.9277497E-1,7.0263803E-1],"categories":[],"categories_nodes":[],"categories_segments":[],"categories_sizes":[],"default_left":[true,true,true,true,true,true,true,true,true,true,true,true,true,true,true,true,true,true,true,true,true,true,true,true,true,true,true,true,true,false,true,true,true,true,true,false,true,true,false,true,true,true,true,true,true,true,true,true,true,true,true,true,true,true,true,false,true,true,true,true,true,false,false,false,false,false,false,false,false,false,false,false,false,false,false,false,false,false,false,false,false,false,false,false,false,false,false,false,false,false,false,false,false,false,false,false,false,false,false,false,false,false,false,false,false,false,false,false,false,false,false,false,false,false,false],"id":4,"left_children":[1,3,5,7,9,11,13,15,17,19,21,23,25,27,29,31,33,35,37,39,41,43,45,47,49,51,53,55,57,-1,59,61,63,65,67,-1,69,71,-1,73,75,77,79,81,83,85,87,89,91,93,95,97,99,101,103,-1,105,107,109,111,113,-1,-1,-1,-1,-1,-1,-1,-1,-1,-1,-1,-1,-1,-1,-1,-1,-1,-1,-1,-1,-1,-1,-1,-1,-1,-1,-1,-1,-1,-1,-1,-1,-1,-1,-1,-1,-1,-1,-1,-1,-1,-1,-1,-1,-1,-1,-1,-1,-1,-1,-1,-1,-1,-1],"loss_changes":[1.6026391E4,3.6301719E3,1.0362289E4,3.3901602E3,5.1133496E2,2.2999531E3,2.5712188E3,2.049624E3,2.58313E2,3.7301562E2,6.9642236E2,2.5704805E3,5.331123E2,1.746457E3,6.3155566E2,3.796255E2,4.2266406E2,2.6313232E1,8.3611145E1,7.547324E1,2.5418115E2,2.2453174E2,3.039922E2,2.439254E3,1.1963809E3,5.3151367E1,3.9868018E2,5.470968E2,1.5404336E3,0E0,4.3838037E2,1.2432432E3,8.9407764E2,8.90603E1,3.204121E2,0E0,2.276648E1,1.8925781E0,0E0,1.3837805E2,9.256092E0,3.220835E2,4.133828E2,1.2095703E2,9.484581E1,2.7400244E2,3.7027426E2,1.5025117E3,3.5295703E2,2.7925476E1,4.2461523E2,4.799121E1,6.1452637E0,1.02132324E2,1.619812E2,0E0,1.3581921E2,1.4634805E3,5.838418E2,4.6906934E2,1.2809705E2,0E0,0E0,0E0,0E0,0E0,0E0,0E0,0E0,0E0,0E0,0E0,0E0,0E0,0E0,0E0,0E0,0E0,0E0,0E0,0E0,0E0,0E0,0E0,0E0,0E0,0E0,0E0,0E0,0E0,0E0,0E0,0E0,0E0,0E0,0E0,0E0,0E0,0E0,0E0,0E0,0E0,0E0,0E0,0E0,0E0,0E0,0E0,0E0,0E0,0E0,0E0,0E0,0E0,0E0],"parents":[2147483647,0,0,1,1,2,2,3,3,4,4,5,5,6,6,7,7,8,8,9,9,10,10,11,11,12,12,13,13,14,14,15,15,16,16,17,17,18,18,19,19,20,20,21,21,22,22,23,23,24,24,25,25,26,26,27,27,28,28,30,30,31,31,32,32,33,33,34,34,36,36,37,37,39,39,40,40,41,41,42,42,43,43,44,44,45,45,46,46,47,47,48,48,49,49,50,50,51,51,52,52,53,53,54,54,56,56,57,57,58,58,59,59,60,60],"right_children":[2,4,6,8,10,12,14,16,18,20,22,24,26,28,30,32,34,36,38,40,42,44,46,48,50,52,54,56,58,-1,60,62,64,66,68,-1,70,72,-1,74,76,78,80,82,84,86,88,90,92,94,96,98,100,102,104,-1,106,108,110,112,114,-1,-1,-1,-1,-1,-1,-1,-1,-1,-1,-1,-1,-1,-1,-1,-1,-1,-1,-1,-1,-1,-1,-1,-1,-1,-1,-1,-1,-1,-1,-1,-1,-1,-1,-1,-1,-1,-1,-1,-1,-1,-1,-1,-1,-1,-1,-1,-1,-1,-1,-1,-1,-1,-1],"split_conditions":[3.5918257E-1,4.55E-1,4.65E-1,4.9989998E-1,1.163714E-1,5.191839E-1,7.936406E-1,1.5824394E-1,3.481818E-1,4.3352E-1,6.4681816E-1,3.9045453E-1,4.3227273E-1,4.3782884E-1,3.75925E-1,3.6045456E-1,3.1136364E-1,3.0727273E-1,1.155E-1,7.385E-1,8.6812866E-1,9.655E-1,7.7392495E-1,4.5527333E-1,3.2848388E-1,8.4567845E-1,5.5265E-1,3.136E-1,6.695455E-1,4.191409E0,8.916812E-1,1.0125E-2,1.9848486E-3,2.9895002E-1,1.0633333E-1,-2.1747406E0,3.0954546E-1,3.531818E-1,-3.4495884E-1,1.855E-1,8.555E-1,5.05E-1,6.922727E-1,2.3406222E-1,1.4911696E-1,9.999667E-1,8.0850005E-1,3.3863637E-1,8.4369457E-1,1.344E-1,7.35E-2,4.68E-1,8.894924E-1,8.851143E-1,8.490691E-1,3.4033983E0,4.9045455E-1,7.833426E-1,3.754388E-1,8.468182E-1,7.6175E-1,-5.127853E-1,-1.7317602E-1,2.3044913E-1,-1.5765943E-1,-4.586771E-1,-6.4128566E-1,-2.483087E-1,-3.7498775E-1,-1.1590891E-1,-1.6904967E0,-6.2249523E-1,-1.3229644E0,-6.4096615E-2,1.0124361E-1,-3.205061E-2,-1.0475204E-1,-1.6374591E-1,-7.571682E-2,-1.8416238E-1,-1.01085156E-1,-1.8617238E-1,-2.494028E-1,1.996689E-1,-9.124327E-2,-1.3112918E-1,-3.6252525E-2,-1.984609E-1,3.3198434E-1,-5.421036E-1,-3.6590943E-1,-1.2315516E0,-8.3186436E-1,2.8206847E0,1.2546723E0,-5.2106625E-1,-2.9727903E-1,-1.4418503E0,-9.3385375E-1,-1.064562E0,-8.2700497E-1,-5.7128155E-1,-7.874861E-1,-1.3345252E0,-8.4263486E-1,3.4728968E-1,1.1159844E0,-2.5814915E-1,-3.9375004E-1,-3.793268E-1,-2.0771833E-1,-2.1347426E-1,-6.3358985E-2,-1.178325E-1,2.1079142E-1],"split_indices":[3,0,0,1,3,1,2,3,0,1,0,0,0,1,1,0,0,0,2,2,2,2,1,1,1,3,1,1,0,0,2,2,2,1,2,0,0,0,0,2,2,0,0,3,3,2,2,0,3,1,2,2,3,3,3,0,0,3,3,0,1,0,0,0,0,0,0,0,0,0,0,0,0,0,0,0,0,0,0,0,0,0,0,0,0,0,0,0,0,0,0,0,0,0,0,0,0,0,0,0,0,0,0,0,0,0,0,0,0,0,0,0,0,0,0],"split_type":[0,0,0,0,0,0,0,0,0,0,0,0,0,0,0,0,0,0,0,0,0,0,0,0,0,0,0,0,0,0,0,0,0,0,0,0,0,0,0,0,0,0,0,0,0,0,0,0,0,0,0,0,0,0,0,0,0,0,0,0,0,0,0,0,0,0,0,0,0,0,0,0,0,0,0,0,0,0,0,0,0,0,0,0,0,0,0,0,0,0,0,0,0,0,0,0,0,0,0,0,0,0,0,0,0,0,0,0,0,0,0,0,0,0,0],"sum_hessian":[2.36143E5,1.25466E5,1.10677E5,2.8022E4,9.7444E4,3.1923E4,7.8754E4,2.7869E4,1.53E2,6.5935E4,3.1509E4,3.0191E4,1.732E3,5.2181E4,2.6573E4,1.92E4,8.669E3,9.1E1,6.2E1,2.637E3,6.3298E4,1.255E4,1.8959E4,1.8665E4,1.1526E4,2.98E2,1.434E3,9.3E1,5.2088E4,2E0,2.6571E4,7.398E3,1.1802E4,1.326E3,7.343E3,5.1E1,4E1,5.1E1,1.1E1,1.982E3,6.55E2,3.6584E4,2.6714E4,1.1661E4,8.89E2,1.8464E4,4.95E2,1.7762E4,9.03E2,1.3E1,1.1513E4,1.17E2,1.81E2,1.156E3,2.78E2,7E0,8.6E1,2.8674E4,2.3414E4,1.6205E4,1.0366E4,1.148E3,6.25E3,5.6E2,1.1242E4,9.97E2,3.29E2,3.18E3,4.163E3,1E0,3.9E1,3E0,4.8E1,7.08E2,1.274E3,2.67E2,3.88E2,4.23E3,3.2354E4,7.495E3,1.9219E4,7.287E3,4.374E3,1.15E2,7.74E2,1.5117E4,3.347E3,1.94E2,3.01E2,1.0059E4,7.703E3,3.12E2,5.91E2,9E0,4E0,8.23E2,1.069E4,8.6E1,3.1E1,1.47E2,3.4E1,8.91E2,2.65E2,1E2,1.78E2,3.8E1,4.8E1,1.4383E4,1.4291E4,1.947E3,2.1467E4,1.4042E4,2.163E3,1.0259E4,1.07E2],"tree_param":{"num_deleted":"0","num_feature":"4","num_nodes":"115","size_leaf_vector":"0"}},{"base_weights":[-4.9783933E-1,-3.6725682E-1,-7.573626E-1,-5.2383614E-1,-2.770155E-1,-1.2269187E0,-6.1301404E-1,-3.6043808E-1,-7.755999E-1,7.5139794E0,-2.7818546E-1,-1.1623268E0,-2.4744456E0,7.6033907E0,-6.1667466E-1,-1.5627372E0,-3.333945E-1,-8.140972E-1,-1.640628E-1,4.788569E0,1.2007086E1,-2.4375848E-1,-4.0683156E-1,-1.6427003E0,-1.0198878E0,-3.0597665E0,-1.9922206E0,1.3246489E1,6.0460477E0,-7.950764E-1,-4.6650183E-1,-2.6088622E0,-8.573575E-1,2.2251976E-1,-3.4905437E-1,-7.2029215E-1,-1.0160706E0,1.01285E0,-2.7013862E-1,5.8915405E0,-3.1205714E0,-1.9079787E-1,-2.9394197E-1,2.6553795E0,-4.18355E-1,-1.4251318E0,-3.8162813E0,-7.6344067E-1,-1.1956095E0,-3.3574145E0,-1.4237106E0,-1.3598063E0,-2.6344128E0,5.8788733E0,1.6198608E1,-4.2724273E-1,-8.822993E-1,-2.3102716E-1,-5.300175E-1,6.6041976E-1,-3.1133604E0,1.2758355E0,-1.0640485E0,2.6862779E0,-4.5246375E-1,-4.2663845E-1,-2.5545505E-1,-8.172853E-1,-5.239764E-1,-1.9555761E0,-9.886752E-1,1.2291704E0,5.4698837E-1,-8.0076545E-1,4.9002785E-2,2.0533252E0,7.2431574E0,-1.639123E-1,-5.086199E-1,-4.351544E-1,-2.442332E-1,-5.8719987E-1,-2.7009222E-1,-1.7012031E0,-9.1847014E-1,-5.0858226E0,-3.1232915E0,-1.0094914E0,-3.98208E-1,-3.0447376E0,-1.0300853E0,-3.917944E0,-3.1178567E0,-6.949936E-1,-1.7095938E0,-1.6558303E0,-9.6441984E-1,-2.8880548E0,-1.6179602E0,-3.5964555E-1,-1.1991642E0,-2.640057E-1,-9.3861306E-1,-3.0739826E-1,6.176766E-1,-1.7294317E0,-5.083102E-1],"categories":[],"categories_nodes":[],"categories_segments":[],"categories_sizes":[],"default_left":[true,true,true,true,true,true,true,true,true,true,true,true,true,true,true,true,true,true,true,true,false,true,true,true,true,true,true,true,false,true,true,true,true,true,true,true,true,true,true,true,false,true,true,false,true,true,true,true,true,true,true,true,true,false,false,true,true,true,true,false,false,false,false,false,false,false,false,false,false,false,false,false,false,false,false,false,false,false,false,false,false,false,false,false,false,false,false,false,false,false,false,false,false,false,false,false,false,false,false,false,false,false,false,false,false,false,false],"id":5,"left_children":[1,3,5,7,9,11,13,15,17,19,21,23,25,27,29,31,33,35,37,39,-1,41,43,45,47,49,51,53,-1,55,57,59,61,63,65,67,69,71,73,75,-1,77,79,-1,81,83,85,87,89,91,93,95,97,-1,-1,99,101,103,105,-1,-1,-1,-1,-1,-1,-1,-1,-1,-1,-1,-1,-1,-1,-1,-1,-1,-1,-1,-1,-1,-1,-1,-1,-1,-1,-1,-1,-1,-1,-1,-1,-1,-1,-1,-1,-1,-1,-1,-1,-1,-1,-1,-1,-1,-1,-1,-1],"loss_changes":[8.002453E3,2.219666E3,5.3568984E3,2.3625469E3,9.105537E2,1.4947031E3,1.8231855E3,1.1320566E3,5.320449E2,1.26186584E2,4.4124023E2,1.2075117E3,2.5188672E2,1.5719348E2,1.618748E3,5.630065E2,2.966587E2,4.0217676E2,1.6756187E2,1.1434407E2,0E0,2.0888281E2,7.434114E2,1.9050889E3,6.1343555E2,1.9536426E2,2.0110803E2,1.3520874E1,0E0,8.8576953E2,4.9068457E2,5.1005493E2,2.0373611E2,1.5544536E3,2.4051147E2,2.7614697E2,1.7159326E2,1.0513725E1,2.0833359E2,3.70054E1,0E0,3.2677332E2,2.8322852E2,0E0,5.244912E2,5.123374E2,3.0699414E2,4.979939E2,2.4724014E3,3.437915E1,1.2353165E1,2.8366333E1,5.9523193E1,0E0,0E0,2.759123E2,7.770742E2,4.5215494E2,6.719961E2,0E0,0E0,0E0,0E0,0E0,0E0,0E0,0E0,0E0,0E0,0E0,0E0,0E0,0E0,0E0,0E0,0E0,0E0,0E0,0E0,0E0,0E0,0E0,0E0,0E0,0E0,0E0,0E0,0E0,0E0,0E0,0E0,0E0,0E0,0E0,0E0,0E0,0E0,0E0,0E0,0E0,0E0,0E0,0E0,0E0,0E0,0E0,0E0],"parents":[2147483647,0,0,1,1,2,2,3,3,4,4,5,5,6,6,7,7,8,8,9,9,10,10,11,11,12,12,13,13,14,14,15,15,16,16,17,17,18,18,19,19,21,21,22,22,23,23,24,24,25,25,26,26,27,27,29,29,30,30,31,31,32,32,33,33,34,34,35,35,36,36,37,37,38,38,39,39,41,41,42,42,44,44,45,45,46,46,47,47,48,48,49,49,50,50,51,51,52,52,55,55,56,56,57,57,58,58],"right_children":[2,4,6,8,10,12,14,16,18,20,22,24,26,28,30,32,34,36,38,40,-1,42,44,46,48,50,52,54,-1,56,58,60,62,64,66,68,70,72,74,76,-1,78,80,-1,82,84,86,88,90,92,94,96,98,-1,-1,100,102,104,106,-1,-1,-1,-1,-1,-1,-1,-1,-1,-1,-1,-1,-1,-1,-1,-1,-1,-1,-1,-1,-1,-1,-1,-1,-1,-1,-1,-1,-1,-1,-1,-1,-1,-1,-1,-1,-1,-1,-1,-1,-1,-1,-1,-1,-1,-1,-1,-1],"split_conditions":[4.3266344E-1,5.477273E-1,4.1227272E-1,1.770851E-1,5E-4,4.8035002E-1,3.6965E-1,8.75E-4,8.4479856E-1,7.4136364E-1,3.5820973E-1,3.0409092E-1,3.968182E-1,9.325001E-2,6.908636E-1,3.2863638E-1,1.0045045E-3,4.7232038E-1,4.0144998E-1,7.218182E-1,3.602126E0,6.0037255E-1,4.981181E-1,3.60075E-1,3.937772E-1,8.9371216E-1,4.969E-1,4.6772727E-1,1.8138144E0,4.848011E-1,5.9925E-1,2.996E-1,3.7445E-1,3.3808726E-1,4.4863635E-1,3.641736E-1,4.15E-1,4.2318183E-1,3.453533E-1,6.272727E-1,-9.361715E-1,7.959091E-1,7.4863636E-1,7.966139E-1,7.2136366E-1,3.6308333E-1,2.95E-1,4.4618517E-1,3.359091E-1,8.384577E-1,8.954407E-1,4.925E-1,8.925675E-1,1.7636621E0,4.859583E0,7.553E-1,4.9835E-1,5.913636E-1,5.7954544E-1,1.9812594E-1,-9.340082E-1,3.8275066E-1,-3.1921458E-1,8.058834E-1,-1.3573913E-1,-1.2799154E-1,-7.6636516E-2,-2.451856E-1,-1.5719292E-1,-5.8667284E-1,-2.9660258E-1,3.6875114E-1,1.6409652E-1,-2.4022965E-1,1.47008365E-2,6.1599755E-1,2.1729474E0,-4.917369E-2,-1.5258598E-1,-1.3054633E-1,-7.326996E-2,-1.7615996E-1,-8.102767E-2,-5.1036096E-1,-2.7554107E-1,-1.5257468E0,-9.3698746E-1,-3.0284745E-1,-1.194624E-1,-9.1342133E-1,-3.0902562E-1,-1.1753832E0,-9.3535703E-1,-2.0849809E-1,-5.128782E-1,-4.967491E-1,-2.8932595E-1,-8.664165E-1,-4.8538807E-1,-1.0789367E-1,-3.5974926E-1,-7.920171E-2,-2.8158394E-1,-9.221948E-2,1.8530299E-1,-5.188295E-1,-1.5249306E-1],"split_indices":[3,0,0,3,2,1,1,2,2,0,3,0,0,1,2,0,2,1,1,0,0,1,1,1,1,3,1,0,0,3,1,1,1,1,0,3,0,0,3,0,0,0,0,0,0,2,0,2,0,3,3,2,3,0,0,1,1,0,0,0,0,0,0,0,0,0,0,0,0,0,0,0,0,0,0,0,0,0,0,0,0,0,0,0,0,0,0,0,0,0,0,0,0,0,0,0,0,0,0,0,0,0,0,0,0,0,0],"split_type":[0,0,0,0,0,0,0,0,0,0,0,0,0,0,0,0,0,0,0,0,0,0,0,0,0,0,0,0,0,0,0,0,0,0,0,0,0,0,0,0,0,0,0,0,0,0,0,0,0,0,0,0,0,0,0,0,0,0,0,0,0,0,0,0,0,0,0,0,0,0,0,0,0,0,0,0,0,0,0,0,0,0,0,0,0,0,0,0,0,0,0,0,0,0,0,0,0,0,0,0,0,0,0,0,0,0,0],"sum_hessian":[2.36143E5,1.57099E5,7.9044E4,5.7436E4,9.9663E4,1.8584E4,6.046E4,3.4832E4,2.2604E4,1.4E1,9.9649E4,1.7671E4,9.13E2,2.6E1,6.0434E4,7.65E2,3.4067E4,2.1265E4,1.339E3,1E1,4E0,7.8614E4,2.1035E4,4.039E3,1.3632E4,4.1E2,5.03E2,4E0,2.2E1,2.7619E4,3.2815E4,3.07E2,4.58E2,9.33E2,3.3134E4,1.4524E4,6.741E3,1.1E2,1.229E3,9E0,1E0,3.8251E4,4.0363E4,7.8E1,2.0957E4,3.673E3,3.66E2,5.545E3,8.087E3,3.46E2,6.4E1,2.55E2,2.48E2,2E0,2E0,5.295E3,2.2324E4,6.972E3,2.5843E4,4.1E1,2.66E2,4E1,4.18E2,2E2,7.33E2,1.8115E4,1.5019E4,9.719E3,4.805E3,1.89E2,6.552E3,7.4E1,3.6E1,4.61E2,7.68E2,3E0,6E0,3.5269E4,2.982E3,1.0507E4,2.9856E4,9.797E3,1.116E4,2.376E3,1.297E3,1.27E2,2.39E2,3.312E3,2.233E3,6.63E2,7.424E3,9.9E1,2.47E2,1.9E1,4.5E1,1.44E2,1.11E2,1.97E2,5.1E1,4.87E3,4.25E2,1.864E3,2.046E4,6.397E3,5.75E2,4.58E2,2.5385E4],"tree_param":{"num_deleted":"0","num_feature":"4","num_nodes":"107","size_leaf_vector":"0"}},{"base_weights":[-3.4848088E-1,-2.7563703E-1,-5.926661E-1,-4.644009E-1,-2.1302699E-1,-9.65523E-1,-4.6010354E-1,-3.1718895E-1,-6.281265E-1,-1.5160619E-1,-2.692023E-1,-1.2469085E0,-5.570423E-1,-5.889965E-1,-2.937824E-1,-2.9793668E-1,-3.4633434E0,-8.743341E-1,-4.8231444E-1,-1.1102639E-1,-2.8029373E-1,-3.1072223E-1,-9.6886866E-2,-1.4006878E0,-1.0830314E0,-1.231016E0,-2.8392616E-1,-5.5088264E-1,-1.7993654E0,2.695781E-2,-3.417771E-1,-4.346345E-1,-2.3472E-1,-5.2724795E0,-3.2140393E0,-2.272879E0,-8.406496E-1,-5.2892435E-1,3.3705704E-2,-1.8039978E-1,-4.7542974E-2,-1.8907616E-1,-5.598237E-1,-3.3550638E-1,-5.602461E-2,-1.6505869E-1,8.284912E-3,-7.3752934E-1,-1.5206025E0,-7.6239175E-1,-1.3278236E0,-1.0164677E0,-2.9842563E0,6.501618E-1,-3.83083E-1,6.226386E0,-5.561308E-1,-1.9410464E-1,-2.4384649E0,7.526991E0,1.7051453E-2,-7.784926E-1,-2.6943922E-1,-3.309832E-1,-1.3117191E0,6.444476E-1,-2.8134632E-1,-1.5684807E0,-3.2949371E0,-1.0886343E0,-2.7708108E0,-3.4996238E-1,-8.7802315E-1,2.6048698E0,-5.370179E-1,-1.7379856E-2,4.582864E-1,9.958206E-3,-2.9168332E-1,6.498864E0,-5.0574925E-2,-6.7894405E-1,-1.7350622E-1,-1.1946948E0,-3.8589972E-1,-3.4578198E-1,2.69834E-1,3.697394E-2,-7.9502004E-1,-1.7337072E-1,5.4128313E-1,-1.6254647E-1,1.3490489E-1,-3.32953E0,-6.102302E-1,-1.765694E0,-1.1692823E0,-9.4730407E-1,-5.248561E-1,-1.4871054E0,-5.9752613E-1,1.7073324E-2,-1.2603222E0,-5.2671385E0,-2.4433017E0,3.007884E-1,2.497621E0,3.7573335E-1,-5.4957575E-1,4.6951303E0,8.962374E0,-7.974441E-1,-4.1869035E-1,-3.499253E-1,6.5157783E-1,-3.3914537E0,-2.0185993E0,7.0393646E-1,-2.4925688E-2,-5.888336E-1,-1.7814713E0,-1.4707841E-1,-3.6909118E-1],"categories":[],"categories_nodes":[],"categories_segments":[],"categories_sizes":[],"default_left":[true,true,true,true,true,true,true,true,true,true,true,true,true,true,true,true,true,true,true,true,true,true,true,true,true,true,true,true,true,true,true,true,true,false,true,true,true,true,true,true,true,true,true,true,true,true,true,true,true,true,true,true,true,true,true,true,true,true,true,false,true,true,true,false,false,false,false,false,false,false,false,false,false,false,false,false,false,false,false,false,false,false,false,false,false,false,false,false,false,false,false,false,false,false,false,false,false,false,false,false,false,false,false,false,false,false,false,false,false,false,false,false,false,false,false,false,false,false,false,false,false,false,false],"id":6,"left_children":[1,3,5,7,9,11,13,15,17,19,21,23,25,27,29,31,33,35,37,39,41,43,45,47,49,51,53,55,57,59,61,63,65,-1,67,69,71,73,75,77,79,81,83,85,87,89,91,93,95,97,99,101,103,105,107,109,111,113,115,-1,117,119,121,-1,-1,-1,-1,-1,-1,-1,-1,-1,-1,-1,-1,-1,-1,-1,-1,-1,-1,-1,-1,-1,-1,-1,-1,-1,-1,-1,-1,-1,-1,-1,-1,-1,-1,-1,-1,-1,-1,-1,-1,-1,-1,-1,-1,-1,-1,-1,-1,-1,-1,-1,-1,-1,-1,-1,-1,-1,-1,-1,-1],"loss_changes":[4.2002246E3,2.1495342E3,2.6813574E3,1.0916865E3,4.7122656E2,1.6349092E3,8.579541E2,1.44394E3,7.6952637E2,3.4070654E2,5.1035938E2,2.1080078E2,1.068379E3,1.0393296E3,2.6907788E2,2.0480713E2,4.845276E1,3.73833E2,3.2404175E2,2.1846802E2,3.9873462E2,3.6285986E2,9.932393E1,3.4424512E2,3.194629E2,6.266499E2,3.8305246E2,7.8113135E2,7.0536084E2,1.6897392E2,4.8010083E2,6.8112537E2,6.649132E2,0E0,1.2137695E1,1.072525E2,1.4255127E2,3.1478882E2,2.423563E1,5.0214154E2,5.1450116E2,8.984515E1,4.244325E2,3.2595898E2,3.5046075E2,4.944081E1,1.1788744E2,2.1805115E2,3.145459E2,7.724707E1,2.6828296E2,3.7630774E2,2.1188916E2,2.5549364E2,4.723294E2,2.9141968E1,7.2428174E2,2.618764E1,1.900166E2,0E0,6.5584854E1,4.0983484E2,1.5900983E2,0E0,0E0,0E0,0E0,0E0,0E0,0E0,0E0,0E0,0E0,0E0,0E0,0E0,0E0,0E0,0E0,0E0,0E0,0E0,0E0,0E0,0E0,0E0,0E0,0E0,0E0,0E0,0E0,0E0,0E0,0E0,0E0,0E0,0E0,0E0,0E0,0E0,0E0,0E0,0E0,0E0,0E0,0E0,0E0,0E0,0E0,0E0,0E0,0E0,0E0,0E0,0E0,0E0,0E0,0E0,0E0,0E0,0E0,0E0,0E0],"parents":[2147483647,0,0,1,1,2,2,3,3,4,4,5,5,6,6,7,7,8,8,9,9,10,10,11,11,12,12,13,13,14,14,15,15,16,16,17,17,18,18,19,19,20,20,21,21,22,22,23,23,24,24,25,25,26,26,27,27,28,28,29,29,30,30,31,31,32,32,34,34,35,35,36,36,37,37,38,38,39,39,40,40,41,41,42,42,43,43,44,44,45,45,46,46,47,47,48,48,49,49,50,50,51,51,52,52,53,53,54,54,55,55,56,56,57,57,58,58,60,60,61,61,62,62],"right_children":[2,4,6,8,10,12,14,16,18,20,22,24,26,28,30,32,34,36,38,40,42,44,46,48,50,52,54,56,58,60,62,64,66,-1,68,70,72,74,76,78,80,82,84,86,88,90,92,94,96,98,100,102,104,106,108,110,112,114,116,-1,118,120,122,-1,-1,-1,-1,-1,-1,-1,-1,-1,-1,-1,-1,-1,-1,-1,-1,-1,-1,-1,-1,-1,-1,-1,-1,-1,-1,-1,-1,-1,-1,-1,-1,-1,-1,-1,-1,-1,-1,-1,-1,-1,-1,-1,-1,-1,-1,-1,-1,-1,-1,-1,-1,-1,-1,-1,-1,-1,-1,-1,-1],"split_conditions":[7.6932704E-1,4.5954546E-1,4.8457083E-1,2.3851015E-1,1.15772426E-1,8.800964E-1,7.186364E-1,4.9531457E-1,2.010625E-1,6.4660525E-1,9.097639E-1,8.58546E-1,3.4136364E-1,7.0365E-1,7.0805E-1,3.531818E-1,2.8772727E-1,5E-4,8.161E-1,6.2863636E-1,9.949666E-1,8.668182E-1,9.9575E-1,8.1901103E-1,3.215E-1,4.0775E-1,4.1904998E-1,2.8535E-1,6.105E-1,6.0469997E-1,7.659091E-1,3.3118725E-1,1.651061E-3,-1.581744E0,2.8954545E-1,4.614311E-1,3.6009708E-3,2.0322E-1,9.2550004E-1,3.989761E-1,5E-4,6.968182E-1,7.8409094E-1,5.5796456E-1,7.9965E-1,7.4925E-1,2.6357475E-1,7.984718E-1,3.8681817E-1,4.5409092E-1,4.515E-1,3.1355E-1,8.846712E-1,4.0460294E-1,1.8349999E-1,4.9136364E-1,8.6717284E-1,8.8689816E-1,6.9045454E-1,2.2580974E0,7.355E-1,7.3305E-1,8.7094957E-1,-9.929496E-2,-3.9351574E-1,1.933343E-1,-8.44039E-2,-4.7054425E-1,-9.8848116E-1,-3.265903E-1,-8.312433E-1,-1.0498872E-1,-2.6340696E-1,7.81461E-1,-1.6110536E-1,-5.213957E-3,1.3748592E-1,2.9874619E-3,-8.7505E-2,1.9496593E0,-1.5172478E-2,-2.0368323E-1,-5.205187E-2,-3.5840845E-1,-1.1576992E-1,-1.037346E-1,8.095021E-2,1.1092182E-2,-2.3850602E-1,-5.2011218E-2,1.6238494E-1,-4.8763942E-2,4.0471468E-2,-9.9885905E-1,-1.8306907E-1,-5.297082E-1,-3.5078472E-1,-2.8419122E-1,-1.5745683E-1,-4.4613162E-1,-1.7925784E-1,5.1219976E-3,-3.7809667E-1,-1.5801417E0,-7.329905E-1,9.023652E-2,7.4928635E-1,1.12720005E-1,-1.6487274E-1,1.4085392E0,2.6887121E0,-2.3923324E-1,-1.2560712E-1,-1.049776E-1,1.9547336E-1,-1.0174361E0,-6.055798E-1,2.1118094E-1,-7.4777068E-3,-1.7665008E-1,-5.344414E-1,-4.4123523E-2,-1.1072736E-1],"split_indices":[3,0,2,3,3,3,0,1,2,1,2,3,0,1,1,0,0,2,2,0,2,0,2,3,2,1,1,1,2,1,0,1,2,0,0,3,2,1,2,2,2,0,0,3,1,1,3,3,0,0,2,1,3,2,2,0,3,3,0,0,2,1,3,0,0,0,0,0,0,0,0,0,0,0,0,0,0,0,0,0,0,0,0,0,0,0,0,0,0,0,0,0,0,0,0,0,0,0,0,0,0,0,0,0,0,0,0,0,0,0,0,0,0,0,0,0,0,0,0,0,0,0,0],"split_type":[0,0,0,0,0,0,0,0,0,0,0,0,0,0,0,0,0,0,0,0,0,0,0,0,0,0,0,0,0,0,0,0,0,0,0,0,0,0,0,0,0,0,0,0,0,0,0,0,0,0,0,0,0,0,0,0,0,0,0,0,0,0,0,0,0,0,0,0,0,0,0,0,0,0,0,0,0,0,0,0,0,0,0,0,0,0,0,0,0,0,0,0,0,0,0,0,0,0,0,0,0,0,0,0,0,0,0,0,0,0,0,0,0,0,0,0,0,0,0,0,0,0,0],"sum_hessian":[2.36143E5,1.81886E5,5.4257E4,4.5301E4,1.36585E5,1.4229E4,4.0028E4,2.3855E4,2.1446E4,6.5248E4,7.1337E4,8.424E3,5.805E3,2.255E4,1.7478E4,2.3711E4,1.44E2,7.975E3,1.3471E4,4.9607E4,1.5641E4,5.7485E4,1.3852E4,4.342E3,4.082E3,1.673E3,4.132E3,2.1863E4,6.87E2,2.275E3,1.5203E4,7.496E3,1.6215E4,1.5E1,1.29E2,1.86E2,7.789E3,1.2355E4,1.116E3,2.3703E4,2.5904E4,1.1794E4,3.847E3,5.2387E4,5.098E3,8.404E3,5.448E3,6.66E2,3.676E3,1.769E3,2.313E3,1.492E3,1.81E2,3.96E2,3.736E3,1.6E1,2.1847E4,1.96E2,4.91E2,2E0,2.273E3,2.159E3,1.3044E4,6.705E3,7.91E2,8.16E2,1.5399E4,7E0,1.22E2,5.6E1,1.3E2,5.52E2,7.237E3,3.1E1,1.2324E4,9.97E2,1.19E2,8.745E3,1.4958E4,1.1E1,2.5893E4,3.62E2,1.1432E4,8.26E2,3.021E3,5.1513E4,8.74E2,4.529E3,5.69E2,8.307E3,9.7E1,2.319E3,3.129E3,3E1,6.36E2,2.163E3,1.513E3,9.93E2,7.76E2,1.898E3,4.15E2,2.85E2,1.207E3,3.3E1,1.48E2,3.34E2,6.2E1,6.72E2,3.064E3,1.2E1,4E0,7.926E3,1.3921E4,1.66E2,3E1,1.48E2,3.43E2,1.3E2,2.143E3,1.817E3,3.42E2,5.856E3,7.188E3],"tree_param":{"num_deleted":"0","num_feature":"4","num_nodes":"123","size_leaf_vector":"0"}},{"base_weights":[-2.4395552E-1,-3.5705572E-1,-1.6086023E-1,-3.2905495E-1,-1.6843984E0,-7.978243E-2,-2.305113E-1,-1.7786866E-1,-4.3293908E-1,-2.3700793E0,-1.220171E0,-9.888744E-2,3.5725608E-1,-1.2995095E0,-2.1164061E-1,-8.997706E-1,-1.6371316E-1,-5.03751E-1,-2.0720877E-1,-1.6674366E0,-2.9252684E0,-9.69973E-1,-2.6246738E0,4.4655557E0,-9.9946246E-2,1.074658E0,1.3177231E-1,-1.0889539E0,-2.61951E0,-3.177792E-1,-1.4084716E-1,-1.5467681E0,-5.2460414E-1,-1.3685745E-1,-4.8990625E-1,-4.7079733E-1,-1.5475838E0,2.863235E0,-2.1852873E-1,-1.3298228E0,-2.2319198E0,-3.7660286E0,-2.1713774E0,-6.6122854E-1,-1.4857483E0,-2.9095433E0,-1.2157481E0,2.468949E0,7.5656576E0,-1.6372387E-1,-4.9520392E-2,6.4618534E-1,1.9471109E0,5.492919E-1,-4.918181E-1,-1.7228442E0,-8.080141E-1,-3.543443E0,-1.9482218E0,-2.4670738E-1,-5.9453315E-1,-1.3340838E-1,-7.7664715E-1,5.388152E-1,-1.8851011E0,1.6942425E-1,-7.0664114E-1,-1.6279401E-1,1.2855339E-1,-8.081834E-2,-7.3992217E-1,-8.7054163E-1,-4.257947E-1,-1.4136686E0,-3.1748416E0,9.607653E0,2.5361936E0,-1.3024981E-1,-5.145685E-1,-1.6974185E0,-1.0428305E0,-2.8855772E0,-1.1414891E0,-3.0062833E0,-4.0100994E0,-2.5484974E0,-1.571996E0,-3.1117597E-1,-9.133315E-1,-6.340404E-1,-1.824167E0,-1.7199036E0,-3.094787E0,-1.2763357E0,-7.3038083E-1,3.5493467E0,-3.6273155E0,-5.657958E-2,-2.6848263E-1,2.7245719E-3,-2.2544241E-1,2.947118E0,4.4445157E-1,2.0842109E0,-2.591676E-1,5.353062E0,5.085651E-1,-7.474048E-1,-2.3116806E-1,-1.481687E0,-2.902172E0,-5.2881944E-1,-1.4475099E0,-5.634184E-1,-3.6648438E0,-1.372225E0,-2.3223143E0,-4.008064E-1,-1.7585224E-1,-1.1171781E0,-4.961533E-1,-7.369874E-2,-1.9220085E-1,-1.0339897E0,-2.8573588E-1],"categories":[],"categories_nodes":[],"categories_segments":[],"categories_sizes":[],"default_left":[true,true,true,true,true,true,true,true,true,true,true,true,true,true,true,true,true,true,true,true,true,true,true,true,true,true,true,true,true,true,true,true,true,true,true,true,true,true,true,true,true,true,true,true,true,true,true,true,false,true,true,true,true,true,true,true,true,true,true,true,true,true,true,false,false,false,false,false,false,false,false,false,false,false,false,false,false,false,false,false,false,false,false,false,false,false,false,false,false,false,false,false,false,false,false,false,false,false,false,false,false,false,false,false,false,false,false,false,false,false,false,false,false,false,false,false,false,false,false,false,false,false,false,false,false],"id":7,"left_children":[1,3,5,7,9,11,13,15,17,19,21,23,25,27,29,31,33,35,37,39,41,43,45,47,49,51,53,55,57,59,61,63,65,67,69,71,73,75,77,79,81,83,85,87,89,91,93,95,-1,97,99,101,103,105,107,109,111,113,115,117,119,121,123,-1,-1,-1,-1,-1,-1,-1,-1,-1,-1,-1,-1,-1,-1,-1,-1,-1,-1,-1,-1,-1,-1,-1,-1,-1,-1,-1,-1,-1,-1,-1,-1,-1,-1,-1,-1,-1,-1,-1,-1,-1,-1,-1,-1,-1,-1,-1,-1,-1,-1,-1,-1,-1,-1,-1,-1,-1,-1,-1,-1,-1,-1],"loss_changes":[2.219247E3,3.716627E3,7.687346E2,1.5382959E3,6.547407E2,5.252854E2,1.4768721E3,4.0752502E2,9.2788477E2,3.200747E2,4.310863E2,2.9173572E2,4.2610257E2,3.501233E2,5.406267E2,1.8536389E2,3.4269995E2,1.5193916E3,4.8253613E2,6.754553E1,2.8592505E2,1.660633E2,7.11156E1,6.797638E1,1.9379059E2,2.3424982E2,5.225547E2,1.9396716E2,1.0101587E2,5.6613574E2,2.0405786E2,1.9929529E2,6.1646744E1,2.4889264E2,3.0432104E2,7.7031934E2,2.9013232E2,8.8124054E1,3.6097522E2,2.2916199E1,9.435535E1,2.8368652E1,5.1825317E1,5.7783844E1,1.11831116E2,2.8614746E1,3.822708E-2,7.873851E1,0E0,2.9862982E2,3.0931586E2,1.9550067E2,6.3153687E1,2.3243915E2,5.3455276E1,9.125946E1,1.3528494E2,2.3983093E1,1.9007294E1,2.5006616E2,3.0188452E2,1.4977435E2,6.2744385E1,0E0,0E0,0E0,0E0,0E0,0E0,0E0,0E0,0E0,0E0,0E0,0E0,0E0,0E0,0E0,0E0,0E0,0E0,0E0,0E0,0E0,0E0,0E0,0E0,0E0,0E0,0E0,0E0,0E0,0E0,0E0,0E0,0E0,0E0,0E0,0E0,0E0,0E0,0E0,0E0,0E0,0E0,0E0,0E0,0E0,0E0,0E0,0E0,0E0,0E0,0E0,0E0,0E0,0E0,0E0,0E0,0E0,0E0,0E0,0E0,0E0,0E0],"parents":[2147483647,0,0,1,1,2,2,3,3,4,4,5,5,6,6,7,7,8,8,9,9,10,10,11,11,12,12,13,13,14,14,15,15,16,16,17,17,18,18,19,19,20,20,21,21,22,22,23,23,24,24,25,25,26,26,27,27,28,28,29,29,30,30,31,31,32,32,33,33,34,34,35,35,36,36,37,37,38,38,39,39,40,40,41,41,42,42,43,43,44,44,45,45,46,46,47,47,49,49,50,50,51,51,52,52,53,53,54,54,55,55,56,56,57,57,58,58,59,59,60,60,61,61,62,62],"right_children":[2,4,6,8,10,12,14,16,18,20,22,24,26,28,30,32,34,36,38,40,42,44,46,48,50,52,54,56,58,60,62,64,66,68,70,72,74,76,78,80,82,84,86,88,90,92,94,96,-1,98,100,102,104,106,108,110,112,114,116,118,120,122,124,-1,-1,-1,-1,-1,-1,-1,-1,-1,-1,-1,-1,-1,-1,-1,-1,-1,-1,-1,-1,-1,-1,-1,-1,-1,-1,-1,-1,-1,-1,-1,-1,-1,-1,-1,-1,-1,-1,-1,-1,-1,-1,-1,-1,-1,-1,-1,-1,-1,-1,-1,-1,-1,-1,-1,-1,-1,-1,-1,-1,-1,-1],"split_conditions":[5.65E-1,5.990286E-1,6.384393E-1,1.9928224E-1,5.4136366E-1,8.6505663E-1,6.077273E-1,8.75E-4,4.9045455E-1,5.2349997E-1,6.3445E-1,5E-4,8.753443E-1,6.6485E-1,7.740909E-1,3.2681817E-1,5.072447E-1,5.4795E-1,4.335478E-1,8.7026775E-1,8.574494E-1,6.275E-1,8.80268E-1,7.4136364E-1,6.5590906E-1,8.535E-1,7.465E-1,5.85E-1,4.025E-1,7.089381E-1,8.4075E-1,2.988E-1,4.0765E-1,5.3318185E-1,2.105E-1,2.977273E-1,5.8375E-1,1.4125E-1,5.7625E-1,8.676029E-1,8.8211095E-1,8.3734095E-1,8.842406E-1,6.0875E-1,8.4911215E-1,3.645E-1,8.8496554E-1,7.218182E-1,2.2696974E0,5.574604E-1,8.0136365E-1,5.9435E-1,9.64E-1,5.775E-1,5.968182E-1,6.5540004E-1,6.26E-1,3.02E-1,4.9449998E-1,6.7227274E-1,7.1681815E-1,7.2625E-1,8.7922317E-1,1.6164456E-1,-5.6553036E-1,5.0827276E-2,-2.1199235E-1,-4.8838206E-2,3.856602E-2,-2.4245502E-2,-2.2197665E-1,-2.611625E-1,-1.2773842E-1,-4.241006E-1,-9.5245254E-1,2.8822958E0,7.608581E-1,-3.9074946E-2,-1.5437056E-1,-5.0922555E-1,-3.1284916E-1,-8.656732E-1,-3.4244674E-1,-9.0188503E-1,-1.2030299E0,-7.6454926E-1,-4.715988E-1,-9.3352795E-2,-2.7399945E-1,-1.9021213E-1,-5.4725015E-1,-5.159711E-1,-9.284361E-1,-3.8290074E-1,-2.1911426E-1,1.0648041E0,-1.0881947E0,-1.6973874E-2,-8.054479E-2,8.173716E-4,-6.763273E-2,8.841354E-1,1.3333547E-1,6.252633E-1,-7.775029E-2,1.6059188E0,1.5256955E-1,-2.2422145E-1,-6.935042E-2,-4.445061E-1,-8.7065166E-1,-1.5864584E-1,-4.3425298E-1,-1.6902553E-1,-1.0994532E0,-4.1166753E-1,-6.966943E-1,-1.20241925E-1,-5.2755672E-2,-3.3515343E-1,-1.48846E-1,-2.2109622E-2,-5.766026E-2,-3.101969E-1,-8.572076E-2],"split_indices":[0,1,1,3,0,3,0,2,0,2,1,2,3,1,0,0,1,1,1,3,3,2,3,0,0,2,2,0,2,1,1,1,1,0,2,0,1,1,1,3,3,3,3,1,3,2,3,0,0,1,0,1,2,1,0,1,2,2,2,0,0,1,3,0,0,0,0,0,0,0,0,0,0,0,0,0,0,0,0,0,0,0,0,0,0,0,0,0,0,0,0,0,0,0,0,0,0,0,0,0,0,0,0,0,0,0,0,0,0,0,0,0,0,0,0,0,0,0,0,0,0,0,0,0,0],"split_type":[0,0,0,0,0,0,0,0,0,0,0,0,0,0,0,0,0,0,0,0,0,0,0,0,0,0,0,0,0,0,0,0,0,0,0,0,0,0,0,0,0,0,0,0,0,0,0,0,0,0,0,0,0,0,0,0,0,0,0,0,0,0,0,0,0,0,0,0,0,0,0,0,0,0,0,0,0,0,0,0,0,0,0,0,0,0,0,0,0,0,0,0,0,0,0,0,0,0,0,0,0,0,0,0,0,0,0,0,0,0,0,0,0,0,0,0,0,0,0,0,0,0,0,0,0],"sum_hessian":[2.36143E5,1.00013E5,1.3613E5,9.7948E4,2.065E3,6.2906E4,7.3224E4,3.9893E4,5.8055E4,8.32E2,1.233E3,6.0272E4,2.634E3,1.269E3,7.1955E4,7.66E2,3.9127E4,4.4191E4,1.3864E4,3.69E2,4.63E2,1.048E3,1.85E2,1.3E1,6.0259E4,6.29E2,2.005E3,1.096E3,1.73E2,2.8789E4,4.3166E4,2.8E2,4.86E2,3.6152E4,2.975E3,4.284E4,1.351E3,5E1,1.3814E4,2.33E2,1.36E2,2.17E2,2.46E2,6.57E2,3.91E2,1.53E2,3.2E1,9E0,4E0,2.6606E4,3.3653E4,4.23E2,2.06E2,1.201E3,8.04E2,3.35E2,7.61E2,7.1E1,1.02E2,2.2908E4,5.881E3,4.2668E4,4.98E2,3.9E1,2.41E2,1.01E2,3.85E2,3.2934E4,3.218E3,1.129E3,1.846E3,4.333E3,3.8507E4,1.25E3,1.01E2,1E0,4.9E1,1.0642E4,3.172E3,1E2,1.33E2,8.4E1,5.2E1,5.6E1,1.61E2,1.49E2,9.7E1,2.76E2,3.81E2,1.12E2,2.79E2,2.2E1,1.31E2,2.7E1,5E0,8E0,1E0,1.3154E4,1.3452E4,2.5948E4,7.705E3,3.3E1,3.9E2,1.94E2,1.2E1,9E0,1.192E3,4.05E2,3.99E2,2.8E2,5.5E1,5.31E2,2.3E2,3E0,6.8E1,4.2E1,6E1,7.214E3,1.5694E4,9.3E2,4.951E3,2.117E4,2.1498E4,3.26E2,1.72E2],"tree_param":{"num_deleted":"0","num_feature":"4","num_nodes":"125","size_leaf_vector":"0"}},{"base_weights":[-1.708026E-1,-3.9108896E-1,-1.4609325E-1,-3.394256E-1,-2.329839E0,-7.406102E-2,-1.8772712E-1,-1.927938E-1,-5.1484627E-1,-1.7198263E0,-2.5885024E0,1.7040037E-1,-8.580724E-2,-2.821586E-1,-1.3633196E-1,-4.498348E-1,-1.0328183E-1,-1.5202456E0,-4.270343E-1,-3.2307212E0,-1.4446708E0,-2.4875395E0,-5.4252796E0,2.5178976E0,9.0036474E-2,-5.7745266E-1,-6.344057E-2,-2.403063E-1,-1.2975682E0,-1.5757692E-1,-6.841103E-3,-6.5680873E-1,-2.533363E-1,-1.3095282E-1,6.6034734E-1,-1.0753555E0,-2.3953252E0,-1.4399182E0,-3.3125457E-1,-1.2710291E0,-2.1852236E0,-2.7978792E0,-2.0474262E0,3.6369555E0,6.2171566E-1,5.5811536E-1,-5.523906E-2,5.6423867E-1,-6.851973E-1,1.140414E-1,-8.436732E-2,-6.622845E-2,-2.8778112E-1,-9.010398E-1,-1.6819041E0,-8.373781E-2,-2.2969784E-1,3.0438442E-2,-4.311521E-1,-7.70336E-1,-3.3692664E-1,1.2087874E-1,-3.4725955E-1,-7.5922555E-1,-1.13674186E-1,8.797166E-2,1.6135916E0,-1.8957672E0,-8.325912E-1,-3.3211107E0,-1.8116759E0,-1.9783977E0,-8.1490344E-1,-2.389803E-1,-8.693727E-1,-2.0798006E0,-1.1495644E0,-2.2082343E0,-3.319065E0,-2.5309005E0,-1.8145927E0,2.5159276E0,4.431169E0,7.690373E-1,3.5800886E-1,3.7114906E-1,8.707566E-1,-6.669806E-2,4.253052E0,7.610888E-1,-5.970157E-1,-1.1450312E0,-2.876355E-1,5.376243E-3,2.3269412E-1,-4.466364E-1,-7.350634E-2,-1.67271E-1,1.0342438E0,-4.8478004E-1,-1.8980123E-1,-7.889755E-1,-1.8506511E0,-2.1982355E0,-1.2804925E0,-1.1927137E-1,1.555424E-1,-1.2733167E0,-2.004535E-1,-1.8572092E-2,1.5506974E-1,-6.3398325E-1,-6.219144E-2],"categories":[],"categories_nodes":[],"categories_segments":[],"categories_sizes":[],"default_left":[true,true,true,true,true,true,true,true,true,true,true,true,true,true,true,true,true,true,true,false,true,true,false,true,true,true,true,true,true,true,true,true,true,true,true,true,true,true,true,true,false,true,true,true,true,true,true,true,true,true,true,true,true,true,true,true,true,true,true,false,false,false,false,false,false,false,false,false,false,false,false,false,false,false,false,false,false,false,false,false,false,false,false,false,false,false,false,false,false,false,false,false,false,false,false,false,false,false,false,false,false,false,false,false,false,false,false,false,false,false,false,false,false],"id":8,"left_children":[1,3,5,7,9,11,13,15,17,19,21,23,25,27,29,31,33,35,37,-1,39,41,-1,43,45,47,49,51,53,55,57,59,61,63,65,67,69,71,73,75,-1,77,79,81,83,85,87,89,91,93,95,97,99,101,103,105,107,109,111,-1,-1,-1,-1,-1,-1,-1,-1,-1,-1,-1,-1,-1,-1,-1,-1,-1,-1,-1,-1,-1,-1,-1,-1,-1,-1,-1,-1,-1,-1,-1,-1,-1,-1,-1,-1,-1,-1,-1,-1,-1,-1,-1,-1,-1,-1,-1,-1,-1,-1,-1,-1,-1,-1],"loss_changes":[1.2853057E3,2.3846763E3,6.3675684E2,5.9663135E2,9.306128E1,2.2334247E2,6.530054E2,2.9073172E2,9.318286E2,7.30744E1,1.1023291E2,6.725134E2,8.160006E2,2.0149932E3,2.3970984E2,1.3258075E2,1.981837E2,3.2756274E2,9.4201135E2,0E0,1.7797058E1,5.150049E1,0E0,2.4812744E2,2.3456425E2,3.9758948E2,2.636417E2,3.763872E2,2.8453955E2,3.98604E2,1.9429129E2,5.7445496E1,5.8949165E1,9.813603E1,1.7881937E2,1.1075165E2,1.4797852E2,2.8075964E2,4.405749E2,1.0576431E1,0E0,6.734827E1,1.5332153E1,5.473639E1,1.4729156E0,4.7433243E1,1.3027151E2,6.4231865E1,5.391499E2,9.653177E1,2.4979437E2,1.085543E3,6.90647E2,9.708252E1,1.9449805E2,3.1450812E2,1.1554434E3,6.897109E1,7.419862E1,0E0,0E0,0E0,0E0,0E0,0E0,0E0,0E0,0E0,0E0,0E0,0E0,0E0,0E0,0E0,0E0,0E0,0E0,0E0,0E0,0E0,0E0,0E0,0E0,0E0,0E0,0E0,0E0,0E0,0E0,0E0,0E0,0E0,0E0,0E0,0E0,0E0,0E0,0E0,0E0,0E0,0E0,0E0,0E0,0E0,0E0,0E0,0E0,0E0,0E0,0E0,0E0,0E0,0E0],"parents":[2147483647,0,0,1,1,2,2,3,3,4,4,5,5,6,6,7,7,8,8,9,9,10,10,11,11,12,12,13,13,14,14,15,15,16,16,17,17,18,18,20,20,21,21,23,23,24,24,25,25,26,26,27,27,28,28,29,29,30,30,31,31,32,32,33,33,34,34,35,35,36,36,37,37,38,38,39,39,41,41,42,42,43,43,44,44,45,45,46,46,47,47,48,48,49,49,50,50,51,51,52,52,53,53,54,54,55,55,56,56,57,57,58,58],"right_children":[2,4,6,8,10,12,14,16,18,20,22,24,26,28,30,32,34,36,38,-1,40,42,-1,44,46,48,50,52,54,56,58,60,62,64,66,68,70,72,74,76,-1,78,80,82,84,86,88,90,92,94,96,98,100,102,104,106,108,110,112,-1,-1,-1,-1,-1,-1,-1,-1,-1,-1,-1,-1,-1,-1,-1,-1,-1,-1,-1,-1,-1,-1,-1,-1,-1,-1,-1,-1,-1,-1,-1,-1,-1,-1,-1,-1,-1,-1,-1,-1,-1,-1,-1,-1,-1,-1,-1,-1,-1,-1,-1,-1,-1,-1],"split_conditions":[3.5772726E-1,4.2835E-1,1.155362E-1,3.2860595E-1,4.3625E-1,8.320513E-3,5.5863637E-1,2.8863636E-1,2.9590908E-1,3.3136365E-1,5.4550004E-1,3.5113785E-1,4.5095507E-2,5.9661424E-1,8.5954547E-1,2.1094444E-1,7.3148715E-1,3.50125E-1,1.25E-2,-9.692164E-1,9.0782416E-1,3.459091E-1,-1.627584E0,1.1363637E-3,4.2229563E-1,3.577875E-1,4.116125E-1,4.2954087E-1,5.165E-1,6.5636003E-1,8.2985E-1,4.8128933E-1,2.0702499E-1,6.875E-4,1.2078915E-1,2.8136364E-1,2.8863636E-1,1.1316662E-1,4.0336397E-1,8.115307E-1,-6.555671E-1,1.145E-1,8.3930767E-1,3.7954545E-1,3.7045455E-1,2.9888889E-3,7.5E-1,4.227273E-1,4.1149998E-1,4.059091E-1,4.531818E-1,8.35748E-1,4.4681817E-1,6.2865E-1,6.155E-1,8.6455154E-1,6.268182E-1,8.5366833E-1,8.8179946E-1,-2.311008E-1,-1.01077996E-1,3.6263622E-2,-1.0417787E-1,-2.2776768E-1,-3.4102257E-2,2.6391499E-2,4.8407748E-1,-5.687302E-1,-2.4977736E-1,-9.9633324E-1,-5.435028E-1,-5.9351933E-1,-2.4447104E-1,-7.169409E-2,-2.6081184E-1,-6.239402E-1,-3.4486932E-1,-6.6247034E-1,-9.9571955E-1,-7.592702E-1,-5.4437786E-1,7.547783E-1,1.3293507E0,2.307112E-1,1.0740266E-1,1.11344725E-1,2.61227E-1,-2.0009419E-2,1.2759157E0,2.2832665E-1,-1.7910472E-1,-3.4350938E-1,-8.629066E-2,1.6128729E-3,6.980824E-2,-1.3399093E-1,-2.2051902E-2,-5.0181303E-2,3.1027317E-1,-1.4543402E-1,-5.6940373E-2,-2.3669265E-1,-5.551954E-1,-6.594707E-1,-3.841478E-1,-3.5781413E-2,4.666272E-2,-3.8199505E-1,-6.0136054E-2,-5.571628E-3,4.6520922E-2,-1.9019498E-1,-1.8657433E-2],"split_indices":[0,1,3,1,1,2,0,0,0,0,2,1,2,1,0,2,2,1,2,0,3,0,0,2,1,1,1,1,2,1,1,3,1,2,3,0,0,3,1,3,0,2,3,0,0,2,0,0,1,0,0,3,0,1,2,3,0,3,3,0,0,0,0,0,0,0,0,0,0,0,0,0,0,0,0,0,0,0,0,0,0,0,0,0,0,0,0,0,0,0,0,0,0,0,0,0,0,0,0,0,0,0,0,0,0,0,0,0,0,0,0,0,0],"split_type":[0,0,0,0,0,0,0,0,0,0,0,0,0,0,0,0,0,0,0,0,0,0,0,0,0,0,0,0,0,0,0,0,0,0,0,0,0,0,0,0,0,0,0,0,0,0,0,0,0,0,0,0,0,0,0,0,0,0,0,0,0,0,0,0,0,0,0,0,0,0,0,0,0,0,0,0,0,0,0,0,0,0,0,0,0,0,0,0,0,0,0,0,0,0,0,0,0,0,0,0,0,0,0,0,0,0,0,0,0,0,0,0,0],"sum_hessian":[2.36143E5,2.3815E4,2.12328E5,2.3198E4,6.17E2,7.7773E4,1.34555E5,1.2637E4,1.0561E4,1.86E2,4.31E2,3.565E3,7.4208E4,4.7421E4,8.7134E4,3.263E3,9.374E3,8.47E2,9.714E3,2.7E1,1.59E2,4.18E2,1.3E1,1.17E2,3.448E3,3.228E3,7.098E4,4.5545E4,1.876E3,7.4853E4,1.2281E4,1.588E3,1.675E3,9.047E3,3.27E2,5.63E2,2.84E2,8.38E2,8.876E3,1.31E2,2.8E1,2.42E2,1.76E2,7.3E1,4.4E1,8.16E2,2.632E3,2.78E2,2.95E3,7.486E3,6.3494E4,9.76E3,3.5785E4,9.25E2,9.51E2,3.6987E4,3.7866E4,1.129E4,9.91E2,1.171E3,4.17E2,3.36E2,1.339E3,2.41E2,8.806E3,2.05E2,1.22E2,1.27E2,4.36E2,1.08E2,1.76E2,4.49E2,3.89E2,7.578E3,1.298E3,1.5E1,1.16E2,1.16E2,1.26E2,5.4E1,1.22E2,3.2E1,4.1E1,2.7E1,1.7E1,5.12E2,3.04E2,2.626E3,6E0,2.38E2,4E1,1.367E3,1.583E3,3.908E3,3.578E3,1.847E3,6.1647E4,8.94E3,8.2E2,1.1885E4,2.39E4,8.29E2,9.6E1,4.14E2,5.37E2,3.2205E4,4.782E3,1.031E3,3.6835E4,8.104E3,3.186E3,6.39E2,3.52E2],"tree_param":{"num_deleted":"0","num_feature":"4","num_nodes":"113","size_leaf_vector":"0"}},{"base_weights":[-1.196027E-1,-2.581861E-1,-9.7682424E-2,-2.0997396E-1,-1.1643211E0,6.8541846E0,-9.8022915E-2,-2.3398662E-1,3.296529E-1,-1.7516104E0,-8.5166126E-1,4.410767E0,1.1085237E1,-7.598778E-2,-1.7375669E-1,-2.2503954E-1,-1.0815282E0,4.3507677E-1,-8.919734E-1,-1.6650193E0,-3.2403178E0,-6.4352125E-1,-1.6391319E0,4.9282155E0,1.9056143E0,-8.012403E-2,2.8203934E-1,2.2702832E0,-1.887365E-1,-2.404251E-1,4.3936428E-1,-1.8974084E0,-6.333042E-1,3.4536391E-1,1.3499384E0,-1.2318989E0,-5.002158E-1,-1.947128E0,-1.3981767E0,-1.2897649E0,-3.890984E0,-2.1669555E0,-5.88591E-1,-1.3616121E0,-2.0963414E0,1.3106461E-1,-8.623325E-2,6.579994E-1,1.5212019E-1,3.038235E0,8.130847E-1,-4.2958754E-1,-1.5621331E-1,-1.6237648E-1,-3.4500253E-1,4.887941E-1,-5.745665E-1,-1.7737525E0,-2.9318612E0,-2.79534E-1,-8.2735217E-1,5.663738E-1,-1.1705313E-2,2.1333408E0,3.681873E-2,-1.4011831E0,-9.1428244E-1,-1.4444026E-1,-5.280128E-1,-1.5495186E0,-2.2924135E0,-1.1240473E0,-1.56733E0,-3.0914068E-1,-1.3737003E0,-6.5800476E-1,-4.013602E0,-1.7529237E0,-5.263149E-1,-8.696476E-1,-1.7478186E0,-2.449036E0,-1.4033699E0,1.3163136E0,9.22874E-2,-2.3897001E-1,-7.5655356E-2,8.685819E-1,1.9940996E-1,1.9122688E-2,3.818534E-1,1.095471E0,3.3821182E0,1.3507037E0,5.896141E-1,-1.6797695E-1,-1.2687999E0,4.5181575E-1,-1.8888031E-1],"categories":[],"categories_nodes":[],"categories_segments":[],"categories_sizes":[],"default_left":[true,true,true,true,true,true,true,true,true,true,true,true,false,true,true,true,true,true,true,true,true,true,true,false,false,true,true,true,true,true,true,true,true,true,true,true,true,true,true,true,true,false,true,true,true,true,true,true,true,true,true,true,true,false,false,false,false,false,false,false,false,false,false,false,false,false,false,false,false,false,false,false,false,false,false,false,false,false,false,false,false,false,false,false,false,false,false,false,false,false,false,false,false,false,false,false,false,false,false],"id":9,"left_children":[1,3,5,7,9,11,13,15,17,19,21,23,-1,25,27,29,31,33,35,37,39,41,43,-1,-1,45,47,49,51,53,55,57,59,61,63,65,67,69,71,73,75,-1,77,79,81,83,85,87,89,91,93,95,97,-1,-1,-1,-1,-1,-1,-1,-1,-1,-1,-1,-1,-1,-1,-1,-1,-1,-1,-1,-1,-1,-1,-1,-1,-1,-1,-1,-1,-1,-1,-1,-1,-1,-1,-1,-1,-1,-1,-1,-1,-1,-1,-1,-1,-1,-1],"loss_changes":[7.173296E2,1.4086519E3,4.832987E2,3.9687317E2,2.9762817E2,5.4487885E1,3.4023267E2,2.220758E2,1.6845715E2,6.743823E1,1.7350311E2,9.7901917E-1,0E0,2.3390826E2,1.682751E3,2.9668286E2,1.1070169E2,9.818773E1,1.3233299E1,3.7626953E1,3.3056305E1,6.935272E1,2.5314026E1,0E0,0E0,2.0145392E2,8.801523E1,3.1086584E2,3.5769263E2,2.3139746E2,3.320865E1,8.614532E0,1.3429764E1,8.649838E1,1.0999248E2,1.6761398E0,4.1820812E-1,3.1868347E1,1.1175476E1,3.1611633E-1,6.0802917E0,0E0,5.8245636E1,2.5269989E1,1.6604462E1,2.0164577E2,2.4514453E2,4.453911E1,4.0996086E1,1.1855432E2,1.0977524E1,1.1925847E3,7.993514E2,0E0,0E0,0E0,0E0,0E0,0E0,0E0,0E0,0E0,0E0,0E0,0E0,0E0,0E0,0E0,0E0,0E0,0E0,0E0,0E0,0E0,0E0,0E0,0E0,0E0,0E0,0E0,0E0,0E0,0E0,0E0,0E0,0E0,0E0,0E0,0E0,0E0,0E0,0E0,0E0,0E0,0E0,0E0,0E0,0E0,0E0],"parents":[2147483647,0,0,1,1,2,2,3,3,4,4,5,5,6,6,7,7,8,8,9,9,10,10,11,11,13,13,14,14,15,15,16,16,17,17,18,18,19,19,20,20,21,21,22,22,25,25,26,26,27,27,28,28,29,29,30,30,31,31,32,32,33,33,34,34,35,35,36,36,37,37,38,38,39,39,40,40,42,42,43,43,44,44,45,45,46,46,47,47,48,48,49,49,50,50,51,51,52,52],"right_children":[2,4,6,8,10,12,14,16,18,20,22,24,-1,26,28,30,32,34,36,38,40,42,44,-1,-1,46,48,50,52,54,56,58,60,62,64,66,68,70,72,74,76,-1,78,80,82,84,86,88,90,92,94,96,98,-1,-1,-1,-1,-1,-1,-1,-1,-1,-1,-1,-1,-1,-1,-1,-1,-1,-1,-1,-1,-1,-1,-1,-1,-1,-1,-1,-1,-1,-1,-1,-1,-1,-1,-1,-1,-1,-1,-1,-1,-1,-1,-1,-1,-1,-1],"split_conditions":[3.831818E-1,4.370625E-1,1.2064999E-1,7.5516665E-1,3.6409092E-1,4.6772727E-1,7.689161E-1,9.136388E-1,9.7249997E-1,5.495E-1,4.7259998E-1,8.54E-1,3.325571E0,5.567537E-1,4.3906766E-1,9.05262E-1,9.2197037E-1,7.758175E-1,3.2136363E-1,3.4772727E-1,4.4525E-1,3.571275E-1,4.24E-1,1.4784647E0,5.716843E-1,3.8128948E-1,5.861252E-1,8.8338107E-1,4.531818E-1,4.310914E-1,4.0475E-1,9.211545E-1,9.259347E-1,4.155491E-1,3.666E-1,3.0227274E-1,3.25E-1,1.145E-1,1.8650001E-1,4.3755E-1,8.4244895E-1,-6.5008664E-1,7.15E-2,4.9075E-1,8.8236076E-1,1.008E-3,4.340909E-1,6.9634616E-1,6.359091E-1,8.457593E-1,1.355E-1,5.1007855E-1,5.388E-1,-4.8712946E-2,-1.0350076E-1,1.4663823E-1,-1.7236996E-1,-5.321258E-1,-8.795584E-1,-8.38602E-2,-2.4820566E-1,1.6991216E-1,-3.511594E-3,6.4000225E-1,1.104562E-2,-4.2035496E-1,-2.7428475E-1,-4.333208E-2,-1.5840384E-1,-4.6485558E-1,-6.8772405E-1,-3.372142E-1,-4.7019902E-1,-9.2742205E-2,-4.121101E-1,-1.9740143E-1,-1.2040806E0,-5.258771E-1,-1.5789448E-1,-2.608943E-1,-5.243456E-1,-7.347108E-1,-4.21011E-1,3.948941E-1,2.7686222E-2,-7.169101E-2,-2.2696607E-2,2.6057458E-1,5.982299E-2,5.7368064E-3,1.1455602E-1,3.2864133E-1,1.0146356E0,4.0521112E-1,1.7688423E-1,-5.0393086E-2,-3.8064E-1,1.3554473E-1,-5.6664094E-2],"split_indices":[0,1,1,2,0,0,3,3,2,2,1,2,0,3,1,3,3,3,0,0,1,3,2,0,0,1,3,3,0,3,1,3,3,3,1,0,0,2,2,1,3,0,2,1,3,2,0,2,0,3,2,1,1,0,0,0,0,0,0,0,0,0,0,0,0,0,0,0,0,0,0,0,0,0,0,0,0,0,0,0,0,0,0,0,0,0,0,0,0,0,0,0,0,0,0,0,0,0,0],"split_type":[0,0,0,0,0,0,0,0,0,0,0,0,0,0,0,0,0,0,0,0,0,0,0,0,0,0,0,0,0,0,0,0,0,0,0,0,0,0,0,0,0,0,0,0,0,0,0,0,0,0,0,0,0,0,0,0,0,0,0,0,0,0,0,0,0,0,0,0,0,0,0,0,0,0,0,0,0,0,0,0,0,0,0,0,0,0,0,0,0,0,0,0,0,0,0,0,0,0,0],"sum_hessian":[2.36143E5,3.2249E4,2.03894E5,3.0621E4,1.628E3,9E0,2.03885E5,2.9317E4,1.304E3,5.64E2,1.064E3,7E0,2E0,1.57935E5,4.595E4,2.9012E4,3.05E2,1.201E3,1.03E2,5.35E2,2.9E1,8.43E2,2.21E2,5E0,2E0,1.56132E5,1.803E3,2.79E2,4.5671E4,2.8356E4,6.56E2,1.07E2,1.98E2,1.095E3,1.06E2,5.4E1,4.9E1,2.57E2,2.78E2,8E0,2.1E1,2.8E1,8.15E2,1.4E2,8.1E1,4.389E3,1.51743E5,4.62E2,1.341E3,1.82E2,9.7E1,5.432E3,4.0239E4,1.6239E4,1.2117E4,6.26E2,3E1,9.8E1,9E0,7.1E1,1.27E2,6.76E2,4.19E2,6.6E1,4E1,3.3E1,2.1E1,4E0,4.5E1,1.22E2,1.35E2,1.09E2,1.69E2,1E0,7E0,1E0,2E1,4E1,7.75E2,6.3E1,7.7E1,5.2E1,2.9E1,1.38E2,4.251E3,9.827E3,1.41916E5,3.16E2,1.46E2,8.5E2,4.91E2,2.8E1,1.54E2,2.7E1,7E1,4.142E3,1.29E3,2.051E3,3.8188E4],"tree_param":{"num_deleted":"0","num_feature":"4","num_nodes":"99","size_leaf_vector":"0"}},{"base_weights":[-8.372795E-2,-1.3083138E-1,-3.94356E-2,-1.1835164E-1,-7.4940026E-1,2.9875156E-3,-9.2680514E-2,-7.345481E-2,-1.8809739E-1,-1.1780852E0,-5.21363E-1,-1.6140886E-2,3.486442E-1,-4.8031345E-1,-5.7058573E-2,-1.0166698E-1,2.55706E-1,-8.1094104E-1,-1.5735686E-1,-7.6570404E-1,-1.6910721E0,-4.0590465E-1,-1.65853E0,-4.1826186E-3,-2.9393315E-1,7.3897606E-1,1.0059697E-1,-2.5148228E-1,-9.1039145E-1,-4.3476734E-2,-2.821115E-1,-2.1332346E-1,-4.7541287E-2,2.1858671E-1,1.139233E0,-1.2520941E0,-6.1206996E-1,-2.353863E-1,-6.497183E-2,-1.6561899E-1,-1.4195498E0,-1.5812833E0,-2.8480077E0,-2.5508624E-1,-1.102136E0,-2.2753348E0,-1.1109996E0,-1.521105E-2,2.5000304E-1,-1.2558215E0,-1.9977425E-1,4.7550428E-1,1.3483783E0,-3.9384598E-1,3.1327137E-1,-7.877726E-1,-7.636228E-2,-7.577467E-1,-2.2575157E0,1.36839915E-2,-9.77224E-2,-4.8458368E-1,3.4155956E-1,-1.7629166E-1,-1.1989393E0,2.9159328E-1,-6.343862E-2,3.3770365E-1,-1.19235165E-1,2.1363792E0,1.1307249E-1,-1.3457088E0,-6.239127E-1,-4.657235E-1,-1.3297248E0,-9.4910905E-2,-3.241082E-1,1.3379574E-1,-1.4496846E-1,-7.885446E-1,5.520022E-1,-2.0065107E0,-4.4799417E-1,-1.7378093E0,-1.0056595E0,4.583098E-2,-5.9799933E-1,-2.0643392E-1,-1.356253E0,4.383462E-1,-1.2057958E0,8.1147365E-2,-4.2107906E-2,2.0350823E-1,9.147459E-1,-1.7394494E0,-4.6609068E-1,4.2933322E-2,-3.847594E-1,1.1420367E0,1.5558016E-2,1.8131588E0,4.7643387E-1,1.9518077E-2,-7.420583E-1,4.0583456E-1,-5.6061655E-1,-3.5609928E-1,-1.1631901E0,1.63059E-1,-5.0412464E-1,-1.3053045E0,-5.157184E-1,-7.9613767E0,-2.1715708E0,4.2565525E-1,-8.321327E-3,-3.7564144E-1,-2.1591423E-2,-2.0315112E-1,-8.449982E-1,1.2056488E0,7.629677E-2],"categories":[],"categories_nodes":[],"categories_segments":[],"categories_sizes":[],"default_left":[true,true,true,true,true,true,true,true,true,true,true,true,true,true,true,true,true,true,true,true,true,true,true,true,true,true,true,true,true,true,true,true,true,true,true,true,true,true,true,true,true,true,false,true,true,false,true,true,true,true,true,true,true,true,true,true,true,true,true,true,true,true,true,false,false,false,false,false,false,false,false,false,false,false,false,false,false,false,false,false,false,false,false,false,false,false,false,false,false,false,false,false,false,false,false,false,false,false,false,false,false,false,false,false,false,false,false,false,false,false,false,false,false,false,false,false,false,false,false,false,false,false,false],"id":10,"left_children":[1,3,5,7,9,11,13,15,17,19,21,23,25,27,29,31,33,35,37,39,41,43,45,47,49,51,53,55,57,59,61,63,65,67,69,71,73,75,77,79,81,83,-1,85,87,-1,89,91,93,95,97,99,101,103,105,107,109,111,113,115,117,119,121,-1,-1,-1,-1,-1,-1,-1,-1,-1,-1,-1,-1,-1,-1,-1,-1,-1,-1,-1,-1,-1,-1,-1,-1,-1,-1,-1,-1,-1,-1,-1,-1,-1,-1,-1,-1,-1,-1,-1,-1,-1,-1,-1,-1,-1,-1,-1,-1,-1,-1,-1,-1,-1,-1,-1,-1,-1,-1,-1,-1],"loss_changes":[4.926671E2,8.8333984E2,2.7490942E2,3.5125623E2,2.2060779E2,4.4787317E2,7.451894E2,6.338002E2,8.4099927E2,1.6476892E2,1.9351276E2,2.1321915E2,3.4383295E2,4.467732E2,1.5107095E2,3.7988934E2,1.7645532E2,1.8048914E2,3.0178638E2,1.7122757E2,3.982599E1,1.4084492E2,4.3401947E1,1.7251137E2,2.3966992E2,2.20932E2,2.2862599E2,2.7849225E2,3.225702E2,1.4454459E2,3.5538E2,7.488603E2,2.282822E2,2.0816313E2,2.2179984E2,3.6855713E1,1.4914813E2,2.8283508E2,3.0485245E2,1.02803925E2,1.182865E2,2.7174438E1,0E0,1.1415383E2,5.4119568E1,0E0,1.1397087E1,1.5286415E2,7.890509E1,8.932611E1,1.083986E2,2.958214E2,1.6772546E2,9.415023E1,1.2318007E2,1.1788797E2,2.2918547E2,1.8724652E2,6.114618E1,2.0578265E2,5.0605487E2,2.1527072E2,1.5806342E2,0E0,0E0,0E0,0E0,0E0,0E0,0E0,0E0,0E0,0E0,0E0,0E0,0E0,0E0,0E0,0E0,0E0,0E0,0E0,0E0,0E0,0E0,0E0,0E0,0E0,0E0,0E0,0E0,0E0,0E0,0E0,0E0,0E0,0E0,0E0,0E0,0E0,0E0,0E0,0E0,0E0,0E0,0E0,0E0,0E0,0E0,0E0,0E0,0E0,0E0,0E0,0E0,0E0,0E0,0E0,0E0,0E0,0E0,0E0,0E0],"parents":[2147483647,0,0,1,1,2,2,3,3,4,4,5,5,6,6,7,7,8,8,9,9,10,10,11,11,12,12,13,13,14,14,15,15,16,16,17,17,18,18,19,19,20,20,21,21,22,22,23,23,24,24,25,25,26,26,27,27,28,28,29,29,30,30,31,31,32,32,33,33,34,34,35,35,36,36,37,37,38,38,39,39,40,40,41,41,43,43,44,44,46,46,47,47,48,48,49,49,50,50,51,51,52,52,53,53,54,54,55,55,56,56,57,57,58,58,59,59,60,60,61,61,62,62],"right_children":[2,4,6,8,10,12,14,16,18,20,22,24,26,28,30,32,34,36,38,40,42,44,46,48,50,52,54,56,58,60,62,64,66,68,70,72,74,76,78,80,82,84,-1,86,88,-1,90,92,94,96,98,100,102,104,106,108,110,112,114,116,118,120,122,-1,-1,-1,-1,-1,-1,-1,-1,-1,-1,-1,-1,-1,-1,-1,-1,-1,-1,-1,-1,-1,-1,-1,-1,-1,-1,-1,-1,-1,-1,-1,-1,-1,-1,-1,-1,-1,-1,-1,-1,-1,-1,-1,-1,-1,-1,-1,-1,-1,-1,-1,-1,-1,-1,-1,-1,-1,-1,-1,-1],"split_conditions":[6.0227275E-1,6.242187E-1,6.6920996E-1,4.8282874E-1,5.75E-1,8.681418E-1,6.931818E-1,5.0863636E-1,4.2772728E-1,5.04E-1,6.6335E-1,4.8533112E-1,8.763476E-1,6.8050003E-1,9.975E-1,3.4772727E-1,3.6099887E-1,4.0318182E-1,4.3100882E-1,8.7250614E-1,7.175E-1,7.0350003E-1,4.285E-1,4.2357123E-1,5.31461E-1,8.1949997E-1,8.8283885E-1,6.422727E-1,6.932E-1,7.255536E-1,5.190009E-2,4.0845E-1,2.2398692E-3,1.4711845E-1,3.7868625E-1,8.932997E-1,5.158E-1,3.9875E-1,5.0602067E-1,8.698846E-1,8.8211095E-1,8.828335E-1,-8.5440236E-1,6.4155E-1,6.502576E-1,-6.826005E-1,4.38E-1,6.5664506E-1,4.7952443E-1,4.9650002E-1,7.8349996E-1,6.745E-1,9.195E-1,6.5244997E-1,8.275E-1,4.6850002E-1,6.9875E-1,6.668182E-1,6.4454544E-1,5.765E-1,8.040909E-1,6.953E-1,2.8732014E-1,-5.28875E-2,-3.5968181E-1,8.747799E-2,-1.9031586E-2,1.01311095E-1,-3.577055E-2,6.409138E-1,3.392175E-2,-4.0371266E-1,-1.8717381E-1,-1.3971706E-1,-3.9891747E-1,-2.8473273E-2,-9.723247E-2,4.013872E-2,-4.349054E-2,-2.3656338E-1,1.6560066E-1,-6.0195327E-1,-1.3439825E-1,-5.213428E-1,-3.0169785E-1,1.3749295E-2,-1.793998E-1,-6.193018E-2,-4.0687594E-1,1.3150387E-1,-3.6173874E-1,2.4344211E-2,-1.2632373E-2,6.105247E-2,2.7442378E-1,-5.2183485E-1,-1.398272E-1,1.28799975E-2,-1.1542782E-1,3.42611E-1,4.667405E-3,5.4394764E-1,1.4293016E-1,5.8554234E-3,-2.2261749E-1,1.2175037E-1,-1.6818497E-1,-1.06829785E-1,-3.4895706E-1,4.89177E-2,-1.512374E-1,-3.9159137E-1,-1.5471552E-1,-2.3884132E0,-6.5147126E-1,1.2769657E-1,-2.4963983E-3,-1.1269244E-1,-6.477427E-3,-6.094534E-2,-2.5349948E-1,3.6169463E-1,2.2889031E-2],"split_indices":[0,1,1,1,0,3,0,0,0,2,1,3,3,2,2,0,3,0,3,3,2,2,2,3,3,2,3,0,1,1,3,1,2,3,3,3,1,2,3,3,3,3,0,1,3,0,2,2,3,2,2,2,2,1,2,2,1,0,0,2,0,1,3,0,0,0,0,0,0,0,0,0,0,0,0,0,0,0,0,0,0,0,0,0,0,0,0,0,0,0,0,0,0,0,0,0,0,0,0,0,0,0,0,0,0,0,0,0,0,0,0,0,0,0,0,0,0,0,0,0,0,0,0],"split_type":[0,0,0,0,0,0,0,0,0,0,0,0,0,0,0,0,0,0,0,0,0,0,0,0,0,0,0,0,0,0,0,0,0,0,0,0,0,0,0,0,0,0,0,0,0,0,0,0,0,0,0,0,0,0,0,0,0,0,0,0,0,0,0,0,0,0,0,0,0,0,0,0,0,0,0,0,0,0,0,0,0,0,0,0,0,0,0,0,0,0,0,0,0,0,0,0,0,0,0,0,0,0,0,0,0,0,0,0,0,0,0,0,0,0,0,0,0,0,0,0,0,0,0],"sum_hessian":[2.36143E5,1.14439E5,1.21704E5,1.12177E5,2.262E3,6.7736E4,5.3968E4,6.8247E4,4.393E4,7.84E2,1.478E3,6.4185E4,3.551E3,4.541E3,4.9427E4,6.286E4,5.387E3,2.065E3,4.1865E4,4.36E2,3.48E2,1.343E3,1.35E2,6.1537E4,2.648E3,1.379E3,2.172E3,2.965E3,1.576E3,4.6615E4,2.812E3,2.0522E4,4.2338E4,5.171E3,2.16E2,6.4E2,1.425E3,2.2695E4,1.917E4,2.28E2,2.08E2,3.2E2,2.8E1,1.105E3,2.38E2,6.2E1,7.3E1,5.8979E4,2.558E3,2.35E2,2.413E3,9.64E2,4.15E2,6.53E2,1.519E3,7.29E2,2.236E3,1.417E3,1.59E2,2.2698E4,2.3917E4,2.123E3,6.89E2,1.978E4,7.42E2,1.895E3,4.0443E4,3.823E3,1.348E3,1.09E2,1.07E2,5.56E2,8.4E1,1.185E3,2.4E2,8.786E3,1.3909E4,5.501E3,1.3669E4,1.22E2,1.06E2,1.29E2,7.9E1,2.5E2,7E1,5.89E2,5.16E2,5.3E1,1.85E2,4E0,6.9E1,1.287E4,4.6109E4,2.392E3,1.66E2,1.45E2,9E1,1.044E3,1.369E3,3.93E2,5.71E2,2.7E2,1.45E2,2.99E2,3.54E2,1.374E3,1.45E2,3.4E2,3.89E2,1.434E3,8.02E2,4.33E2,9.84E2,1E0,1.58E2,1.15E3,2.1548E4,5.142E3,1.8775E4,1.193E3,9.3E2,1.61E2,5.28E2],"tree_param":{"num_deleted":"0","num_feature":"4","num_nodes":"123","size_leaf_vector":"0"}},{"base_weights":[-5.8646023E-2,5.347334E0,-5.887471E-2,3.3604574E0,8.863226E0,-2.1325041E-1,-5.101035E-2,-1.3425037E-1,-1.2327925E0,-7.040461E-2,-1.0970531E-2,-2.1775335E-1,6.647258E-2,-1.7683294E0,-8.444981E-1,-5.9951022E-2,-4.1980985E-1,4.2651558E-1,-1.5345483E-2,-3.7361142E-1,-9.9402145E-2,-9.994236E-3,4.3458566E-1,-2.0267515E0,-8.269834E-1,-4.6642628E-1,-1.7208011E0,2.581493E-2,-7.780778E-2,-6.1728004E-2,-6.658815E-1,4.7278504E0,3.961372E-1,9.334412E-3,-6.256539E-2,-3.0760762E-1,-1.4674594E0,-1.8687788E-1,1.1446058E-1,9.801279E-2,-7.697021E-1,2.142385E0,3.0759332E-1,-1.2123879E0,-2.5217638E0,-6.931126E-1,-1.4224252E0,-8.7218255E-1,-3.4849444E-1,-7.9099216E-2,-2.0989792E0,-7.3901643E-3,4.4746435E-1,-1.8891838E-1,-4.4999167E-2,3.571827E-2,-6.258705E-1,-1.87979E0,-5.071424E-1,4.2803165E-1,-1.1356889E0,-1.9852221E-2,1.2384668E-1,-2.723126E-1,-2.6823064E-2],"categories":[],"categories_nodes":[],"categories_segments":[],"categories_sizes":[],"default_left":[true,true,true,false,false,true,true,true,true,true,true,true,true,true,true,true,true,true,true,true,true,true,true,true,true,true,true,true,true,true,true,false,true,true,true,false,false,false,false,false,false,false,false,false,false,false,false,false,false,false,false,false,false,false,false,false,false,false,false,false,false,false,false,false,false],"id":11,"left_children":[1,3,5,-1,-1,7,9,11,13,15,17,19,21,23,25,27,29,31,33,35,37,39,41,43,45,47,49,51,53,55,57,-1,59,61,63,-1,-1,-1,-1,-1,-1,-1,-1,-1,-1,-1,-1,-1,-1,-1,-1,-1,-1,-1,-1,-1,-1,-1,-1,-1,-1,-1,-1,-1,-1],"loss_changes":[2.9225513E2,4.007193E1,2.866725E2,0E0,0E0,9.217395E2,1.7448059E2,1.7808296E2,1.6964624E2,5.5285944E2,1.403415E2,1.3836313E2,8.788375E1,8.2250244E1,1.5789267E2,2.2509283E2,3.8739526E2,9.2991776E1,8.460267E1,2.3332623E2,7.982886E1,2.1226654E2,1.15804184E2,1.05785034E2,5.0722313E0,1.5774185E1,8.923718E1,3.5461835E2,4.434416E2,9.853503E1,5.0120898E2,0E0,3.576066E1,1.593532E2,1.8680673E2,0E0,0E0,0E0,0E0,0E0,0E0,0E0,0E0,0E0,0E0,0E0,0E0,0E0,0E0,0E0,0E0,0E0,0E0,0E0,0E0,0E0,0E0,0E0,0E0,0E0,0E0,0E0,0E0,0E0,0E0],"parents":[2147483647,0,0,1,1,2,2,5,5,6,6,7,7,8,8,9,9,10,10,11,11,12,12,13,13,14,14,15,15,16,16,17,17,18,18,19,19,20,20,21,21,22,22,23,23,24,24,25,25,26,26,27,27,28,28,29,29,30,30,32,32,33,33,34,34],"right_children":[2,4,6,-1,-1,8,10,12,14,16,18,20,22,24,26,28,30,32,34,36,38,40,42,44,46,48,50,52,54,56,58,-1,60,62,64,-1,-1,-1,-1,-1,-1,-1,-1,-1,-1,-1,-1,-1,-1,-1,-1,-1,-1,-1,-1,-1,-1,-1,-1,-1,-1,-1,-1,-1,-1],"split_conditions":[1.2064999E-1,4.6772727E-1,3.1772727E-1,1.0081372E0,2.658968E0,3.6775E-1,7.259091E-1,3.880625E-1,3.068182E-1,6.882E-1,2.7949154E-1,2.9227272E-1,8.8982666E-1,8.9838254E-1,3.918E-1,4.061053E-1,6.085E-1,5E-4,7.2265E-1,3.4405E-1,4.724289E-1,6.623011E-1,8.935468E-1,1.53E-1,3.8529998E-1,8.325353E-1,1.275E-1,8.346398E-1,4.7045454E-1,7.3205E-1,6.8136364E-1,1.4183552E0,8.2590914E-1,3.715245E-1,7.9045457E-1,-9.228229E-2,-4.4023785E-1,-5.6063365E-2,3.4338176E-2,2.9403837E-2,-2.3091063E-1,6.427155E-1,9.2277996E-2,-3.637164E-1,-7.5652915E-1,-2.079338E-1,-4.2672756E-1,-2.6165476E-1,-1.04548335E-1,-2.3729766E-2,-6.296938E-1,-2.2170495E-3,1.3423932E-1,-5.6675516E-2,-1.3499751E-2,1.0715481E-2,-1.8776117E-1,-5.63937E-1,-1.5214273E-1,1.284095E-1,-3.4070668E-1,-5.955667E-3,3.7154004E-2,-8.169378E-2,-8.0469195E-3],"split_indices":[1,0,0,0,0,1,0,2,0,1,2,0,3,3,1,1,2,2,1,1,3,3,3,2,1,3,2,3,0,1,0,0,0,3,0,0,0,0,0,0,0,0,0,0,0,0,0,0,0,0,0,0,0,0,0,0,0,0,0,0,0,0,0,0,0],"split_type":[0,0,0,0,0,0,0,0,0,0,0,0,0,0,0,0,0,0,0,0,0,0,0,0,0,0,0,0,0,0,0,0,0,0,0,0,0,0,0,0,0,0,0,0,0,0,0,0,0,0,0,0,0,0,0,0,0,0,0,0,0,0,0,0,0],"sum_hessian":[2.36143E5,9E0,2.36134E5,7E0,2E0,1.1445E4,2.24689E5,1.0623E4,8.22E2,1.51369E5,7.332E4,7.502E3,3.121E3,3.44E2,4.78E2,1.46973E5,4.396E3,7.25E2,7.2595E4,3.237E3,4.265E3,2.585E3,5.36E2,2.69E2,7.5E1,3.35E2,1.43E2,2.5327E4,1.21646E5,1.791E3,2.605E3,4E0,7.21E2,4.7677E4,2.4918E4,3.054E3,1.83E2,3.027E3,1.238E3,2.264E3,3.21E2,3.6E1,5E2,1.03E2,1.66E2,6.3E1,1.2E1,7.4E1,2.61E2,2.7E1,1.16E2,2.3479E4,1.848E3,2.773E4,9.3916E4,1.528E3,2.63E2,3E2,2.305E3,7.07E2,1.4E1,3.7994E4,9.683E3,3.627E3,2.1291E4],"tree_param":{"num_deleted":"0","num_feature":"4","num_nodes":"65","size_leaf_vector":"0"}},{"base_weights":[-4.1047197E-2,-4.6346965E-1,-3.9023153E-2,-2.2626443E-1,-1.4675055E0,4.1098447E0,-3.9199527E-2,-2.6909658E-1,2.540332E0,-1.5844995E0,-1.0800049E0,2.4783378E0,7.0905814E0,-3.0457692E-3,-5.9381455E-2,7.7315545E-1,-3.1980225E-1,1.9556302E0,5.0707283E0,-1.4439228E0,-1.8342878E0,-1.1205136E0,-6.5373176E-1,3.55453E0,1.5271854E0,2.372513E-2,-8.135269E-2,-8.3465844E-2,1.3588868E-2,2.4081054E-1,1.0914904E0,-1.5775245E0,-2.985858E-1,2.637044E0,3.379593E-1,-1.6365337E0,-1.2013197E0,2.879238E-1,1.717453E0,3.473997E-2,-1.8663698E-1,-2.574914E-1,-4.020272E-2,-1.0976132E-1,-2.2606345E-2,3.969639E-3,6.806894E-1,1.07859686E-1,3.768978E-1,-6.697546E-1,-3.0775597E0,-3.5030004E-1,1.1337197E-1,-3.0672874E0,1.9560928E0,-1.0479501E0,-1.4327983E0,1.8936586E0,5.0631523E-1,4.448035E-3,1.9995153E-1,-1.103549E0,-1.4450584E-1,-1.0780805E-1,-6.8130434E-1,-2.232147E-1,-1.791096E-2,-1.0040764E-1,-5.0462896E-1,-1.5515499E-1,2.866577E-2,3.022856E-1,-6.603888E-3,3.2916406E-1,1.2223809E0],"categories":[],"categories_nodes":[],"categories_segments":[],"categories_sizes":[],"default_left":[true,true,true,true,true,true,true,true,true,true,true,true,false,true,true,true,true,true,false,true,false,false,false,false,true,true,true,true,true,true,false,true,true,false,true,false,true,false,true,true,true,true,true,true,true,true,true,false,false,false,false,false,false,false,false,false,false,false,false,false,false,false,false,false,false,false,false,false,false,false,false,false,false,false,false],"id":12,"left_children":[1,3,5,7,9,11,13,15,17,19,21,23,-1,25,27,29,31,33,-1,35,-1,-1,-1,-1,37,39,41,43,45,47,-1,49,51,-1,53,-1,55,-1,57,59,61,63,65,67,69,71,73,-1,-1,-1,-1,-1,-1,-1,-1,-1,-1,-1,-1,-1,-1,-1,-1,-1,-1,-1,-1,-1,-1,-1,-1,-1,-1,-1,-1],"loss_changes":[2.018854E2,2.67839E2,1.7213681E2,1.087549E2,8.035797E0,3.1058075E1,1.7147546E2,4.775772E1,1.0796913E1,3.0750732E0,1.8267822E-1,2.7605553E0,0E0,1.7649756E2,2.650573E2,6.854645E0,2.242421E1,1.3438732E1,0E0,3.1273499E0,0E0,0E0,0E0,0E0,9.2025185E-1,1.4538861E2,1.554615E2,1.8146368E2,2.4016609E2,2.6692754E-1,0E0,1.7002407E1,1.8041664E1,0E0,3.355062E1,0E0,3.4458923E-1,0E0,1.0825825E-1,2.9838202E2,1.2044512E2,2.5761066E2,7.0937195E1,2.9240173E2,2.3251767E2,1.1638128E2,1.0090015E2,0E0,0E0,0E0,0E0,0E0,0E0,0E0,0E0,0E0,0E0,0E0,0E0,0E0,0E0,0E0,0E0,0E0,0E0,0E0,0E0,0E0,0E0,0E0,0E0,0E0,0E0,0E0,0E0],"parents":[2147483647,0,0,1,1,2,2,3,3,4,4,5,5,6,6,7,7,8,8,9,9,10,10,11,11,13,13,14,14,15,15,16,16,17,17,19,19,24,24,25,25,26,26,27,27,28,28,29,29,31,31,32,32,34,34,36,36,38,38,39,39,40,40,41,41,42,42,43,43,44,44,45,45,46,46],"right_children":[2,4,6,8,10,12,14,16,18,20,22,24,-1,26,28,30,32,34,-1,36,-1,-1,-1,-1,38,40,42,44,46,48,-1,50,52,-1,54,-1,56,-1,58,60,62,64,66,68,70,72,74,-1,-1,-1,-1,-1,-1,-1,-1,-1,-1,-1,-1,-1,-1,-1,-1,-1,-1,-1,-1,-1,-1,-1,-1,-1,-1,-1,-1],"split_conditions":[8.75E-4,4.4495824E-1,1.2064999E-1,5.668182E-1,4.868182E-1,4.6772727E-1,1.1553436E-1,2.891E-1,8.5E-1,4.3772727E-1,5.593E-1,4.3636364E-1,2.1271746E0,6.22875E-1,8.162786E-1,3.059091E-1,2.859091E-1,7.218182E-1,1.5212185E0,3.6363637E-1,-5.5028635E-1,-3.3615407E-1,-1.9611953E-1,1.066359E0,4.3954545E-1,8.05E-1,7.5136364E-1,6.6318184E-1,7.7825E-1,2.9954547E-1,3.2744712E-1,2.8318182E-1,5.059091E-1,7.911132E-1,7.4136364E-1,-4.9096015E-1,4.2227274E-1,8.6377144E-2,1.0695E-1,6.877273E-1,5.3236604E-1,9.9950004E-1,7.050478E-1,6.6995E-1,3.7613904E-1,4.5185E-1,8.922727E-1,3.235791E-2,1.1306935E-1,-2.009264E-1,-9.2326796E-1,-1.05090015E-1,3.401159E-2,-9.201863E-1,5.868279E-1,-3.1438506E-1,-4.298395E-1,5.680976E-1,1.5189457E-1,1.3344105E-3,5.9985463E-2,-3.310647E-1,-4.3351755E-2,-3.234242E-2,-2.0439132E-1,-6.696441E-2,-5.373288E-3,-3.0122293E-2,-1.5138869E-1,-4.6546496E-2,8.599731E-3,9.068569E-2,-1.9811664E-3,9.874922E-2,3.6671427E-1],"split_indices":[2,3,1,0,0,0,3,1,0,0,1,0,0,1,2,0,0,0,0,0,0,0,0,0,0,0,0,0,1,0,0,0,0,0,0,0,0,0,1,0,2,2,2,1,3,1,0,0,0,0,0,0,0,0,0,0,0,0,0,0,0,0,0,0,0,0,0,0,0,0,0,0,0,0,0],"split_type":[0,0,0,0,0,0,0,0,0,0,0,0,0,0,0,0,0,0,0,0,0,0,0,0,0,0,0,0,0,0,0,0,0,0,0,0,0,0,0,0,0,0,0,0,0,0,0,0,0,0,0,0,0,0,0,0,0,0,0,0,0,0,0,0,0,0,0,0,0,0,0,0,0,0,0],"sum_hessian":[2.36143E5,1.125E3,2.35018E5,9.11E2,2.14E2,9E0,2.35009E5,8.98E2,1.3E1,1.62E2,5.2E1,7E0,2E0,8.4191E4,1.50818E5,4.1E1,8.57E2,1.2E1,1E0,1.08E2,5.4E1,4.6E1,6E0,2E0,5E0,6.2742E4,2.1449E4,1.13392E5,3.7426E4,1.6E1,2.5E1,1.3E1,8.44E2,8E0,4E0,5.7E1,5.1E1,1E0,4E0,5.9621E4,3.121E3,4.061E3,1.7388E4,7.918E4,3.4212E4,3.6895E4,5.31E2,9E0,7E0,9E0,4E0,7.5E2,9.4E1,1E0,3E0,3.4E1,1.7E1,3E0,1E0,5.0384E4,9.237E3,1.36E2,2.985E3,3.002E3,1.059E3,1.887E3,1.5501E4,7.7349E4,1.831E3,9.542E3,2.467E4,1.262E3,3.5633E4,3.23E2,2.08E2],"tree_param":{"num_deleted":"0","num_feature":"4","num_nodes":"75","size_leaf_vector":"0"}},{"base_weights":[-2.8721819E-2,-8.644758E-2,-1.6785888E-2,-1.02610506E-1,2.855621E-1,4.2713214E-2,-3.627262E-2,-5.475141E-2,-3.2634187E-1,-1.8142145E-2,7.3223877E-1,1.687402E-2,2.3947354E-1,-5.6399745E-1,-2.8940238E-2,-6.2222622E-2,3.2407197E-1,-8.3320093E-1,-3.0016488E-1,-3.6231095E-1,1.7564829E-1,8.780304E-1,-5.151352E-1,3.361687E-2,-2.295635E-1,8.131552E-1,1.0964937E-1,-6.7845726E-1,-8.080959E-2,-1.2626094E-1,-1.1551669E-2,-5.7748724E-2,-8.404331E-1,1.1160233E0,1.5038957E-1,-4.7269347E-1,-1.0538399E0,-2.306455E-1,-4.6559653E-1,-4.0077487E-1,1.0316966E0,2.592967E-1,-4.335906E-1,7.665386E-1,1.6527882E0,-7.12393E-1,-2.1522804E-1,1.3947055E-1,-1.660082E-2,3.687155E-1,-3.076776E-1,-2.2979218E-1,1.4661785E0,1.0406689E-1,3.7345538E0,-2.3867248E-1,-8.035268E-1,3.451284E-1,-4.0764007E-1,-7.487837E-2,-7.149832E-1,5.839819E-2,-3.134982E-2,2.853559E-2,-8.114306E-2,-1.270598E0,-6.12866E-1,8.398284E-1,2.4091868E0,7.2039138E-3,2.5045174E-1,-3.821696E-1,-6.331787E-1,-1.1511728E0,-7.708321E-1,-3.072922E-1,2.909973E-1,-2.1259654E0,-3.5384837E-1,2.8153185E-2,-5.225369E-1,5.7523407E-2,7.3294437E-1,-1.5499836E-1,-1.135689E0,6.310636E-3,8.9212775E-1,-9.169591E-1,-5.700554E-1,-4.0936977E-1,-1.3834274E-1,3.716014E-4,3.4260926E-1,-7.5697586E-2,1.9225733E-1,2.7085257E-1,8.348915E-1,-5.333236E-1,-1.7066652E-1,-4.5193204E-1,3.5793826E-1,1.8562297E0,7.927031E-1,1.3248025E-1,-1.7088288E-1,4.9018517E0,5.4420567E-1,-1.1961355E0,-4.8914414E-2,-1.2677562E0,-6.656143E-1,-7.400005E-2,7.907159E-1,-2.0778745E-1,-7.688104E-1,-2.4835096E-1,3.8680635E-2,-1.3468876E0,-5.620449E-1,9.615681E-2,-1.2030539E-1,-3.7579782E-2,1.00818135E-1],"categories":[],"categories_nodes":[],"categories_segments":[],"categories_sizes":[],"default_left":[true,true,true,true,true,true,true,true,true,true,true,true,true,true,true,true,true,true,true,true,true,true,true,true,true,true,true,true,true,true,true,true,true,true,true,true,true,true,true,true,false,true,true,true,false,true,true,true,true,true,true,true,true,true,true,true,true,true,true,true,true,true,true,false,false,false,false,false,false,false,false,false,false,false,false,false,false,false,false,false,false,false,false,false,false,false,false,false,false,false,false,false,false,false,false,false,false,false,false,false,false,false,false,false,false,false,false,false,false,false,false,false,false,false,false,false,false,false,false,false,false,false,false],"id":13,"left_children":[1,3,5,7,9,11,13,15,17,19,21,23,25,27,29,31,33,35,37,39,41,43,45,47,49,51,53,55,57,59,61,63,65,67,69,71,73,75,77,79,-1,81,83,85,-1,87,89,91,93,95,97,99,101,103,105,107,109,111,113,115,117,119,121,-1,-1,-1,-1,-1,-1,-1,-1,-1,-1,-1,-1,-1,-1,-1,-1,-1,-1,-1,-1,-1,-1,-1,-1,-1,-1,-1,-1,-1,-1,-1,-1,-1,-1,-1,-1,-1,-1,-1,-1,-1,-1,-1,-1,-1,-1,-1,-1,-1,-1,-1,-1,-1,-1,-1,-1,-1,-1,-1,-1],"loss_changes":[1.6270427E2,2.4331183E2,2.2688603E2,4.1519E2,2.2859633E2,2.4544751E2,5.7037213E2,9.043313E1,9.041046E1,6.7027054E1,1.2447858E2,1.7608762E2,4.172841E2,1.11662415E2,2.4603397E2,1.0902412E2,8.483683E1,2.6148438E1,7.463568E1,1.9823555E1,3.2880898E1,5.1510773E1,4.106121E0,2.1242412E2,1.2699631E2,7.0456226E2,9.210976E1,8.962927E1,5.4153976E1,6.6662756E2,1.7082649E2,6.2880577E1,1.674385E1,3.7622025E1,7.2765503E0,1.6320992E0,4.8146515E0,1.8312794E2,3.5586176E2,1.8450886E1,0E0,5.405014E1,1.5080707E1,5.116971E1,0E0,7.293339E-1,3.911661E-1,3.6332037E2,3.345549E2,1.40989685E1,7.4169205E1,5.225455E1,1.6559924E2,3.5685528E1,2.3400993E1,6.589364E1,8.052942E1,3.162068E1,1.5720036E1,3.9933563E2,1.7020343E2,1.8362056E2,7.91656E1,0E0,0E0,0E0,0E0,0E0,0E0,0E0,0E0,0E0,0E0,0E0,0E0,0E0,0E0,0E0,0E0,0E0,0E0,0E0,0E0,0E0,0E0,0E0,0E0,0E0,0E0,0E0,0E0,0E0,0E0,0E0,0E0,0E0,0E0,0E0,0E0,0E0,0E0,0E0,0E0,0E0,0E0,0E0,0E0,0E0,0E0,0E0,0E0,0E0,0E0,0E0,0E0,0E0,0E0,0E0,0E0,0E0,0E0,0E0,0E0],"parents":[2147483647,0,0,1,1,2,2,3,3,4,4,5,5,6,6,7,7,8,8,9,9,10,10,11,11,12,12,13,13,14,14,15,15,16,16,17,17,18,18,19,19,20,20,21,21,22,22,23,23,24,24,25,25,26,26,27,27,28,28,29,29,30,30,31,31,32,32,33,33,34,34,35,35,36,36,37,37,38,38,39,39,41,41,42,42,43,43,45,45,46,46,47,47,48,48,49,49,50,50,51,51,52,52,53,53,54,54,55,55,56,56,57,57,58,58,59,59,60,60,61,61,62,62],"right_children":[2,4,6,8,10,12,14,16,18,20,22,24,26,28,30,32,34,36,38,40,42,44,46,48,50,52,54,56,58,60,62,64,66,68,70,72,74,76,78,80,-1,82,84,86,-1,88,90,92,94,96,98,100,102,104,106,108,110,112,114,116,118,120,122,-1,-1,-1,-1,-1,-1,-1,-1,-1,-1,-1,-1,-1,-1,-1,-1,-1,-1,-1,-1,-1,-1,-1,-1,-1,-1,-1,-1,-1,-1,-1,-1,-1,-1,-1,-1,-1,-1,-1,-1,-1,-1,-1,-1,-1,-1,-1,-1,-1,-1,-1,-1,-1,-1,-1,-1,-1,-1,-1,-1],"split_conditions":[1.9703749E-1,8.741347E-1,5.0629747E-1,4.1416746E-1,3.9318183E-1,5.377273E-1,4.568182E-1,7.1772724E-1,5E-4,8.85E-2,9.0871114E-1,8.9563155E-1,4.69971E-1,6.1249995E-1,5.804545E-1,6.5205E-1,5.340593E-1,4.7868466E-1,8.21861E-1,3.809091E-1,9.1617846E-1,9.0171456E-1,5.568182E-1,3.8212502E-1,3.3085E-1,2.805E-1,7.874198E-1,6.5853155E-1,8.6527056E-1,6.1355E-1,6.7647225E-1,8.926224E-3,6.413636E-1,1.4561239E-1,7.340909E-1,4.7954544E-1,4.8409092E-1,5.222162E-1,8.2982194E-1,8.787562E-1,3.0950898E-1,9.035412E-1,3.6272728E-1,4.140909E-1,4.9583647E-1,5.3227276E-1,1.83E-1,4.059091E-1,5.018076E-1,5.165E-1,9.003881E-1,4.96E-1,1.4987653E-1,2.138099E-1,5.881818E-1,3.885041E-1,8.4488565E-1,8.5895544E-1,8.9124405E-1,4.317129E-1,5.4318184E-1,7.4926E-1,8.843359E-1,8.560677E-3,-2.4342919E-2,-3.8117942E-1,-1.838598E-1,2.5194854E-1,7.227561E-1,2.1611743E-3,7.513553E-2,-1.1465088E-1,-1.8995363E-1,-3.4535185E-1,-2.3124965E-1,-9.218766E-2,8.729919E-2,-6.377896E-1,-1.0615452E-1,8.445956E-3,-1.5676107E-1,1.7257024E-2,2.1988332E-1,-4.649951E-2,-3.407067E-1,1.8931909E-3,2.6763833E-1,-2.7508774E-1,-1.7101663E-1,-1.2281094E-1,-4.1502822E-2,1.11480425E-4,1.0278278E-1,-2.2709277E-2,5.7677202E-2,8.125577E-2,2.5046745E-1,-1.5999708E-1,-5.1199958E-2,-1.3557962E-1,1.07381485E-1,5.568689E-1,2.3781094E-1,3.9744075E-2,-5.1264867E-2,1.4705555E0,1.6326171E-1,-3.5884067E-1,-1.4674325E-2,-3.803269E-1,-1.996843E-1,-2.2200016E-2,2.3721477E-1,-6.233624E-2,-2.3064312E-1,-7.450529E-2,1.1604191E-2,-4.040663E-1,-1.6861348E-1,2.8847044E-2,-3.609162E-2,-1.1273935E-2,3.0245442E-2],"split_indices":[2,3,1,3,0,0,0,0,2,2,3,3,2,2,0,1,1,3,3,0,3,3,0,2,1,2,3,3,3,1,2,2,0,3,0,0,0,3,3,3,0,3,0,0,0,0,2,0,3,2,3,1,3,3,0,3,3,3,3,3,0,1,3,0,0,0,0,0,0,0,0,0,0,0,0,0,0,0,0,0,0,0,0,0,0,0,0,0,0,0,0,0,0,0,0,0,0,0,0,0,0,0,0,0,0,0,0,0,0,0,0,0,0,0,0,0,0,0,0,0,0,0,0],"split_type":[0,0,0,0,0,0,0,0,0,0,0,0,0,0,0,0,0,0,0,0,0,0,0,0,0,0,0,0,0,0,0,0,0,0,0,0,0,0,0,0,0,0,0,0,0,0,0,0,0,0,0,0,0,0,0,0,0,0,0,0,0,0,0,0,0,0,0,0,0,0,0,0,0,0,0,0,0,0,0,0,0,0,0,0,0,0,0,0,0,0,0,0,0,0,0,0,0,0,0,0,0,0,0,0,0,0,0,0,0,0,0,0,0,0,0,0,0,0,0,0,0,0,0],"sum_hessian":[2.36143E5,4.046E4,1.95683E5,3.8776E4,1.684E3,4.8277E4,1.47406E5,3.1944E4,6.832E3,1.003E3,6.81E2,4.2674E4,5.603E3,2.019E3,1.45387E5,3.1327E4,6.17E2,3.34E2,6.498E3,3.61E2,6.42E2,6.1E2,7.1E1,3.996E4,2.714E3,1.033E3,4.57E3,1.632E3,3.87E2,2.2038E4,1.23349E5,3.1149E4,1.78E2,1.1E2,5.07E2,1.28E2,2.06E2,4.577E3,1.921E3,3.52E2,9E0,5.65E2,7.7E1,5.35E2,7.5E1,4.2E1,2.9E1,1.2857E4,2.7103E4,3.13E2,2.401E3,3.98E2,6.35E2,4.564E3,6E0,3.62E2,1.27E3,1.68E2,2.19E2,2.027E4,1.768E3,2.721E4,9.6139E4,6.644E3,2.4505E4,6E1,1.18E2,9.2E1,1.8E1,2.09E2,2.98E2,8.4E1,4.4E1,1.51E2,5.5E1,3.991E3,5.86E2,1.2E2,1.801E3,7.8E1,2.74E2,3.97E2,1.68E2,5.6E1,2.1E1,7.6E1,4.59E2,1.5E1,2.7E1,7E0,2.2E1,7.632E3,5.225E3,2.1126E4,5.977E3,2.6E2,5.3E1,9.06E2,1.495E3,2.89E2,1.09E2,4.01E2,2.34E2,4.137E3,4.27E2,4E0,2E0,5.9E1,3.03E2,2.89E2,9.81E2,8.7E1,8.1E1,1.42E2,7.7E1,8.019E3,1.2251E4,3.43E2,1.425E3,2.2464E4,4.746E3,9.1812E4,4.327E3],"tree_param":{"num_deleted":"0","num_feature":"4","num_nodes":"123","size_leaf_vector":"0"}},{"base_weights":[-2.010528E-2,-2.2088854E-1,-1.7480604E-2,-1.4148684E-1,-1.5980864E0,-1.6297333E-2,-3.967136E-1,-6.934223E-2,-4.5784953E-1,-1.9715168E0,-8.493942E-1,-2.1717086E-2,6.7119166E-2,-3.732933E-1,-1.0375497E0,-1.6697475E-1,1.9486773E-1,-8.419841E-1,-3.3745116E-1,-1.0667653E0,-2.125431E0,-6.632284E-1,-1.6580508E0,-9.6895015E-3,-7.780228E-2,3.7180787E-1,3.7783004E-2,-1.0017021E-1,-4.048822E-1,-6.093118E-2,-1.4382327E0,3.3420464E-1,-2.9917967E-1,-6.0160226E-1,-1.1662606E0,-1.0313615E0,-2.1049497E-1,-5.9120715E-1,-1.5873121E0,-2.620504E0,-1.8094658E0,-4.5201585E-1,-8.5560685E-1,-1.2615572E-2,2.2722782E-1,-3.1901923E-1,-4.687892E-2,3.2782752E-2,6.1412364E-1,2.813152E-1,6.168169E-3,1.1249641E-1,-2.939094E-1,-3.6188304E-1,-7.4799293E-1,-1.7494088E-1,2.6274997E-1,-2.7287102E0,-1.2494645E0,7.6035696E-1,2.3633282E-1,-1.7764281E0,3.740847E-2,3.6398196E-1,-6.468902E-1,-1.9923543E0,-8.186281E-1,-8.166561E-1,-2.6323392E0,-1.0746003E-1,-7.800197E-1,-1.2258859E0,8.2595205E-1,-2.4238181E-1,-2.345794E0,-1.8909538E0,-2.887204E0,-5.120042E-1,-2.4453964E0,-5.11417E-1,-1.2305617E-2,-5.5794377E-2,-1.6096653E-3,6.433181E-1,4.9103778E-2,-2.2651458E-1,-5.618574E-1,6.877016E-2,-8.7201715E-2,6.292703E-1,-1.8222526E-1,4.9023974E-1,1.0133362E0,1.3165888E0,6.0689013E-2,-2.0431317E-1,1.01226926E-1,1.6726725E-1,-4.6634484E-2,-4.3605158E-1,-2.548517E-1,2.3577149E-1,-3.833086E-1,-2.337487E-1,-8.116029E-1],"categories":[],"categories_nodes":[],"categories_segments":[],"categories_sizes":[],"default_left":[true,true,true,true,true,true,true,true,true,true,true,true,true,true,false,true,true,true,true,true,true,true,false,true,true,true,true,true,true,true,true,true,true,true,true,true,true,true,true,true,true,true,false,true,true,true,true,true,true,true,true,true,true,true,true,false,false,false,false,false,false,false,false,false,false,false,false,false,false,false,false,false,false,false,false,false,false,false,false,false,false,false,false,false,false,false,false,false,false,false,false,false,false,false,false,false,false,false,false,false,false,false,false,false,false],"id":14,"left_children":[1,3,5,7,9,11,13,15,17,19,21,23,25,27,-1,29,31,33,35,37,39,41,-1,43,45,47,49,51,53,55,57,59,61,63,65,67,69,71,73,75,77,79,-1,81,83,85,87,89,91,93,95,97,99,101,103,-1,-1,-1,-1,-1,-1,-1,-1,-1,-1,-1,-1,-1,-1,-1,-1,-1,-1,-1,-1,-1,-1,-1,-1,-1,-1,-1,-1,-1,-1,-1,-1,-1,-1,-1,-1,-1,-1,-1,-1,-1,-1,-1,-1,-1,-1,-1,-1,-1,-1],"loss_changes":[1.2444191E2,3.32969E2,1.0459286E2,6.574662E1,4.473642E1,1.05057014E2,1.04938965E1,6.060034E1,2.445919E1,1.3050629E1,7.4813538E0,1.4718896E2,1.26705605E2,6.007431E0,0E0,2.3110936E2,4.3743942E1,9.198044E0,3.581426E1,3.5174751E0,9.805878E0,1.5636234E0,0E0,1.24556015E2,2.8738947E2,1.02258026E2,9.957242E1,3.0820014E0,8.994492E0,5.849999E1,2.874591E1,2.0465912E1,6.967786E1,3.5151596E0,1.3589378E1,1.9505814E1,2.027847E1,1.0906372E1,7.592264E0,1.1558533E0,4.8253677E1,6.4668894E-1,0E0,8.434134E1,1.6243002E2,9.82186E1,1.5927151E2,6.680447E1,3.5408295E1,3.393351E2,2.2907336E2,3.2156682E-1,1.0538983E-1,7.2612076E0,2.0673485E0,0E0,0E0,0E0,0E0,0E0,0E0,0E0,0E0,0E0,0E0,0E0,0E0,0E0,0E0,0E0,0E0,0E0,0E0,0E0,0E0,0E0,0E0,0E0,0E0,0E0,0E0,0E0,0E0,0E0,0E0,0E0,0E0,0E0,0E0,0E0,0E0,0E0,0E0,0E0,0E0,0E0,0E0,0E0,0E0,0E0,0E0,0E0,0E0,0E0,0E0],"parents":[2147483647,0,0,1,1,2,2,3,3,4,4,5,5,6,6,7,7,8,8,9,9,10,10,11,11,12,12,13,13,15,15,16,16,17,17,18,18,19,19,20,20,21,21,23,23,24,24,25,25,26,26,27,27,28,28,29,29,30,30,31,31,32,32,33,33,34,34,35,35,36,36,37,37,38,38,39,39,40,40,41,41,43,43,44,44,45,45,46,46,47,47,48,48,49,49,50,50,51,51,52,52,53,53,54,54],"right_children":[2,4,6,8,10,12,14,16,18,20,22,24,26,28,-1,30,32,34,36,38,40,42,-1,44,46,48,50,52,54,56,58,60,62,64,66,68,70,72,74,76,78,80,-1,82,84,86,88,90,92,94,96,98,100,102,104,-1,-1,-1,-1,-1,-1,-1,-1,-1,-1,-1,-1,-1,-1,-1,-1,-1,-1,-1,-1,-1,-1,-1,-1,-1,-1,-1,-1,-1,-1,-1,-1,-1,-1,-1,-1,-1,-1,-1,-1,-1,-1,-1,-1,-1,-1,-1,-1,-1,-1],"split_conditions":[2.859091E-1,3.398E-1,9.135527E-1,3.0863333E-1,8.998733E-1,8.848071E-1,5.725E-1,4.7877118E-1,2.768182E-1,3E-3,9.211545E-1,7.687193E-1,2.295E-1,3.7265E-1,-3.1126493E-1,4.6030885E-1,4.4050002E-1,3.2488835E-1,4.4125688E-1,2.8318182E-1,8.408858E-1,3.135E-1,-4.9741524E-1,5.6044066E-1,8.4057575E-1,3.6954546E-1,4.109934E-1,9.2762697E-1,9.252174E-1,3.6310282E-1,4.117679E-2,4.93119E-1,4.468333E-1,4.520133E-1,9.004532E-1,4.3598688E-1,