{"learner":{"attributes":{"scikit_learn":"{\"n_estimators\": 100, \"objective\": \"reg:squarederror\", \"max_depth\": null, \"learning_rate\": null, \"verbosity\": null, \"booster\": null, \"tree_method\": null, \"gamma\": null, \"min_child_weight\": null, \"max_delta_step\": null, \"subsample\": null, \"colsample_bytree\": null, \"colsample_bylevel\": null, \"colsample_bynode\": null, \"reg_alpha\": null, \"reg_lambda\": null, \"scale_pos_weight\": null, \"base_score\": null, \"missing\": NaN, \"num_parallel_tree\": null, \"kwargs\": {\"in_estimators\": 100}, \"random_state\": null, \"n_jobs\": null, \"monotone_constraints\": null, \"interaction_constraints\": null, \"importance_type\": \"gain\", \"gpu_id\": null, \"validate_parameters\": null, \"n_features_in_\": 8, \"type\": \"XGBRegressor\"}"},"gradient_booster":{"model":{"gbtree_model_param":{"num_trees":"100","size_leaf_vector":"0"},"tree_info":[0,0,0,0,0,0,0,0,0,0,0,0,0,0,0,0,0,0,0,0,0,0,0,0,0,0,0,0,0,0,0,0,0,0,0,0,0,0,0,0,0,0,0,0,0,0,0,0,0,0,0,0,0,0,0,0,0,0,0,0,0,0,0,0,0,0,0,0,0,0,0,0,0,0,0,0,0,0,0,0,0,0,0,0,0,0,0,0,0,0,0,0,0,0,0,0,0,0,0,0],"trees":[{"base_weights":[-1.268495E0,-7.646151E-1,-1.633663E0,-5.1092446E-1,-1.0450592E0,-1.8698415E0,-1.3426715E0,-5.151818E-1,5.8369756E0,-1.0744171E0,1.4662335E0,-3.5734015E0,-1.7107219E0,-1.2172866E0,-1.74381E0,-4.1239166E-1,-6.4235866E-1,3.9458125E0,1.0170301E1,-8.623124E-1,-1.1787403E0,-2.4001508E0,2.416241E0,-4.5690985E0,-2.3641646E0,-1.2864634E0,-1.8269979E0,-1.2338251E0,2.117828E0,-1.7197869E0,-4.249947E0,-4.2488682E-1,1.6471691E-1,-5.6143504E-1,-6.919363E-1,2.395449E0,1.0768013E1,9.287459E-1,-8.750541E-1,-9.2639714E-1,-1.2300621E0,-1.4707237E0,-2.8637855E0,7.5559795E-1,3.1615782E0,-2.4125733E0,-4.7615666E0,-1.5940671E0,-3.3588314E0,-1.4289266E0,-7.219773E-1,-1.5609583E0,-1.9807519E0,-1.3098712E0,-9.96179E-1,2.7182808E0,-1.7011852E0,-1.6825536E0,-2.5572205E0,-4.963545E0,-9.850825E-1,-3.5156795E-1,-4.9602315E-1,-5.271976E-1,1.251319E0,-5.169065E-1,-5.862861E-1,-5.510039E-1,-7.3047763E-1,1.6129541E0,4.407749E-1,-6.825388E-1,-9.385732E-1,-9.1773343E-1,-2.412243E0,-1.3982588E0,-1.165264E0,-2.220234E0,-3.1451685E0,1.08992E0,-2.0362163E0,3.267936E0,-1.155571E0,5.540127E-1,-2.7926943E0,-5.488053E0,-3.8943086E0,-1.6147051E0,4.3160853E0,-4.6694903E0,-3.0818095E0,-1.5764376E0,-1.325705E0,3.082233E-1,-1.0416586E0,-1.7779845E-1,-1.6127921E0,-1.9243029E0,-2.2664428E0,-1.2943671E0,-1.8249693E0,-1.932891E0,-9.804703E-1,2.154359E0,3.7125278E0,-3.0956283E0,-1.3283021E0,4.1153197E0,-1.6866192E0,-2.113485E0,-3.0755491E0,-1.6991184E0,5.055566E0],"categories":[],"categories_nodes":[],"categories_segments":[],"categories_sizes":[],"default_left":[true,true,true,true,true,true,true,true,true,true,true,true,true,true,true,true,true,false,true,true,true,true,true,true,true,true,true,true,true,true,true,true,true,true,true,false,false,true,true,true,true,false,true,true,true,true,true,true,true,true,true,true,true,true,true,true,true,true,true,false,true,false,false,false,false,false,false,false,false,false,false,false,false,false,false,false,false,false,false,false,false,false,false,false,false,false,false,false,false,false,false,false,false,false,false,false,false,false,false,false,false,false,false,false,false,false,false,false,false,false,false,false,false],"id":0,"left_children":[1,3,5,7,9,11,13,15,17,19,21,23,25,27,29,31,33,-1,35,37,39,41,43,45,47,49,51,53,55,57,59,61,63,65,67,-1,-1,69,71,73,75,-1,77,79,81,83,85,87,89,91,93,95,97,99,101,103,105,107,109,-1,111,-1,-1,-1,-1,-1,-1,-1,-1,-1,-1,-1,-1,-1,-1,-1,-1,-1,-1,-1,-1,-1,-1,-1,-1,-1,-1,-1,-1,-1,-1,-1,-1,-1,-1,-1,-1,-1,-1,-1,-1,-1,-1,-1,-1,-1,-1,-1,-1,-1,-1,-1,-1],"loss_changes":[4.3449438E4,7.0591484E3,9.40725E3,1.4110361E3,3.4761484E3,2.0479719E4,3.0832812E3,6.803828E2,2.4669592E2,1.0297656E3,2.0076353E3,7.7612344E3,3.4074219E3,2.5806484E3,8.720469E2,2.0772705E2,9.297461E1,0E0,2.067688E1,3.5139258E2,4.0322266E2,4.2326965E1,5.3974097E2,1.4574141E3,2.229039E3,1.1949531E3,2.2159375E3,8.3921094E2,5.343391E2,4.4684766E2,3.166228E2,1.4683838E2,4.6003134E2,9.48584E0,7.795557E1,0E0,0E0,3.568129E1,1.858916E2,6.576807E1,2.811172E2,0E0,5.8739624E0,1.3009033E2,1.424436E2,3.3082446E2,2.0250312E3,2.077373E2,4.4744922E2,1.7870703E2,9.879994E2,1.4245742E3,5.500156E2,2.789961E2,1.6407031E2,1.0413745E2,1.2526924E1,3.3355078E2,1.347207E2,0E0,1.2073425E2,0E0,0E0,0E0,0E0,0E0,0E0,0E0,0E0,0E0,0E0,0E0,0E0,0E0,0E0,0E0,0E0,0E0,0E0,0E0,0E0,0E0,0E0,0E0,0E0,0E0,0E0,0E0,0E0,0E0,0E0,0E0,0E0,0E0,0E0,0E0,0E0,0E0,0E0,0E0,0E0,0E0,0E0,0E0,0E0,0E0,0E0,0E0,0E0,0E0,0E0,0E0,0E0],"parents":[2147483647,0,0,1,1,2,2,3,3,4,4,5,5,6,6,7,7,8,8,9,9,10,10,11,11,12,12,13,13,14,14,15,15,16,16,18,18,19,19,20,20,21,21,22,22,23,23,24,24,25,25,26,26,27,27,28,28,29,29,30,30,31,31,32,32,33,33,34,34,37,37,38,38,39,39,40,40,42,42,43,43,44,44,45,45,46,46,47,47,48,48,49,49,50,50,51,51,52,52,53,53,54,54,55,55,56,56,57,57,58,58,60,60],"right_children":[2,4,6,8,10,12,14,16,18,20,22,24,26,28,30,32,34,-1,36,38,40,42,44,46,48,50,52,54,56,58,60,62,64,66,68,-1,-1,70,72,74,76,-1,78,80,82,84,86,88,90,92,94,96,98,100,102,104,106,108,110,-1,112,-1,-1,-1,-1,-1,-1,-1,-1,-1,-1,-1,-1,-1,-1,-1,-1,-1,-1,-1,-1,-1,-1,-1,-1,-1,-1,-1,-1,-1,-1,-1,-1,-1,-1,-1,-1,-1,-1,-1,-1,-1,-1,-1,-1,-1,-1,-1,-1,-1,-1,-1,-1],"split_conditions":[6.582838E-2,1.37797855E-2,-1.4542267E0,8.298967E0,1.0144303E0,1.181906E-1,1.68195E1,1.2205882E-1,6.781818E-1,3.9192373E-1,5.14675E-1,-1.9705069E0,3.9797455E-1,8.0525506E-1,8.85626E-1,8.951427E-1,5.4958514E-3,1.1837438E0,1.1192566E1,3.0333942E-1,2.3134368E-2,1.3174726E-1,-2.1297321E0,8.76E-1,1.9764365E-1,2.3237564E-1,1.5705621E-1,9.9903333E-1,5.162267E-1,4.2782652E-1,8.898319E-1,3.6061704E-2,-4.119116E0,2.844423E-3,1.7692858E-1,7.186347E-1,3.2304041E0,3.6624998E-1,2.0403846E-1,9.76E-1,-4.1108427E0,-4.4121715E-1,5.2590907E-1,2.5384847E-2,7.521384E-1,5.965E-1,7.204546E-1,2.2319778E1,7.3227274E-1,5.371678E-1,-2.9226665E0,3.780223E-1,8.842264E-1,4.7869778E-1,-1.3742919E0,1.7372559E-1,6.2045455E-1,2.365E-1,-3.4319705E-1,-1.4890635E0,6.1716585E0,-1.0547039E-1,-1.4880694E-1,-1.5815929E-1,3.7539575E-1,-1.5507196E-1,-1.7588584E-1,-1.6530117E-1,-2.191433E-1,4.8388627E-1,1.3223247E-1,-2.0476165E-1,-2.8157195E-1,-2.7532005E-1,-7.2367287E-1,-4.1947767E-1,-3.4957922E-1,-6.660702E-1,-9.435506E-1,3.2697603E-1,-6.108649E-1,9.8038083E-1,-3.466713E-1,1.6620383E-1,-8.378083E-1,-1.646416E0,-1.1682926E0,-4.8441154E-1,1.2948257E0,-1.4008472E0,-9.245429E-1,-4.729313E-1,-3.9771155E-1,9.2466995E-2,-3.1249762E-1,-5.3339537E-2,-4.8383766E-1,-5.772909E-1,-6.7993283E-1,-3.8831013E-1,-5.4749084E-1,-5.798673E-1,-2.941411E-1,6.4630777E-1,1.1137583E0,-9.286885E-1,-3.9849067E-1,1.234596E0,-5.059858E-1,-6.3404554E-1,-9.2266476E-1,-5.097355E-1,1.5166699E0],"split_indices":[6,6,2,2,2,7,1,3,0,3,5,2,7,2,7,7,6,0,1,4,6,7,1,3,6,6,6,3,5,6,7,3,2,6,3,0,0,3,3,3,2,0,0,6,4,3,0,1,0,4,2,4,7,7,2,7,0,3,2,0,2,0,0,0,0,0,0,0,0,0,0,0,0,0,0,0,0,0,0,0,0,0,0,0,0,0,0,0,0,0,0,0,0,0,0,0,0,0,0,0,0,0,0,0,0,0,0,0,0,0,0,0,0],"split_type":[0,0,0,0,0,0,0,0,0,0,0,0,0,0,0,0,0,0,0,0,0,0,0,0,0,0,0,0,0,0,0,0,0,0,0,0,0,0,0,0,0,0,0,0,0,0,0,0,0,0,0,0,0,0,0,0,0,0,0,0,0,0,0,0,0,0,0,0,0,0,0,0,0,0,0,0,0,0,0,0,0,0,0,0,0,0,0,0,0,0,0,0,0,0,0,0,0,0,0,0,0,0,0,0,0,0,0,0,0,0,0,0,0],"sum_hessian":[2.36143E5,9.9227E4,1.36916E5,5.21E4,4.7127E4,7.5573E4,6.1343E4,5.2066E4,3.4E1,4.6583E4,5.44E2,6.454E3,6.9119E4,4.6738E4,1.4605E4,2.8796E4,2.327E4,2.5E1,9E0,1.5361E4,3.1222E4,1.07E2,4.37E2,3.538E3,2.916E3,1.4871E4,5.4248E4,4.6508E4,2.3E2,1.4468E4,1.37E2,2.8186E4,6.1E2,8.845E3,1.4425E4,1E0,8E0,1.08E2,1.5253E4,5.28E3,2.5942E4,3.7E1,7E1,1.36E2,3.01E2,2.91E2,3.247E3,1.645E3,1.271E3,1.1873E4,2.998E3,1.9873E4,3.4375E4,3.523E4,1.1278E4,1.99E2,3.1E1,1.3855E4,6.13E2,1.12E2,2.5E1,1.3883E4,1.4303E4,3.73E2,2.37E2,3.176E3,5.669E3,3.101E3,1.1324E4,4.4E1,6.4E1,3.787E3,1.1466E4,5.251E3,2.9E1,7.209E3,1.8733E4,2.4E1,4.6E1,1.22E2,1.4E1,2.94E2,7E0,3.3E1,2.58E2,1.764E3,1.483E3,1.64E3,5E0,2.19E2,1.052E3,4.882E3,6.991E3,7.1E2,2.288E3,7.18E2,1.9155E4,2.871E4,5.665E3,3.4204E4,1.026E3,1.84E2,1.1094E4,1.29E2,7E1,5E0,2.6E1,9E0,1.3846E4,3.33E2,2.8E2,2.3E1,2E0],"tree_param":{"num_deleted":"0","num_feature":"8","num_nodes":"113","size_leaf_vector":"0"}},{"base_weights":[-8.8798684E-1,-4.6836245E-1,-1.1045296E0,-3.5104942E-1,-6.640724E-1,-1.236486E0,-9.1206247E-1,-3.5423657E-1,4.2325335E0,-6.8196255E-1,8.380519E-1,-1.164839E0,-2.547908E0,-9.2668754E-1,1.3192078E0,-2.8044176E-1,-4.3138933E-1,2.8075972E0,7.514115E0,-5.698817E-1,-7.4709696E-1,-1.3854853E0,1.3890452E0,-9.2676747E-1,-1.2875296E0,-3.065907E0,-1.6853678E0,-8.5502505E-1,-1.2613754E0,-2.2594461E0,1.9941272E0,-1.9035275E-1,-3.2585514E-1,-4.4465986E-1,-2.422636E-1,2.0361316E0,7.8965425E0,-3.799324E-1,-6.227267E-1,-7.4124396E-1,-2.1625671E0,-1.020091E0,-1.7123939E0,1.9487329E0,4.6745107E-1,-5.1055247E-1,-9.7744733E-1,-2.2351496E0,-1.2517039E0,-3.149217E0,-9.565032E-1,-8.691378E-1,-2.176368E0,-9.45818E-1,-7.5119686E-1,-1.2218208E0,-2.4655547E0,-1.4206549E0,-2.3196478E0,2.2287633E0,-1.2663268E0,4.3150166E-1,-2.0497069E-1,-3.0555987E-1,-3.8582277E-1,-4.0314835E-1,-5.0766224E-1,-5.4332995E-1,7.121281E-1,-5.318751E-1,1.9250636E-1,-6.2910336E-1,1.1523914E0,-6.2457347E-1,-7.906198E-1,-1.7126925E0,-2.3986855E0,-1.1480322E0,-7.370383E-1,2.1583443E0,-1.113286E0,3.412089E-2,1.0829846E0,-8.324846E-2,-8.1582254E-1,6.471025E-2,-9.896339E-1,-3.597369E0,-1.2650627E0,-8.8420576E-1,-1.338715E0,-2.7612195E0,-3.8817947E0,-1.4526585E0,-7.9293114E-1,-3.0357387E0,-1.9716579E0,-9.334356E-1,-1.4687421E0,-7.452872E-1,-1.901618E0,-1.1647358E0,-1.6265647E0,-2.0300198E0,-3.2599244E0,-6.3145E-1,-2.3375587E0,2.455863E0,1.3003589E0,-1.3775758E0,6.461991E-1],"categories":[],"categories_nodes":[],"categories_segments":[],"categories_sizes":[],"default_left":[true,true,true,true,true,true,true,true,true,true,true,true,true,true,true,true,true,false,true,true,true,true,true,true,true,true,true,true,true,true,true,true,true,true,true,false,false,true,true,true,true,true,false,true,true,true,true,true,true,true,false,true,true,true,true,true,true,false,true,true,true,false,false,false,false,false,false,false,false,false,false,false,false,false,false,false,false,false,false,false,false,false,false,false,false,false,false,false,false,false,false,false,false,false,false,false,false,false,false,false,false,false,false,false,false,false,false,false,false,false,false],"id":1,"left_children":[1,3,5,7,9,11,13,15,17,19,21,23,25,27,29,31,33,-1,35,37,39,41,43,45,47,49,51,53,55,57,59,61,63,65,67,-1,-1,69,71,73,75,77,-1,79,81,83,85,87,89,91,-1,93,95,97,99,101,103,-1,105,107,109,-1,-1,-1,-1,-1,-1,-1,-1,-1,-1,-1,-1,-1,-1,-1,-1,-1,-1,-1,-1,-1,-1,-1,-1,-1,-1,-1,-1,-1,-1,-1,-1,-1,-1,-1,-1,-1,-1,-1,-1,-1,-1,-1,-1,-1,-1,-1,-1,-1,-1],"loss_changes":[2.1457094E4,1.8452832E3,3.9548125E3,7.3571045E2,8.101006E2,8.679359E3,2.0687773E3,2.858335E2,1.4256494E2,2.1690527E2,4.368542E2,2.5581094E3,2.1331953E3,1.5086758E3,1.0020257E3,1.0497656E2,6.1512695E1,0E0,4.8709717E0,1.0963794E2,1.5435742E2,6.734192E0,1.4609344E2,6.281367E2,1.9601094E3,5.2225586E2,7.186914E2,4.880664E2,5.256426E2,3.7353516E-2,2.6904956E2,7.8328064E1,2.0654785E1,5.9793457E1,4.6357132E2,0E0,0E0,2.0754459E2,9.76416E1,1.0751367E2,4.071045E0,4.575615E-1,0E0,1.1600751E2,2.9036535E1,4.2217657E2,3.3746094E2,2.7771465E3,1.7803828E3,8.0646484E2,0E0,2.8953125E1,1.9139893E2,1.7770898E2,1.630625E2,2.4643652E2,1.1516577E2,0E0,3.3816528E-1,6.532959E1,5.996582E0,0E0,0E0,0E0,0E0,0E0,0E0,0E0,0E0,0E0,0E0,0E0,0E0,0E0,0E0,0E0,0E0,0E0,0E0,0E0,0E0,0E0,0E0,0E0,0E0,0E0,0E0,0E0,0E0,0E0,0E0,0E0,0E0,0E0,0E0,0E0,0E0,0E0,0E0,0E0,0E0,0E0,0E0,0E0,0E0,0E0,0E0,0E0,0E0,0E0,0E0],"parents":[2147483647,0,0,1,1,2,2,3,3,4,4,5,5,6,6,7,7,8,8,9,9,10,10,11,11,12,12,13,13,14,14,15,15,16,16,18,18,19,19,20,20,21,21,22,22,23,23,24,24,25,25,26,26,27,27,28,28,29,29,30,30,31,31,32,32,33,33,34,34,37,37,38,38,39,39,40,40,41,41,43,43,44,44,45,45,46,46,47,47,48,48,49,49,51,51,52,52,53,53,54,54,55,55,56,56,58,58,59,59,60,60],"right_children":[2,4,6,8,10,12,14,16,18,20,22,24,26,28,30,32,34,-1,36,38,40,42,44,46,48,50,52,54,56,58,60,62,64,66,68,-1,-1,70,72,74,76,78,-1,80,82,84,86,88,90,92,-1,94,96,98,100,102,104,-1,106,108,110,-1,-1,-1,-1,-1,-1,-1,-1,-1,-1,-1,-1,-1,-1,-1,-1,-1,-1,-1,-1,-1,-1,-1,-1,-1,-1,-1,-1,-1,-1,-1,-1,-1,-1,-1,-1,-1,-1,-1,-1,-1,-1,-1,-1,-1,-1,-1,-1,-1,-1],"split_conditions":[3.992557E-2,1.263084E-2,-1.3614509E0,8.298967E0,1.0144303E0,9.8675E-1,1.0133622E0,1.0310526E-1,6.781818E-1,3.449322E-1,5.1725864E-1,1.0627936E-1,-1.887027E0,1.7724506E1,5.1226515E-1,6.3187313E-1,8.967074E-1,8.422792E-1,1.1192566E1,4.9634764E-1,9.9450004E-1,6.394559E-2,3.688063E-1,3.7296152E-1,1.1897172E-1,5.806781E-1,2.0119533E-1,9.110523E-1,8.733823E-1,1.2033931E0,5.426438E-1,-1.0608936E1,6.2147662E-2,7.11935E-3,-4.1593237E0,6.108395E-1,2.3689628E0,-4.1929994E0,7.877273E-1,2.0711286E-2,2.9863638E-1,8.124105E-1,-5.137182E-1,5.223733E-1,3.7732252E-1,4.2398477E-1,2.6628458E-1,-1.9731632E0,3.9545786E-1,4.9351576E-1,-2.8695098E-1,5.115598E-1,1.2594025E1,3.96002E-1,8.690847E-1,2.5882727E1,-9.0495604E-1,-4.261965E-1,6.777033E-2,9.568327E-2,3.6797988E0,1.294505E-1,-6.149121E-2,-9.1667965E-2,-1.1574683E-1,-1.2094451E-1,-1.5229867E-1,-1.6299899E-1,2.1363844E-1,-1.5956253E-1,5.775191E-2,-1.8873101E-1,3.4571743E-1,-1.8737204E-1,-2.3718594E-1,-5.138078E-1,-7.196057E-1,-3.4440967E-1,-2.211115E-1,6.475033E-1,-3.339858E-1,1.0236268E-2,3.2489538E-1,-2.4974538E-2,-2.4474677E-1,1.9413076E-2,-2.968902E-1,-1.0792108E0,-3.7951884E-1,-2.6526174E-1,-4.0161452E-1,-8.2836586E-1,-1.1645385E0,-4.3579757E-1,-2.3787935E-1,-9.1072166E-1,-5.9149736E-1,-2.800307E-1,-4.4062266E-1,-2.2358616E-1,-5.704854E-1,-3.4942076E-1,-4.8796943E-1,-6.090059E-1,-9.7797734E-1,-1.89435E-1,-7.0126766E-1,7.3675895E-1,3.901077E-1,-4.1327274E-1,1.9385974E-1],"split_indices":[6,6,2,2,2,3,2,3,0,3,5,6,2,1,5,4,7,0,1,4,3,7,7,3,7,4,6,3,7,2,5,2,3,6,2,0,0,2,0,6,0,4,0,5,3,7,4,2,7,4,0,4,1,7,7,1,2,0,7,6,2,0,0,0,0,0,0,0,0,0,0,0,0,0,0,0,0,0,0,0,0,0,0,0,0,0,0,0,0,0,0,0,0,0,0,0,0,0,0,0,0,0,0,0,0,0,0,0,0,0,0],"split_type":[0,0,0,0,0,0,0,0,0,0,0,0,0,0,0,0,0,0,0,0,0,0,0,0,0,0,0,0,0,0,0,0,0,0,0,0,0,0,0,0,0,0,0,0,0,0,0,0,0,0,0,0,0,0,0,0,0,0,0,0,0,0,0,0,0,0,0,0,0,0,0,0,0,0,0,0,0,0,0,0,0,0,0,0,0,0,0,0,0,0,0,0,0,0,0,0,0,0,0,0,0,0,0,0,0,0,0,0,0,0,0],"sum_hessian":[2.36143E5,8.0381E4,1.55762E5,5.0258E4,3.0123E4,9.2404E4,6.3358E4,5.0224E4,3.4E1,2.9769E4,3.54E2,8.7619E4,4.785E3,6.2946E4,4.12E2,2.5673E4,2.4551E4,2.5E1,9E0,1.0945E4,1.8824E4,7E1,2.84E2,2.9801E4,5.7818E4,2.988E3,1.797E3,5.1848E4,1.1098E4,6.5E1,3.47E2,8.606E3,1.7067E4,2.294E4,1.611E3,1E0,8E0,2.384E3,8.561E3,1.8748E4,7.6E1,3.5E1,3.5E1,1.76E2,1.08E2,3.236E3,2.6565E4,2.104E3,5.5714E4,2.874E3,1.14E2,6.76E2,1.121E3,2.7656E4,2.4192E4,1.0747E4,3.51E2,6E0,5.9E1,3.24E2,2.3E1,1.97E2,8.409E3,1.2756E4,4.311E3,1.3833E4,9.107E3,1.225E3,3.86E2,1.884E3,5E2,8.531E3,3E1,5.579E3,1.3169E4,2.9E1,4.7E1,2.2E1,1.3E1,1.65E2,1.1E1,6.4E1,4.4E1,1.349E3,1.887E3,3.07E2,2.6258E4,8.74E2,1.23E3,1.0668E4,4.5046E4,1.882E3,9.92E2,7.6E1,6E2,2.13E2,9.08E2,2.7019E4,6.37E2,2.407E4,1.22E2,9.422E3,1.325E3,2.29E2,1.22E2,1E0,5.8E1,2.59E2,6.5E1,2.2E1,1E0],"tree_param":{"num_deleted":"0","num_feature":"8","num_nodes":"111","size_leaf_vector":"0"}},{"base_weights":[-6.2163335E-1,-3.8262722E-1,-8.1274384E-1,-2.619423E-1,-5.300272E-1,-9.397085E-1,-6.695605E-1,-2.6416764E-1,3.0345576E0,-5.4536647E-1,8.331084E-1,-1.9341258E0,-8.511367E-1,-5.693547E-1,-8.1992316E-1,-2.0629E-1,-3.438984E-1,2.4479861E0,7.5550604E0,-8.241316E-1,-5.210343E-1,1.4180992E0,-1.1366382E0,-2.1322658E0,-7.050153E-1,-4.971545E-1,-9.0020716E-1,-5.777311E-1,1.083295E0,-8.0203116E-1,-1.6268455E0,-2.1635315E-1,1.748165E-1,-2.9287568E-1,-3.8789803E-1,1.7310753E0,3.2359324E0,7.9121715E-1,-8.586788E-1,-5.24239E-1,1.1611842E0,1.6905235E0,5.328452E-1,3.6042762E-1,-1.2317249E0,-2.549069E0,-1.7145922E0,-5.2266383E-1,-1.2103066E0,-6.765726E-1,-6.722679E-2,-8.5058063E-1,-1.1640203E0,-6.8208075E-1,-4.8128843E-1,1.4417098E0,-9.191614E-1,4.6610885E0,-8.0380976E-1,-9.136229E-1,-2.1432257E0,-2.2704604E-1,1.9778969E-2,-2.9868695E-1,8.396138E-1,-2.8723708E-1,-5.832252E-1,-3.7585866E-1,-6.9557375E-1,3.8660306E-1,2.0246804E0,3.443263E0,6.298709E-2,-2.1891376E-1,9.754035E-1,-8.300734E-1,-1.7279342E0,-4.0820417E-1,-5.675866E-1,1.4387188E0,-5.7766104E-1,-9.725489E-1,1.7462833E0,-1.7482056E-1,7.074666E-1,9.7717047E-1,-2.0505217E-1,-7.890817E-1,-1.4023193E0,-2.672331E0,-7.8076845E-1,2.769778E-1,-1.7994939E0,-8.402932E-1,-3.657569E-1,-1.9063559E0,-7.549447E-1,-7.1232045E-1,-2.5767708E-1,4.118167E-1,-4.1491556E-1,-1.1633385E0,-8.1084776E-1,-2.0213988E0,-1.1425059E0,-6.28173E-1,-9.007866E-1,-3.5426855E-1,-5.342538E-1,1.135098E0,2.2964683E0,-1.691632E0,-6.4409804E-1,-7.355981E-1,-9.4830716E-1,5.641671E-1,-1.1085564E0,-3.76917E0,-1.9930787E0],"categories":[],"categories_nodes":[],"categories_segments":[],"categories_sizes":[],"default_left":[true,true,true,true,true,true,true,true,true,true,true,true,true,true,true,true,true,true,false,true,true,true,true,true,true,true,true,true,true,true,true,true,true,true,true,true,true,true,true,true,true,true,true,true,true,true,true,true,true,true,true,true,true,true,true,true,true,false,true,true,true,false,false,false,false,false,false,false,false,false,false,false,false,false,false,false,false,false,false,false,false,false,false,false,false,false,false,false,false,false,false,false,false,false,false,false,false,false,false,false,false,false,false,false,false,false,false,false,false,false,false,false,false,false,false,false,false,false,false],"id":2,"left_children":[1,3,5,7,9,11,13,15,17,19,21,23,25,27,29,31,33,35,-1,37,39,41,43,45,47,49,51,53,55,57,59,61,63,65,67,69,71,73,75,77,79,81,83,85,87,89,91,93,95,97,99,101,103,105,107,109,111,-1,113,115,117,-1,-1,-1,-1,-1,-1,-1,-1,-1,-1,-1,-1,-1,-1,-1,-1,-1,-1,-1,-1,-1,-1,-1,-1,-1,-1,-1,-1,-1,-1,-1,-1,-1,-1,-1,-1,-1,-1,-1,-1,-1,-1,-1,-1,-1,-1,-1,-1,-1,-1,-1,-1,-1,-1,-1,-1,-1,-1],"loss_changes":[1.0785945E4,1.8663848E3,2.3848281E3,4.2402637E2,9.880908E2,6.1237773E3,9.287871E2,2.659856E2,8.491763E1,3.163955E2,6.07713E2,1.3834863E3,1.1088047E3,5.130039E2,3.5475195E2,1.2816187E2,5.4322754E1,1.4734314E1,0E0,2.0984009E2,2.322168E2,9.7012085E1,1.7668427E1,8.481367E2,7.225064E1,5.9984753E2,7.3326953E2,3.7029004E2,1.3553688E2,2.3819824E2,1.9471094E2,8.21886E1,2.7096484E2,1.822107E1,4.795642E1,7.5068665E0,1.0308685E1,1.4911667E1,8.982153E1,2.1545215E2,4.0403458E1,4.7731018E1,1.2110317E1,2.9904156E0,7.501877E0,5.31708E2,4.1459424E2,2.8748337E1,6.480429E1,8.198193E1,3.8175534E2,5.856992E2,1.6143652E2,2.0795117E2,1.2859131E2,3.9063843E1,5.072296E0,0E0,2.3705957E2,6.572943E1,6.792407E1,0E0,0E0,0E0,0E0,0E0,0E0,0E0,0E0,0E0,0E0,0E0,0E0,0E0,0E0,0E0,0E0,0E0,0E0,0E0,0E0,0E0,0E0,0E0,0E0,0E0,0E0,0E0,0E0,0E0,0E0,0E0,0E0,0E0,0E0,0E0,0E0,0E0,0E0,0E0,0E0,0E0,0E0,0E0,0E0,0E0,0E0,0E0,0E0,0E0,0E0,0E0,0E0,0E0,0E0,0E0,0E0,0E0,0E0],"parents":[2147483647,0,0,1,1,2,2,3,3,4,4,5,5,6,6,7,7,8,8,9,9,10,10,11,11,12,12,13,13,14,14,15,15,16,16,17,17,19,19,20,20,21,21,22,22,23,23,24,24,25,25,26,26,27,27,28,28,29,29,30,30,31,31,32,32,33,33,34,34,35,35,36,36,37,37,38,38,39,39,40,40,41,41,42,42,43,43,44,44,45,45,46,46,47,47,48,48,49,49,50,50,51,51,52,52,53,53,54,54,55,55,56,56,58,58,59,59,60,60],"right_children":[2,4,6,8,10,12,14,16,18,20,22,24,26,28,30,32,34,36,-1,38,40,42,44,46,48,50,52,54,56,58,60,62,64,66,68,70,72,74,76,78,80,82,84,86,88,90,92,94,96,98,100,102,104,106,108,110,112,-1,114,116,118,-1,-1,-1,-1,-1,-1,-1,-1,-1,-1,-1,-1,-1,-1,-1,-1,-1,-1,-1,-1,-1,-1,-1,-1,-1,-1,-1,-1,-1,-1,-1,-1,-1,-1,-1,-1,-1,-1,-1,-1,-1,-1,-1,-1,-1,-1,-1,-1,-1,-1,-1,-1,-1,-1,-1,-1,-1,-1],"split_conditions":[7.406181E-2,1.7643105E-2,-1.5206803E0,4.8993373E0,1.0140741E0,1.1908851E-1,1.3911026E1,1.5207693E-1,7.5772727E-1,-5.8558493E0,7.3985493E-1,6.298423E-1,3.746164E-1,8.0525506E-1,8.7747186E-1,8.9497584E-1,8.153683E-3,5.354545E-1,2.266518E0,2.984311E-1,8.15E-1,3.65398E-1,-3.9096541E0,7.3045456E-1,5.518099E-1,2.296628E-1,3.591021E-1,7.3045456E-1,5.150933E-1,2.3699999E-1,9.39E-1,4.9567127E0,-4.1023693E0,-1.9093001E-1,8.9128745E-1,5.1600003E-1,7.4136364E-1,6.064146E-2,7.695E-1,3.9687705E-1,7.0259686E0,4.8603213E-1,-3.7562256E0,-4.776222E0,1.3174726E-1,-1.6858022E0,2.281389E-1,6.610886E-1,6.550975E-1,7.9954547E-1,-2.3281229E0,-4.5035977E0,8.0136365E-1,9.691763E0,8.741455E0,3.485695E-1,5.254072E-1,1.3983266E0,2.0188519E1,2.2166377E-1,7.3045456E-1,-6.811382E-2,5.933691E-3,-8.960609E-2,2.5188416E-1,-8.617113E-2,-1.7496756E-1,-1.127576E-1,-2.0867214E-1,1.1598092E-1,6.074041E-1,1.032979E0,1.8896127E-2,-6.567413E-2,2.9262105E-1,-2.4902204E-1,-5.183803E-1,-1.2246125E-1,-1.7027599E-1,4.3161565E-1,-1.7329831E-1,-2.9176468E-1,5.23885E-1,-5.2446168E-2,2.1224E-1,2.9315114E-1,-6.151565E-2,-2.3672451E-1,-4.206958E-1,-8.0169934E-1,-2.3423055E-1,8.3093345E-2,-5.398482E-1,-2.5208798E-1,-1.0972708E-1,-5.719068E-1,-2.2648342E-1,-2.1369614E-1,-7.730313E-2,1.2354501E-1,-1.24474674E-1,-3.490016E-1,-2.4325433E-1,-6.064197E-1,-3.4275177E-1,-1.884519E-1,-2.70236E-1,-1.0628057E-1,-1.6027614E-1,3.405294E-1,6.889405E-1,-5.074896E-1,-1.9322942E-1,-2.2067943E-1,-2.8449216E-1,1.6925013E-1,-3.3256692E-1,-1.130751E0,-5.9792364E-1],"split_indices":[6,6,2,2,2,7,1,3,0,2,4,4,7,2,7,7,6,0,0,4,0,7,1,0,5,6,6,0,5,3,3,1,2,2,4,3,0,6,3,3,1,5,1,1,7,2,6,4,1,0,2,2,0,1,1,7,5,0,1,6,0,0,0,0,0,0,0,0,0,0,0,0,0,0,0,0,0,0,0,0,0,0,0,0,0,0,0,0,0,0,0,0,0,0,0,0,0,0,0,0,0,0,0,0,0,0,0,0,0,0,0,0,0,0,0,0,0,0,0],"split_type":[0,0,0,0,0,0,0,0,0,0,0,0,0,0,0,0,0,0,0,0,0,0,0,0,0,0,0,0,0,0,0,0,0,0,0,0,0,0,0,0,0,0,0,0,0,0,0,0,0,0,0,0,0,0,0,0,0,0,0,0,0,0,0,0,0,0,0,0,0,0,0,0,0,0,0,0,0,0,0,0,0,0,0,0,0,0,0,0,0,0,0,0,0,0,0,0,0,0,0,0,0,0,0,0,0,0,0,0,0,0,0,0,0,0,0,0,0,0,0],"sum_hessian":[2.36143E5,1.04925E5,1.31218E5,5.7692E4,4.7233E4,6.9545E4,6.1673E4,5.7654E4,3.8E1,4.6708E4,5.25E2,5.686E3,6.3859E4,3.7012E4,2.4661E4,3.3407E4,2.4247E4,3.5E1,3E0,3.747E3,4.2961E4,4.05E2,1.2E2,4.896E3,7.9E2,7.776E3,5.6083E4,3.6826E4,1.86E2,2.4128E4,5.33E2,3.2548E4,8.59E2,1.1231E4,1.3016E4,2E1,1.5E1,7.8E1,3.669E3,4.288E4,8.1E1,3.09E2,9.6E1,7E0,1.13E2,2.448E3,2.448E3,5.82E2,2.08E2,5.486E3,2.29E3,4.7207E4,8.876E3,1.7685E4,1.9141E4,1.58E2,2.8E1,7E0,2.4121E4,2.25E2,3.08E2,3.1138E4,1.41E3,5.02E2,3.57E2,1.1019E4,2.12E2,1.2528E4,4.88E2,4E0,1.6E1,1.4E1,1E0,1.2E1,6.6E1,3.554E3,1.15E2,1.1665E4,3.1215E4,7E1,1.1E1,6E0,3.03E2,1.9E1,7.7E1,3E0,4E0,3.3E1,8E1,2.288E3,1.6E2,1E2,2.348E3,1.91E2,3.91E2,8.1E1,1.27E2,5.054E3,4.32E2,9.63E2,1.327E3,5.318E3,4.1889E4,2.15E2,8.661E3,1.4191E4,3.494E3,5.635E3,1.3506E4,1.18E2,4E1,6E0,2.2E1,1.639E4,7.731E3,2.6E1,1.99E2,2.4E1,2.84E2],"tree_param":{"num_deleted":"0","num_feature":"8","num_nodes":"119","size_leaf_vector":"0"}},{"base_weights":[-4.3515572E-1,-2.741149E-1,-5.763798E-1,-1.6226575E-1,-3.5611573E-1,-6.702766E-1,-4.719551E-1,-1.6331398E-1,3.9274092E0,-3.664042E-1,6.1609924E-1,-1.3974019E0,-6.045332E-1,-4.1018733E-1,-5.937566E-1,-1.6733108E-1,6.0794705E-1,2.6342466E0,5.855172E0,-2.7508372E-1,-4.1031262E-1,9.011234E-1,-8.5128266E-1,-1.7424852E0,-1.0336138E0,-3.3320844E-1,-6.399523E-1,-5.160698E-1,-3.5321164E-1,2.4486423E0,-5.973743E-1,-6.414409E-2,-1.8604155E-1,-3.9714634E-1,1.1546354E0,2.9501426E0,5.3539038E-2,-5.567743E-1,-2.6753458E-1,1.0471832E0,-4.137373E-1,3.5514554E-1,1.223654E0,-6.396344E-1,-1.09739E0,-2.0315504E0,-1.3379834E0,-4.2450926E-1,-1.2117263E0,-4.7251362E-1,2.0418301E-2,-5.5895984E-1,-7.365275E-1,-4.8925728E-1,-1.1891582E0,-3.629842E-1,6.157997E-1,2.0193934E-2,4.5019298E0,-5.822522E-1,-1.3246317E0,-9.9570766E-2,2.2974542E-1,-1.2866278E-1,-2.4107938E-1,-5.085635E-1,2.676244E-1,8.893702E-1,1.3372524E0,1.1778835E0,3.3445818E0,-1.04085E0,-5.100033E-1,-2.437523E-1,-3.657246E-1,4.5812178E-1,1.5821222E0,-5.801782E-1,-3.805804E-1,-9.6046966E-1,4.6918863E-1,7.9350805E-1,1.394259E0,-4.42601E-1,-7.8308433E-1,-1.2451557E0,-8.762135E-1,-1.4724934E0,-2.4187124E0,-7.801492E-2,-1.3903201E0,-7.0106727E-1,-1.676123E-1,-1.3425667E0,-4.8394752E-1,-4.383657E-1,-1.0080078E0,5.087794E-1,-2.5394064E-1,3.4547767E-1,-5.8488035E-1,-8.874401E-1,-6.207084E-1,-4.2263436E-1,-6.40493E-1,-9.749623E-1,-2.7031882E0,-4.1105676E-1,-2.5453165E-1,1.1862267E0,-2.6265532E-1,1.1753078E0,-7.042764E-1,-5.640222E-1,-1.0451283E0,-7.265914E-1,-1.7011931E0],"categories":[],"categories_nodes":[],"categories_segments":[],"categories_sizes":[],"default_left":[true,true,true,true,true,true,true,true,true,true,true,true,true,true,true,true,true,true,false,true,true,true,true,true,true,true,true,true,true,true,true,true,true,true,true,true,false,true,true,true,true,true,true,true,true,true,true,true,true,true,true,true,true,true,true,true,true,true,false,true,true,false,false,false,false,false,false,false,false,false,false,false,false,false,false,false,false,false,false,false,false,false,false,false,false,false,false,false,false,false,false,false,false,false,false,false,false,false,false,false,false,false,false,false,false,false,false,false,false,false,false,false,false,false,false,false,false],"id":3,"left_children":[1,3,5,7,9,11,13,15,17,19,21,23,25,27,29,31,33,35,-1,37,39,41,43,45,47,49,51,53,55,57,59,61,63,65,67,69,-1,71,73,75,77,79,81,83,85,87,89,91,93,95,97,99,101,103,105,107,109,111,-1,113,115,-1,-1,-1,-1,-1,-1,-1,-1,-1,-1,-1,-1,-1,-1,-1,-1,-1,-1,-1,-1,-1,-1,-1,-1,-1,-1,-1,-1,-1,-1,-1,-1,-1,-1,-1,-1,-1,-1,-1,-1,-1,-1,-1,-1,-1,-1,-1,-1,-1,-1,-1,-1,-1,-1,-1,-1],"loss_changes":[5.3704297E3,1.0118867E3,1.2332852E3,2.007301E2,6.369912E2,3.1658145E3,4.4792578E2,1.4467468E2,1.4490952E1,2.5247656E2,2.797328E2,6.876494E2,5.836172E2,2.3828564E2,2.220581E2,8.961389E1,1.33431E2,7.1791725E0,0E0,4.335327E1,2.1275879E2,9.800229E1,4.975685E0,3.2666602E2,2.898025E2,3.456814E2,4.199043E2,2.4895679E2,2.4362427E2,1.1958034E2,2.1939209E2,7.4225845E1,1.24065796E2,6.5058584E0,6.4160614E0,1.6528625E0,0E0,1.1536652E1,4.643933E1,3.07864E1,2.3398633E2,3.1808334E1,2.4651794E1,1.3775368E0,5.104103E-1,3.516255E2,7.75061E1,4.3007973E1,1.9646143E2,9.160986E1,2.659579E2,6.854551E2,4.277959E2,1.337268E2,1.689187E2,1.3256567E2,1.2909285E2,1.0869889E1,0E0,1.6490918E2,9.041992E1,0E0,0E0,0E0,0E0,0E0,0E0,0E0,0E0,0E0,0E0,0E0,0E0,0E0,0E0,0E0,0E0,0E0,0E0,0E0,0E0,0E0,0E0,0E0,0E0,0E0,0E0,0E0,0E0,0E0,0E0,0E0,0E0,0E0,0E0,0E0,0E0,0E0,0E0,0E0,0E0,0E0,0E0,0E0,0E0,0E0,0E0,0E0,0E0,0E0,0E0,0E0,0E0,0E0,0E0,0E0,0E0],"parents":[2147483647,0,0,1,1,2,2,3,3,4,4,5,5,6,6,7,7,8,8,9,9,10,10,11,11,12,12,13,13,14,14,15,15,16,16,17,17,19,19,20,20,21,21,22,22,23,23,24,24,25,25,26,26,27,27,28,28,29,29,30,30,31,31,32,32,33,33,34,34,35,35,37,37,38,38,39,39,40,40,41,41,42,42,43,43,44,44,45,45,46,46,47,47,48,48,49,49,50,50,51,51,52,52,53,53,54,54,55,55,56,56,57,57,59,59,60,60],"right_children":[2,4,6,8,10,12,14,16,18,20,22,24,26,28,30,32,34,36,-1,38,40,42,44,46,48,50,52,54,56,58,60,62,64,66,68,70,-1,72,74,76,78,80,82,84,86,88,90,92,94,96,98,100,102,104,106,108,110,112,-1,114,116,-1,-1,-1,-1,-1,-1,-1,-1,-1,-1,-1,-1,-1,-1,-1,-1,-1,-1,-1,-1,-1,-1,-1,-1,-1,-1,-1,-1,-1,-1,-1,-1,-1,-1,-1,-1,-1,-1,-1,-1,-1,-1,-1,-1,-1,-1,-1,-1,-1,-1,-1,-1,-1,-1,-1,-1],"split_conditions":[8.278695E-2,2.4699488E-1,-1.5258791E0,8.298967E0,1.0140741E0,1.2597463E-1,1.539686E1,6.0110725E-2,7.5772727E-1,2.3878118E-2,7.637855E-1,-2.080131E0,3.743167E-1,7.140909E-1,3.085E-1,5.0006044E-1,5.5245644E-1,7.4136364E-1,1.7565517E0,-8.587887E0,2.3411064E-1,-9.702569E-1,3.7239186E-2,1.1067713E1,6.05E-1,2.465209E-1,2.2525991E-1,-1.3771331E-1,2.4763346E-1,8.2181823E-1,8.796103E-1,-3.5959978E0,7.220937E-2,5.4142976E-1,1.7911432E1,6.781818E-1,1.6061712E-2,-1.1762722E1,4.25E-1,5.1863635E-1,-4.6502857E0,5.1870525E-1,1.4260495E0,5.1385224E-1,5.540909E-1,1.4508161E-1,1.9386552E-1,9.3884334E-2,-1.65839E0,1.688319E1,7.4475E-1,3.7346566E-1,-2.5331428E0,8.634258E0,9.785E-1,9.9903333E-1,5.1471233E-1,7.5136364E-1,1.350579E0,-2.4479574E-1,9.385E-1,-2.9871231E-2,6.892363E-2,-3.8598835E-2,-7.2323814E-2,-1.5256906E-1,8.028732E-2,2.6681107E-1,4.0117574E-1,3.5336506E-1,1.0033746E0,-3.1225502E-1,-1.5300101E-1,-7.312569E-2,-1.09717384E-1,1.3743654E-1,4.7463667E-1,-1.7405346E-1,-1.1417412E-1,-2.8814092E-1,1.4075659E-1,2.3805243E-1,4.182777E-1,-1.327803E-1,-2.3492531E-1,-3.7354672E-1,-2.6286405E-1,-4.4174805E-1,-7.256137E-1,-2.3404475E-2,-4.1709605E-1,-2.1032019E-1,-5.0283693E-2,-4.0277004E-1,-1.4518426E-1,-1.3150972E-1,-3.0240235E-1,1.5263383E-1,-7.6182194E-2,1.03643306E-1,-1.7546411E-1,-2.6623204E-1,-1.8621252E-1,-1.2679031E-1,-1.921479E-1,-2.924887E-1,-8.109565E-1,-1.2331703E-1,-7.6359496E-2,3.5586804E-1,-7.8796595E-2,3.5259235E-1,-2.1128292E-1,-1.6920666E-1,-3.1353852E-1,-2.1797743E-1,-5.10358E-1],"split_indices":[6,3,2,2,2,7,1,6,0,6,4,2,7,0,3,4,5,0,0,2,4,1,6,1,0,6,6,2,2,0,7,2,3,5,1,0,0,2,0,0,2,5,2,1,0,6,6,6,2,1,3,4,2,1,3,3,5,0,0,2,3,0,0,0,0,0,0,0,0,0,0,0,0,0,0,0,0,0,0,0,0,0,0,0,0,0,0,0,0,0,0,0,0,0,0,0,0,0,0,0,0,0,0,0,0,0,0,0,0,0,0,0,0,0,0,0,0],"split_type":[0,0,0,0,0,0,0,0,0,0,0,0,0,0,0,0,0,0,0,0,0,0,0,0,0,0,0,0,0,0,0,0,0,0,0,0,0,0,0,0,0,0,0,0,0,0,0,0,0,0,0,0,0,0,0,0,0,0,0,0,0,0,0,0,0,0,0,0,0,0,0,0,0,0,0,0,0,0,0,0,0,0,0,0,0,0,0,0,0,0,0,0,0,0,0,0,0,0,0,0,0,0,0,0,0,0,0,0,0,0,0,0,0,0,0,0,0],"sum_hessian":[2.36143E5,1.10332E5,1.25811E5,4.6673E4,6.3659E4,6.6242E4,5.9569E4,4.6662E4,1.1E1,6.2993E4,6.66E2,5.491E3,6.0751E4,3.9528E4,2.0041E4,4.6421E4,2.41E2,8E0,3E0,2.0456E4,4.2537E4,5.58E2,1.08E2,2.816E3,2.675E3,7.016E3,5.3735E4,1.3826E4,2.5702E4,2.3E1,2.0018E4,7.126E3,3.9295E4,8.5E1,1.56E2,7E0,1E0,5.32E2,1.9924E4,9.9E1,4.2438E4,2.08E2,3.5E2,6E1,4.8E1,1.64E3,1.176E3,6.06E2,2.069E3,5.033E3,1.983E3,2.9229E4,2.4506E4,1.3298E4,5.28E2,2.5446E4,2.56E2,1.1E1,1.2E1,1.9612E4,4.06E2,6.36E3,7.66E2,1.924E4,2.0055E4,7.3E1,1.2E1,6.6E1,9E1,2E0,5E0,4.5E1,4.87E2,1.6042E4,3.882E3,4.8E1,5.1E1,7.047E3,3.5391E4,1.6E1,1.92E2,1.01E2,2.49E2,2.7E1,3.3E1,2.6E1,2.2E1,6.73E2,9.67E2,4.7E1,1.129E3,2.91E2,3.15E2,1.753E3,3.16E2,4.733E3,3E2,7.13E2,1.27E3,8.14E2,2.8415E4,1.0638E4,1.3868E4,9.234E3,4.064E3,4.64E2,6.4E1,1.7629E4,7.817E3,1.55E2,1.01E2,4E0,7E0,1.8871E4,7.41E2,1.58E2,2.48E2],"tree_param":{"num_deleted":"0","num_feature":"8","num_nodes":"117","size_leaf_vector":"0"}},{"base_weights":[-3.0461547E-1,-1.5911178E-1,-3.825297E-1,-1.1381375E-1,-2.2363682E-1,-3.1101874E-1,-4.4039875E-1,-1.15168795E-1,1.8166796E0,-2.293967E-1,2.9154727E-1,-6.724585E-1,-2.9930854E-1,-5.74075E-1,-3.8876837E-1,-1.2202665E-1,1.01664364E-1,1.2211059E0,3.5996554E0,7.128535E-1,-2.3130105E-1,-5.513739E-1,5.1046467E-1,-6.2054473E-1,-2.7630348E0,-3.0422938E-1,5.041411E-1,-1.5182204E0,-5.286286E-1,-3.4273678E-1,-4.7977123E-1,-9.983505E-2,-1.5747994E-1,-1.0574826E-1,7.213987E-1,1.7822174E0,7.8620416E-1,2.129242E0,4.537759E0,-1.890612E-1,1.0664339E0,-8.5927606E-2,-2.4284054E-1,-3.1510228E-1,-6.847775E-1,2.949611E-1,1.0238316E0,-5.3271353E-1,-1.3280911E0,-1.5315667E0,-3.3699424E0,-3.0758384E-1,8.274757E-1,6.934726E-1,-7.981059E-1,-2.0273294E0,-1.1920981E0,7.910825E-2,-5.631693E-1,-3.9730635E-1,-2.3034184E-1,-5.400997E-1,-2.8134355E-1,2.8840882E-1,-1.0246161E-1,-1.4637536E-1,-2.85606E-1,-9.277743E-3,-2.1878152E-1,-2.229931E-2,2.4261782E0,1.9711585E0,-5.3596973E-2,9.672252E-2,1.065428E0,2.6387982E0,4.5508146E-2,-4.6414825E-1,1.9872835E-1,7.174215E-1,1.1602374E0,-1.3767843E-1,8.608134E-1,-2.603236E-1,-1.4967866E-1,-3.207203E-1,-7.608974E-2,7.4312687E-3,-7.143913E-1,-1.2209029E0,3.6039156E-1,5.2275896E-1,1.2871736E0,-9.668476E-1,-4.7799724E-1,-1.72522E0,-8.48032E-1,2.8761896E-1,-3.117453E-1,4.4260225E-1,3.851357E0,4.062742E-1,1.1368437E0,-3.0694985E-1,-8.438257E-1,-1.7988228E0,-2.1293437E0,-2.1270385E-1,-1.2380338E0,-7.5105774E-1,2.3357472E-1,-4.8841175E-1,-7.08135E-1,-3.7097773E-1,-5.8813673E-1,-6.9917053E-1,-2.1572757E-1,-7.274084E-1,-4.791165E-1,-1.6003966E-1,-5.55548E-1],"categories":[],"categories_nodes":[],"categories_segments":[],"categories_sizes":[],"default_left":[true,true,true,true,true,true,true,true,true,true,true,true,true,true,true,true,true,true,true,true,true,true,true,true,true,true,true,true,true,true,true,true,true,true,true,true,true,true,false,true,true,true,true,true,true,true,true,true,true,false,false,true,true,true,true,true,true,true,true,true,true,true,true,false,false,false,false,false,false,false,false,false,false,false,false,false,false,false,false,false,false,false,false,false,false,false,false,false,false,false,false,false,false,false,false,false,false,false,false,false,false,false,false,false,false,false,false,false,false,false,false,false,false,false,false,false,false,false,false,false,false],"id":4,"left_children":[1,3,5,7,9,11,13,15,17,19,21,23,25,27,29,31,33,35,37,39,41,43,45,47,49,51,53,55,57,59,61,63,65,67,69,71,73,75,-1,77,79,81,83,85,87,89,91,93,95,-1,-1,97,99,101,103,105,107,109,111,113,115,117,119,-1,-1,-1,-1,-1,-1,-1,-1,-1,-1,-1,-1,-1,-1,-1,-1,-1,-1,-1,-1,-1,-1,-1,-1,-1,-1,-1,-1,-1,-1,-1,-1,-1,-1,-1,-1,-1,-1,-1,-1,-1,-1,-1,-1,-1,-1,-1,-1,-1,-1,-1,-1,-1,-1,-1,-1,-1,-1],"loss_changes":[2.6770586E3,2.406836E2,6.36291E2,1.2678717E2,1.0086047E2,2.9095947E2,5.864336E2,7.191687E1,3.1708824E1,6.0441772E1,6.966478E1,2.3249268E2,2.635996E2,1.0153008E3,2.5670996E2,3.6862305E1,1.9070216E2,5.1875763E0,1.3732147E0,2.1886776E1,5.6218506E1,2.2427444E0,3.2777115E1,1.3023132E2,3.370285E1,2.516792E2,1.00655396E2,1.7805981E2,4.743506E2,2.4969482E2,2.4639941E2,2.942984E1,2.5629517E1,1.2123637E1,4.7169098E2,3.9211159E0,3.1697836E0,5.188814E0,0E0,2.2257571E0,7.7181244E-1,1.2098825E2,5.0548584E1,1.587987E-2,1.009758E0,2.1466944E1,1.0939026E1,4.4100708E1,4.2766663E1,0E0,0E0,1.6364941E2,2.2640248E2,4.4742218E1,9.0867615E-1,6.0302734E0,2.9654419E1,1.5610652E2,2.3135547E2,1.3751807E2,9.106433E1,1.8004932E2,1.5970209E2,0E0,0E0,0E0,0E0,0E0,0E0,0E0,0E0,0E0,0E0,0E0,0E0,0E0,0E0,0E0,0E0,0E0,0E0,0E0,0E0,0E0,0E0,0E0,0E0,0E0,0E0,0E0,0E0,0E0,0E0,0E0,0E0,0E0,0E0,0E0,0E0,0E0,0E0,0E0,0E0,0E0,0E0,0E0,0E0,0E0,0E0,0E0,0E0,0E0,0E0,0E0,0E0,0E0,0E0,0E0,0E0,0E0,0E0],"parents":[2147483647,0,0,1,1,2,2,3,3,4,4,5,5,6,6,7,7,8,8,9,9,10,10,11,11,12,12,13,13,14,14,15,15,16,16,17,17,18,18,19,19,20,20,21,21,22,22,23,23,24,24,25,25,26,26,27,27,28,28,29,29,30,30,31,31,32,32,33,33,34,34,35,35,36,36,37,37,39,39,40,40,41,41,42,42,43,43,44,44,45,45,46,46,47,47,48,48,51,51,52,52,53,53,54,54,55,55,56,56,57,57,58,58,59,59,60,60,61,61,62,62],"right_children":[2,4,6,8,10,12,14,16,18,20,22,24,26,28,30,32,34,36,38,40,42,44,46,48,50,52,54,56,58,60,62,64,66,68,70,72,74,76,-1,78,80,82,84,86,88,90,92,94,96,-1,-1,98,100,102,104,106,108,110,112,114,116,118,120,-1,-1,-1,-1,-1,-1,-1,-1,-1,-1,-1,-1,-1,-1,-1,-1,-1,-1,-1,-1,-1,-1,-1,-1,-1,-1,-1,-1,-1,-1,-1,-1,-1,-1,-1,-1,-1,-1,-1,-1,-1,-1,-1,-1,-1,-1,-1,-1,-1,-1,-1,-1,-1,-1,-1,-1,-1,-1],"split_conditions":[4.226759E-2,1.1600183E-2,1.5053332E-1,8.298967E0,1.0144303E0,-6.595121E0,-2.3327515E0,3.7196822E0,1.4546371E1,2.572099E-1,5.171493E-1,9.01E-1,8.502762E-1,4.732024E-2,1.902723E1,4.0541478E-3,5.3637356E-1,5.7169E-1,7.5772727E-1,7.813636E-1,1.5765E-1,2.9575E-1,1.8071434E0,6.056365E-1,3.8590908E-1,2.089619E1,6.77441E-1,6.709091E-1,3.7532368E-1,8.240909E-1,8.529154E-1,-1.0608936E1,8.9134187E-1,1.3779447E-2,6.55E-1,1.4206623E1,4.875E-1,7.377273E-1,1.3613276E0,7.740909E-1,7.9227275E-1,8.948777E-1,6.8514705E-1,3.8682158E0,4.8136365E-1,6.256798E-1,-1.5287733E0,-9.463451E0,-7.9106045E0,-4.5947003E-1,-1.0109828E0,2.5330228E-1,8.1590915E-1,1.5596183E-1,6.777033E-2,9.535E-1,4.5486537E-1,2.2363536E-1,8.775869E-1,2.5590038E-1,-1.845942E0,8.1045455E-1,8.796882E-1,8.6522646E-2,-3.0738486E-2,-4.391261E-2,-8.56818E-2,-2.7833232E-3,-6.563446E-2,-6.6897934E-3,7.278535E-1,5.913476E-1,-1.6079092E-2,2.9016757E-2,3.1962842E-1,7.916395E-1,1.3652445E-2,-1.3924448E-1,5.9618507E-2,2.1522646E-1,3.4807125E-1,-4.130353E-2,2.5824404E-1,-7.809709E-2,-4.49036E-2,-9.621609E-2,-2.2826923E-2,2.2293807E-3,-2.143174E-1,-3.662709E-1,1.0811747E-1,1.5682769E-1,3.8615212E-1,-2.900543E-1,-1.4339918E-1,-5.17566E-1,-2.544096E-1,8.6285695E-2,-9.352359E-2,1.3278069E-1,1.1554072E0,1.2188227E-1,3.4105313E-1,-9.208496E-2,-2.5314772E-1,-5.3964686E-1,-6.388031E-1,-6.381116E-2,-3.7141013E-1,-2.2531733E-1,7.007242E-2,-1.4652354E-1,-2.124405E-1,-1.1129332E-1,-1.7644103E-1,-2.0975117E-1,-6.4718276E-2,-2.1822253E-1,-1.4373496E-1,-4.8011903E-2,-1.666644E-1],"split_indices":[6,6,6,2,2,2,2,1,1,5,5,3,2,7,1,6,5,4,0,0,3,3,2,5,0,1,4,0,7,0,7,2,4,3,0,1,3,0,0,0,0,7,3,1,0,4,1,2,2,0,0,4,0,7,7,3,5,6,7,6,2,0,7,0,0,0,0,0,0,0,0,0,0,0,0,0,0,0,0,0,0,0,0,0,0,0,0,0,0,0,0,0,0,0,0,0,0,0,0,0,0,0,0,0,0,0,0,0,0,0,0,0,0,0,0,0,0,0,0,0,0],"split_type":[0,0,0,0,0,0,0,0,0,0,0,0,0,0,0,0,0,0,0,0,0,0,0,0,0,0,0,0,0,0,0,0,0,0,0,0,0,0,0,0,0,0,0,0,0,0,0,0,0,0,0,0,0,0,0,0,0,0,0,0,0,0,0,0,0,0,0,0,0,0,0,0,0,0,0,0,0,0,0,0,0,0,0,0,0,0,0,0,0,0,0,0,0,0,0,0,0,0,0,0,0,0,0,0,0,0,0,0,0,0,0,0,0,0,0,0,0,0,0,0,0],"sum_hessian":[2.36143E5,8.2353E4,1.5379E5,4.8387E4,3.3966E4,6.879E4,8.5E4,4.8354E4,3.3E1,3.3591E4,3.75E2,2.157E3,6.6633E4,2.368E4,6.132E4,4.6872E4,1.482E3,2.6E1,7E0,6.7E1,3.3524E4,7.7E1,2.98E2,2.106E3,5.1E1,6.6228E4,4.05E2,1.086E3,2.2594E4,4.0725E4,2.0595E4,2.883E4,1.8042E4,1.111E3,3.71E2,1E1,1.6E1,4E0,3E0,1.9E1,4.8E1,2.466E3,3.1058E4,2.9E1,4.8E1,2.11E2,8.7E1,1.875E3,2.31E2,1.8E1,3.3E1,6.6033E4,1.95E2,3.54E2,5.1E1,4.22E2,6.64E2,1.215E3,2.1379E4,2.7413E4,1.3312E4,1.5792E4,4.803E3,1.93E2,2.8637E4,1.6605E4,1.437E3,6E2,5.11E2,2.59E2,1.12E2,9E0,1E0,5E0,1.1E1,3E0,1E0,1.1E1,8E0,1.2E1,3.6E1,2.339E3,1.27E2,2.6149E4,4.909E3,2.8E1,1E0,2E0,4.6E1,8E0,2.03E2,3.1E1,5.6E1,2.08E2,1.667E3,1.25E2,1.06E2,4.58E2,6.5575E4,1.74E2,2.1E1,2.16E2,1.38E2,5E0,4.6E1,1.36E2,2.86E2,3E1,6.34E2,1.9E2,1.025E3,1.4108E4,7.271E3,2.4092E4,3.321E3,4.01E2,1.2911E4,3.876E3,1.1916E4,3.331E3,1.472E3],"tree_param":{"num_deleted":"0","num_feature":"8","num_nodes":"121","size_leaf_vector":"0"}},{"base_weights":[-2.1323228E-1,-1.330012E-1,-2.8520203E-1,-7.084354E-2,-1.7148535E-1,-3.2802403E-1,-2.1451071E-1,-7.6202184E-2,6.7182255E-1,-1.7623763E-1,3.0107954E-1,-5.8789545E-1,-2.9454485E-1,-3.1573725E-1,-1.5637426E-1,-7.685847E-2,2.459577E0,-3.418134E-1,9.7392565E-1,-1.7774248E-1,7.932727E-1,4.827321E-1,-3.6374113E-1,-8.688462E-1,-2.8660753E-1,-2.1482405E-1,-3.478269E-1,-3.072601E-1,-9.40076E-1,-1.4748652E-1,-8.4483254E-1,-8.999609E-2,3.7567146E-2,1.6235371E0,3.5167625E0,-4.469312E-1,-2.2092271E-1,1.013615E0,-2.8392297E-1,-1.2965722E-1,-2.0349848E-1,1.1536931E0,-1.1592795E-1,-6.3747776E-1,5.292868E-1,-1.4036356E-1,-4.905712E-1,-9.1878533E-1,-4.2867832E-2,2.1501563E0,-2.9397985E-1,-1.718963E-1,-4.5088103E-1,-4.7867683E-1,-3.094318E-1,-2.2932054E-1,-3.7164176E-1,-8.434786E-1,-2.2619672E0,-1.2216568E-1,-2.2956203E-1,-7.3106223E-1,-1.5329802E0,-6.962637E-2,-1.4799976E-1,3.853749E-1,-5.875201E-2,1.844419E0,3.8681984E-2,-4.9700072E-1,-3.0120295E-1,-2.5055093E-1,-6.66169E-2,9.675648E-1,1.6060933E0,-1.8592559E-1,-1.0145981E-1,-3.5696977E-1,-1.90089E-1,1.3478992E0,9.733046E-1,-3.929481E-1,1.5259748E-2,-4.1928384E-1,-1.2954803E0,6.61602E-1,2.113863E-1,3.661011E-1,-2.6104683E-1,-4.0425014E-1,-6.5295756E-1,-1.188747E0,-6.984808E-1,-2.136093E0,5.737746E-2,1.1662241E0,2.4578788E0,-2.8120863E-1,-1.341967E0,1.0332259E0,-1.8306817E-1,-3.9637288E-1,-8.1289476E-1,-4.6029106E-1,-1.7771301E0,-3.6416024E-1,-2.1486282E-1,-3.0293787E-1,1.7250682E-1,-8.1510884E-1,-3.531866E-1,-3.1578732E-1,-1.0504487E0,-8.5082866E-2,-1.885136E-1,-2.0757225E-1,-7.8075826E-1,-8.902634E-1,-5.741429E-1,-1.571505E0,-3.6706486E-1],"categories":[],"categories_nodes":[],"categories_segments":[],"categories_sizes":[],"default_left":[true,true,true,true,true,true,true,true,true,true,true,true,true,true,true,true,true,true,true,true,true,true,true,true,true,true,true,true,true,true,true,true,true,true,false,true,true,true,false,true,true,true,true,true,true,true,true,true,true,true,true,true,true,true,true,true,true,true,false,true,true,true,true,false,false,false,false,false,false,false,false,false,false,false,false,false,false,false,false,false,false,false,false,false,false,false,false,false,false,false,false,false,false,false,false,false,false,false,false,false,false,false,false,false,false,false,false,false,false,false,false,false,false,false,false,false,false,false,false,false,false],"id":5,"left_children":[1,3,5,7,9,11,13,15,17,19,21,23,25,27,29,31,33,35,37,39,41,43,45,47,49,51,53,55,57,59,61,63,65,67,-1,69,71,73,-1,75,77,79,81,83,85,87,89,91,93,95,97,99,101,103,105,107,109,111,-1,113,115,117,119,-1,-1,-1,-1,-1,-1,-1,-1,-1,-1,-1,-1,-1,-1,-1,-1,-1,-1,-1,-1,-1,-1,-1,-1,-1,-1,-1,-1,-1,-1,-1,-1,-1,-1,-1,-1,-1,-1,-1,-1,-1,-1,-1,-1,-1,-1,-1,-1,-1,-1,-1,-1,-1,-1,-1,-1,-1,-1],"loss_changes":[1.3635068E3,2.6709998E2,3.7674902E2,1.699876E2,1.5493188E2,6.7426465E2,2.7631982E2,7.07444E1,9.4037E1,9.975806E1,8.314209E1,7.485388E2,2.9163135E2,9.037891E1,1.8241248E2,6.372139E1,4.0127487E0,8.035135E-1,1.2069672E1,8.4406006E1,3.4869354E1,2.8498955E1,4.1241283E0,1.8875586E2,7.734088E1,2.787328E2,2.0664453E2,8.473193E1,2.733339E1,6.1181763E1,2.8629791E1,4.49122E1,1.4628604E2,2.7291813E0,0E0,1.20274544E-1,1.4332223E-1,4.6939697E0,0E0,3.7714203E1,9.129175E1,1.3505554E0,1.1325868E0,2.6154137E0,2.1690887E1,3.4572694E0,1.0536747E0,2.5585864E2,5.5099586E1,1.0696793E0,5.661206E1,3.1364612E2,8.32063E1,2.2206079E2,1.6464087E2,2.2632089E2,7.54574E1,2.314978E1,0E0,5.5369324E1,8.399185E1,7.6828766E0,1.8037491E0,0E0,0E0,0E0,0E0,0E0,0E0,0E0,0E0,0E0,0E0,0E0,0E0,0E0,0E0,0E0,0E0,0E0,0E0,0E0,0E0,0E0,0E0,0E0,0E0,0E0,0E0,0E0,0E0,0E0,0E0,0E0,0E0,0E0,0E0,0E0,0E0,0E0,0E0,0E0,0E0,0E0,0E0,0E0,0E0,0E0,0E0,0E0,0E0,0E0,0E0,0E0,0E0,0E0,0E0,0E0,0E0,0E0,0E0],"parents":[2147483647,0,0,1,1,2,2,3,3,4,4,5,5,6,6,7,7,8,8,9,9,10,10,11,11,12,12,13,13,14,14,15,15,16,16,17,17,18,18,19,19,20,20,21,21,22,22,23,23,24,24,25,25,26,26,27,27,28,28,29,29,30,30,31,31,32,32,33,33,35,35,36,36,37,37,39,39,40,40,41,41,42,42,43,43,44,44,45,45,46,46,47,47,48,48,49,49,50,50,51,51,52,52,53,53,54,54,55,55,56,56,57,57,59,59,60,60,61,61,62,62],"right_children":[2,4,6,8,10,12,14,16,18,20,22,24,26,28,30,32,34,36,38,40,42,44,46,48,50,52,54,56,58,60,62,64,66,68,-1,70,72,74,-1,76,78,80,82,84,86,88,90,92,94,96,98,100,102,104,106,108,110,112,-1,114,116,118,120,-1,-1,-1,-1,-1,-1,-1,-1,-1,-1,-1,-1,-1,-1,-1,-1,-1,-1,-1,-1,-1,-1,-1,-1,-1,-1,-1,-1,-1,-1,-1,-1,-1,-1,-1,-1,-1,-1,-1,-1,-1,-1,-1,-1,-1,-1,-1,-1,-1,-1,-1,-1,-1,-1,-1,-1,-1,-1],"split_conditions":[8.499126E-2,2.1377501E-1,-1.2157135E0,4.7570936E-2,1.0140741E0,1.1808342E-1,8.4912187E-1,9.5140085E0,5.410949E-1,8.25E-1,7.51346E-1,-1.7423017E0,5.12198E-1,4.3707794E-1,8.7057215E-1,8.036467E-1,7.5772727E-1,4.316994E-1,6.3990587E-1,2.4085592E-2,-1.264411E0,-6.430459E0,3.2798123E-1,6.298423E-1,3.37E-1,3.8163644E-1,-3.2607532E0,5.150205E-1,4.7121465E-1,2.2970937E-1,8.8703364E-1,5.5731237E-3,8.411287E-1,7.377273E-1,1.0550288E0,5.3975654E-1,6.582117E-2,8.2608305E-2,-8.517689E-2,-4.8500166E0,-5.7581844E0,8.55E-1,4.943387E-1,1.8962406E-2,3.631613E-1,5.031818E-1,5.858425E-1,1.1389366E1,8.504553E-2,2.2E-1,1.0804643E-1,3.54341E-1,4.384444E-1,9.355E-1,8.4678936E-1,5.098062E-1,6.1136365E-1,-4.346817E-1,-6.785902E-1,1.2479353E1,-1.0806267E-1,8.73652E-1,5.6494313E-1,-2.0887911E-2,-4.4399932E-2,1.1561248E-1,-1.7625604E-2,5.533257E-1,1.1604596E-2,-1.4910023E-1,-9.036089E-2,-7.516528E-2,-1.998507E-2,2.9026946E-1,4.81828E-1,-5.577768E-2,-3.0437944E-2,-1.07090935E-1,-5.7026703E-2,4.0436977E-1,2.919914E-1,-1.17884435E-1,4.5779245E-3,-1.2578516E-1,-3.886441E-1,1.9848062E-1,6.341589E-2,1.0983033E-1,-7.831405E-2,-1.21275045E-1,-1.9588728E-1,-3.5662413E-1,-2.0954424E-1,-6.408279E-1,1.7213238E-2,3.4986725E-1,7.373637E-1,-8.4362596E-2,-4.0259013E-1,3.099678E-1,-5.4920454E-2,-1.1891187E-1,-2.4386844E-1,-1.3808732E-1,-5.3313905E-1,-1.0924808E-1,-6.445885E-2,-9.088136E-2,5.175205E-2,-2.4453266E-1,-1.0595599E-1,-9.4736196E-2,-3.151346E-1,-2.552486E-2,-5.6554083E-2,-6.2271677E-2,-2.342275E-1,-2.6707903E-1,-1.7224286E-1,-4.714515E-1,-1.1011946E-1],"split_indices":[6,3,2,6,2,7,3,2,5,0,4,2,5,6,7,7,0,7,7,6,2,1,3,4,3,6,2,5,6,7,7,6,7,0,0,4,6,6,0,2,2,0,3,6,7,0,1,1,6,3,7,4,6,3,7,5,0,2,0,1,2,7,5,0,0,0,0,0,0,0,0,0,0,0,0,0,0,0,0,0,0,0,0,0,0,0,0,0,0,0,0,0,0,0,0,0,0,0,0,0,0,0,0,0,0,0,0,0,0,0,0,0,0,0,0,0,0,0,0,0,0],"split_type":[0,0,0,0,0,0,0,0,0,0,0,0,0,0,0,0,0,0,0,0,0,0,0,0,0,0,0,0,0,0,0,0,0,0,0,0,0,0,0,0,0,0,0,0,0,0,0,0,0,0,0,0,0,0,0,0,0,0,0,0,0,0,0,0,0,0,0,0,0,0,0,0,0,0,0,0,0,0,0,0,0,0,0,0,0,0,0,0,0,0,0,0,0,0,0,0,0,0,0,0,0,0,0,0,0,0,0,0,0,0,0,0,0,0,0,0,0,0,0,0,0],"sum_hessian":[2.36143E5,1.11664E5,1.24479E5,4.27E4,6.8964E4,7.7518E4,4.6961E4,4.2395E4,3.05E2,6.8278E4,6.86E2,8.845E3,6.8673E4,1.713E4,2.9831E4,4.2385E4,1E1,7E1,2.35E2,6.8173E4,1.05E2,5.39E2,1.47E2,4.576E3,4.269E3,2.7513E4,4.116E4,1.6902E4,2.28E2,2.9452E4,3.79E2,3.802E4,4.365E3,7E0,3E0,3.6E1,3.4E1,2.28E2,7E0,2.3781E4,4.4392E4,7.5E1,3E1,2.1E1,5.18E2,5.4E1,9.3E1,4.315E3,2.61E2,1.2E1,4.257E3,2.3281E4,4.232E3,9.335E3,3.1825E4,7.648E3,9.254E3,2.14E2,1.4E1,2.251E4,6.942E3,3.27E2,5.2E1,2.814E4,9.88E3,9.46E2,3.419E3,6E0,1E0,2.5E1,1.1E1,2.8E1,6E0,2.14E2,1.4E1,7.937E3,1.5844E4,3.565E3,4.0827E4,3.3E1,4.2E1,9E0,2.1E1,1.7E1,4E0,3.65E2,1.53E2,1E1,4.4E1,6.3E1,3E1,1.937E3,2.378E3,1.1E1,2.5E2,4E0,8E0,4.207E3,5E1,2.13E2,2.3068E4,3.68E3,5.52E2,9.206E3,1.29E2,2.0157E4,1.1668E4,6.464E3,1.184E3,3.68E2,8.886E3,6.1E1,1.53E2,1.4441E4,8.069E3,6.677E3,2.65E2,1.6E2,1.67E2,5E1,2E0],"tree_param":{"num_deleted":"0","num_feature":"8","num_nodes":"121","size_leaf_vector":"0"}},{"base_weights":[-1.492737E-1,-1.017779E-1,-2.1742561E-1,-5.9107646E-2,-1.3858062E-1,-3.0443105E-1,-1.8536758E-1,1.82457E-2,-8.721064E-2,-5.535081E-1,-1.3391784E-1,-2.6835313E-1,-6.50562E-1,-3.5984224E-1,-1.712828E-1,-1.6420394E-2,3.0699438E-1,-7.272036E-2,-2.369678E-1,-4.0112674E-1,-1.2416296E0,-1.3696717E-1,2.9410288E-1,1.4177203E-1,-2.8943825E-1,-8.625803E-1,-4.290462E-1,2.4782962E-1,-3.84872E-1,-1.559474E-1,-2.8842953E-1,6.882997E-2,-6.293612E-2,9.235267E-1,5.1053952E-2,-7.8897186E-2,1.0351287E-1,-2.523225E-1,1.2425926E0,-5.990785E-1,-1.337719E-1,-1.7842656E0,-5.610352E-1,-9.222322E-2,-1.5979223E-1,4.3547532E-1,-4.096754E-1,3.7014887E-1,-2.8158057E-1,1.8800813E-1,-3.102479E-1,-7.997467E-1,-2.125931E0,-1.894629E-1,-7.8286654E-1,4.651695E-1,-5.827065E-1,-4.4179282E-1,-2.7683708E-1,-1.9929044E-1,-1.0897984E-1,-1.0114057E0,-2.5926092E-1,-1.1146687E-1,3.8233107E-1,-9.488821E-2,3.5113648E-1,2.5803986E-1,2.8602488E0,-6.875153E-2,5.223677E-1,-5.885327E-2,-1.2049655E-1,-5.5408783E-2,1.556265E0,-2.1242727E-1,-4.0434676E-1,1.0005316E0,3.3525543E0,-4.8766214E-1,-1.2433835E0,1.1353821E-1,-3.1297526E-1,-1.2989966E0,-2.2496877E0,-3.7374756E-1,-2.1397212E0,-7.509807E-2,-2.9351744E-1,-2.9074514E-1,-1.3197479E-1,3.965277E-1,1.9042219E0,-6.7285585E-1,-3.4184563E-1,-5.189029E-1,3.8771746E-1,-6.103602E-1,8.47193E-1,3.6835034E0,-9.747254E-2,-1.7415446E-1,-3.7047625E-1,-5.649182E-1,-1.0148851E0,-2.3039556E0,-1.5505788E0,-3.08473E-1,-4.1863866E-2,-2.192123E0,-4.9212298E-1,-1.2518236E-1,8.0608124E-1,-1.8427643E-1,-6.6612774E-1,-4.5583916E-1,-1.9930655E-1,3.3884814E0,-2.892315E-1,-1.8890786E-1,-5.963673E-1,-1.1595829E-1,2.831257E-1,-2.527378E0,-4.8999965E-1,-5.096072E-1,-1.8818478E-1],"categories":[],"categories_nodes":[],"categories_segments":[],"categories_sizes":[],"default_left":[true,true,true,true,true,true,true,true,true,true,true,true,true,true,true,true,true,true,true,true,true,true,true,true,true,true,true,true,true,true,true,true,true,true,true,true,true,true,true,true,true,true,true,true,true,true,true,true,true,true,true,true,true,true,true,true,true,true,true,true,true,true,true,false,false,false,false,false,false,false,false,false,false,false,false,false,false,false,false,false,false,false,false,false,false,false,false,false,false,false,false,false,false,false,false,false,false,false,false,false,false,false,false,false,false,false,false,false,false,false,false,false,false,false,false,false,false,false,false,false,false,false,false,false,false,false,false],"id":6,"left_children":[1,3,5,7,9,11,13,15,17,19,21,23,25,27,29,31,33,35,37,39,41,43,45,47,49,51,53,55,57,59,61,63,65,67,69,71,73,75,77,79,81,83,85,87,89,91,93,95,97,99,101,103,105,107,109,111,113,115,117,119,121,123,125,-1,-1,-1,-1,-1,-1,-1,-1,-1,-1,-1,-1,-1,-1,-1,-1,-1,-1,-1,-1,-1,-1,-1,-1,-1,-1,-1,-1,-1,-1,-1,-1,-1,-1,-1,-1,-1,-1,-1,-1,-1,-1,-1,-1,-1,-1,-1,-1,-1,-1,-1,-1,-1,-1,-1,-1,-1,-1,-1,-1,-1,-1,-1,-1],"loss_changes":[7.643594E2,2.1853076E2,2.7044775E2,1.400982E2,1.4448401E2,3.258916E2,1.741018E2,1.7192317E2,1.0256409E2,8.653319E1,9.647876E1,2.0453796E2,1.1535266E2,8.06012E1,1.1776892E2,6.0815002E1,2.9045447E2,4.6928467E1,9.5048325E1,3.5960663E1,5.439621E1,7.491382E1,5.2214214E1,1.1196753E2,2.2352747E2,9.816089E1,1.02168396E2,3.8177868E1,3.114148E1,1.1803162E2,1.5979736E2,3.0605954E2,1.313062E2,6.95248E2,7.355461E1,3.4716278E1,3.3716193E2,2.4950623E1,1.860746E1,2.746202E1,1.2932307E1,1.5823608E1,1.930574E1,8.542012E1,1.7693481E2,2.4185951E1,1.3409157E0,1.1946976E1,1.5119092E2,9.383816E2,1.7659839E2,6.005139E1,2.4707031E0,1.2652014E1,1.9846082E2,3.3710976E1,1.3397007E0,1.1244385E1,8.0799866E1,1.2421912E2,7.619461E1,2.3115012E2,1.2974432E2,0E0,0E0,0E0,0E0,0E0,0E0,0E0,0E0,0E0,0E0,0E0,0E0,0E0,0E0,0E0,0E0,0E0,0E0,0E0,0E0,0E0,0E0,0E0,0E0,0E0,0E0,0E0,0E0,0E0,0E0,0E0,0E0,0E0,0E0,0E0,0E0,0E0,0E0,0E0,0E0,0E0,0E0,0E0,0E0,0E0,0E0,0E0,0E0,0E0,0E0,0E0,0E0,0E0,0E0,0E0,0E0,0E0,0E0,0E0,0E0,0E0,0E0,0E0,0E0],"parents":[2147483647,0,0,1,1,2,2,3,3,4,4,5,5,6,6,7,7,8,8,9,9,10,10,11,11,12,12,13,13,14,14,15,15,16,16,17,17,18,18,19,19,20,20,21,21,22,22,23,23,24,24,25,25,26,26,27,27,28,28,29,29,30,30,31,31,32,32,33,33,34,34,35,35,36,36,37,37,38,38,39,39,40,40,41,41,42,42,43,43,44,44,45,45,46,46,47,47,48,48,49,49,50,50,51,51,52,52,53,53,54,54,55,55,56,56,57,57,58,58,59,59,60,60,61,61,62,62],"right_children":[2,4,6,8,10,12,14,16,18,20,22,24,26,28,30,32,34,36,38,40,42,44,46,48,50,52,54,56,58,60,62,64,66,68,70,72,74,76,78,80,82,84,86,88,90,92,94,96,98,100,102,104,106,108,110,112,114,116,118,120,122,124,126,-1,-1,-1,-1,-1,-1,-1,-1,-1,-1,-1,-1,-1,-1,-1,-1,-1,-1,-1,-1,-1,-1,-1,-1,-1,-1,-1,-1,-1,-1,-1,-1,-1,-1,-1,-1,-1,-1,-1,-1,-1,-1,-1,-1,-1,-1,-1,-1,-1,-1,-1,-1,-1,-1,-1,-1,-1,-1,-1,-1,-1,-1,-1,-1],"split_conditions":[1.2964691E-1,3.979215E-1,-2.3714848E0,5.537704E-1,-8.678179E0,8.7171423E-1,6.7718256E-1,5.4130964E-2,2.7275905E-2,5.7350004E-1,1.1485327E0,3.7428904E-1,8.0291E-1,2.2539227E-1,3.622914E-1,4.4374272E-1,8.483204E0,6.4954543E-1,8.05E-1,-9.609917E0,4.5274937E-1,5.0046515E-1,7.181942E-1,4.981702E-1,3.579303E-1,3.1888515E-1,2.5433978E-1,6.33E-1,8.222727E-1,7.9227275E-1,8.1045455E-1,4.0088385E-1,-3.5707858E0,-3.4099164E0,1.9364475E1,5.858779E-3,5.4149723E-1,5.396204E-2,8.6227274E-1,-1.8214853E0,4.3029076E-1,8.8112235E-1,8.615E-1,-4.302587E-1,4.867063E-1,8.787751E-1,7.628918E-1,7.04E-1,5.4764307E-1,1.697852E1,5.02092E-1,4.9615955E-1,8.2045454E-1,8.647175E-1,7.022727E-1,8.743123E-1,6.759091E-1,8.734523E-1,4.1224998E-1,3.1851512E-1,8.7358946E-1,4.4262737E-1,3.5574862E-1,-3.344006E-2,1.1469933E-1,-2.8466465E-2,1.0534095E-1,7.7411965E-2,8.5807467E-1,-2.0625459E-2,1.5671033E-1,-1.7655982E-2,-3.6148965E-2,-1.6622636E-2,4.6687952E-1,-6.372818E-2,-1.21304035E-1,3.0015948E-1,1.0057664E0,-1.4629865E-1,-3.7301508E-1,3.4061465E-2,-9.389258E-2,-3.8969898E-1,-6.749063E-1,-1.1212427E-1,-6.419164E-1,-2.2529421E-2,-8.805524E-2,-8.7223545E-2,-3.9592437E-2,1.1895832E-1,5.712666E-1,-2.0185676E-1,-1.02553695E-1,-1.5567088E-1,1.1631524E-1,-1.8310806E-1,2.541579E-1,1.105051E0,-2.9241763E-2,-5.224634E-2,-1.1114288E-1,-1.6947547E-1,-3.0446553E-1,-6.9118667E-1,-4.6517366E-1,-9.25419E-2,-1.2559161E-2,-6.576369E-1,-1.476369E-1,-3.755471E-2,2.4182437E-1,-5.528293E-2,-1.9983833E-1,-1.3675176E-1,-5.9791967E-2,1.0165445E0,-8.6769454E-2,-5.667236E-2,-1.789102E-1,-3.4787487E-2,8.4937714E-2,-7.5821346E-1,-1.469999E-1,-1.5288216E-1,-5.6455437E-2],"split_indices":[6,3,2,4,2,3,3,6,6,3,2,7,7,4,6,7,1,0,0,2,4,5,4,4,4,6,6,3,0,0,0,7,2,2,1,6,5,6,0,1,4,7,3,2,4,7,4,3,5,1,5,5,0,7,0,7,0,7,3,6,7,7,7,0,0,0,0,0,0,0,0,0,0,0,0,0,0,0,0,0,0,0,0,0,0,0,0,0,0,0,0,0,0,0,0,0,0,0,0,0,0,0,0,0,0,0,0,0,0,0,0,0,0,0,0,0,0,0,0,0,0,0,0,0,0,0,0],"split_type":[0,0,0,0,0,0,0,0,0,0,0,0,0,0,0,0,0,0,0,0,0,0,0,0,0,0,0,0,0,0,0,0,0,0,0,0,0,0,0,0,0,0,0,0,0,0,0,0,0,0,0,0,0,0,0,0,0,0,0,0,0,0,0,0,0,0,0,0,0,0,0,0,0,0,0,0,0,0,0,0,0,0,0,0,0,0,0,0,0,0,0,0,0,0,0,0,0,0,0,0,0,0,0,0,0,0,0,0,0,0,0,0,0,0,0,0,0,0,0,0,0,0,0,0,0,0,0],"sum_hessian":[2.36143E5,1.39162E5,9.6981E4,6.4445E4,7.4717E4,2.611E4,7.0871E4,1.7174E4,4.7271E4,8.29E2,7.3888E4,2.3647E4,2.463E3,5.292E3,6.5579E4,1.5334E4,1.84E3,4.3102E4,4.169E3,6.8E2,1.49E2,7.3366E4,5.22E2,1.156E3,2.2491E4,1.257E3,1.206E3,2.09E2,5.083E3,5.799E4,7.589E3,5.413E3,9.921E3,5.39E2,1.301E3,4.1643E4,1.459E3,4.127E3,4.2E1,3.9E2,2.9E2,8.2E1,6.7E1,2.4785E4,4.8581E4,4.35E2,8.7E1,7.51E2,4.05E2,9.39E2,2.1552E4,1.199E3,5.8E1,7.2E2,4.86E2,1.66E2,4.3E1,3.327E3,1.756E3,3.0157E4,2.7833E4,2.93E2,7.296E3,3.437E3,1.976E3,9.211E3,7.1E2,4.02E2,1.37E2,1.038E3,2.63E2,2.8104E4,1.3539E4,1.316E3,1.43E2,3.271E3,8.56E2,3.9E1,3E0,3.34E2,5.6E1,1.22E2,1.68E2,4.2E1,4E1,6.1E1,6E0,2.2843E4,1.942E3,8.51E3,4.0071E4,4.25E2,1E1,1.6E1,7.1E1,1.4E1,7.37E2,3.14E2,9.1E1,7E1,8.69E2,6.613E3,1.4939E4,5.75E2,6.24E2,4.2E1,1.6E1,3.98E2,3.22E2,8.2E1,4.04E2,6.1E1,1.05E2,8E0,3.5E1,3.144E3,1.83E2,5E0,1.751E3,2.939E4,7.67E2,2.7347E4,4.86E2,7.4E1,2.19E2,1.612E3,5.684E3],"tree_param":{"num_deleted":"0","num_feature":"8","num_nodes":"127","size_leaf_vector":"0"}},{"base_weights":[-1.04498856E-1,-7.759477E-2,-1.6712004E-1,-4.143347E-2,-1.0098208E-1,-1.554086E-1,-4.17124E-1,-4.1985057E-2,3.540655E0,-1.1091965E-1,5.437771E-2,-1.4751695E-1,-5.2389663E-1,-2.5709438E-1,-9.6046966E-1,5.623687E-1,-4.51594E-2,-1.2343988E-1,2.2903236E-3,-7.7484205E-2,4.9142614E-1,-2.5646693E-1,-1.2780622E-1,-8.628614E0,-5.121126E-1,-2.3257214E-1,-8.260872E-1,-1.0676503E0,-1.3369687E-1,4.7909066E-2,1.0557351E0,1.1751932E-4,-6.1916776E-2,-2.2087519E-1,-1.0504512E-1,-3.7627466E-2,2.4504656E-1,1.8503995E-3,-1.2987243E-1,7.5197214E-1,1.426311E-1,-2.3964083E-1,-1.3347131E0,1.0352603E0,-1.2950324E-1,-4.5895603E-1,-1.1001813E0,-2.7179843E-1,-1.8764203E-2,-1.0065639E0,-4.236938E-1,-5.4370904E-1,-1.1902367E0,-8.66602E-2,-1.0527651E0,-8.5032344E-2,1.4711607E-1,1.2944272E0,6.2898725E-1,2.6969684E-2,-1.6262688E-1,-3.8329266E-2,-1.1536016E-1,-8.1877655E-4,-2.9733613E-1,-9.521154E-2,-2.667089E-1,1.3078013E-2,-1.9586529E-1,8.87777E-2,1.6230274E0,-4.1445255E-2,2.3399831E-1,-9.671979E-1,-1.2103699E-1,1.579563E-1,9.6450084E-1,4.5503813E-1,-9.995254E-2,-5.205029E-1,-1.8872142E-1,-7.063568E-1,-4.7612414E0,2.0247447E0,-2.2288965E-1,-1.2547189E-1,-4.8727927E-1,-5.1832443E-1,-1.2471485E-1,-1.4645257E0,-6.1658686E-1,-2.405491E-1,-5.109176E-1,2.6735187E-1,-2.1869366E-1,-1.0271142E0,-4.158442E-1,-6.147766E-3,-4.810744E-1,-4.0957537E-1,-7.3791957E-1,-1.2517431E0,1.8523942E-1,-8.200793E-3,-2.5231662E-1],"categories":[],"categories_nodes":[],"categories_segments":[],"categories_sizes":[],"default_left":[true,true,true,true,true,true,true,true,false,true,true,true,true,true,true,true,true,true,true,true,true,true,true,false,true,true,true,true,true,true,true,true,true,true,true,true,true,true,true,true,true,true,true,true,true,true,true,true,true,true,true,true,true,true,false,false,false,false,false,false,false,false,false,false,false,false,false,false,false,false,false,false,false,false,false,false,false,false,false,false,false,false,false,false,false,false,false,false,false,false,false,false,false,false,false,false,false,false,false,false,false,false,false,false,false],"id":7,"left_children":[1,3,5,7,9,11,13,15,-1,17,19,21,23,25,27,29,31,33,35,37,39,41,43,-1,45,47,49,51,53,55,57,59,61,63,65,67,69,71,73,75,77,79,81,83,85,87,89,91,93,95,97,99,101,103,-1,-1,-1,-1,-1,-1,-1,-1,-1,-1,-1,-1,-1,-1,-1,-1,-1,-1,-1,-1,-1,-1,-1,-1,-1,-1,-1,-1,-1,-1,-1,-1,-1,-1,-1,-1,-1,-1,-1,-1,-1,-1,-1,-1,-1,-1,-1,-1,-1,-1,-1],"loss_changes":[3.9783447E2,1.396911E2,2.0771375E2,1.2833159E2,1.5486829E2,1.9705762E2,2.7582373E2,1.2446597E2,0E0,1.3362842E2,3.4760486E2,1.4249792E2,1.3129565E2,3.4048492E1,6.383661E1,8.599342E1,4.8958847E1,1.5212158E2,9.099137E1,1.9260065E1,1.26939026E2,1.8413666E2,1.11068665E2,0E0,4.388385E1,1.9737656E1,6.908409E0,4.0394592E1,3.5400796E0,2.215026E0,1.6807816E1,7.618291E1,5.936589E1,2.2681049E2,1.1349585E2,6.470427E1,2.8539075E2,1.8543736E1,2.0531136E1,1.0084396E2,4.5440598E1,1.4308673E2,3.3251743E2,1.0253473E2,8.088751E1,2.5811096E1,1.9711792E1,1.4739532E1,2.099478E1,4.1049957E-1,7.8769016E-1,2.9019356E0,4.3970398E1,1.0507123E0,0E0,0E0,0E0,0E0,0E0,0E0,0E0,0E0,0E0,0E0,0E0,0E0,0E0,0E0,0E0,0E0,0E0,0E0,0E0,0E0,0E0,0E0,0E0,0E0,0E0,0E0,0E0,0E0,0E0,0E0,0E0,0E0,0E0,0E0,0E0,0E0,0E0,0E0,0E0,0E0,0E0,0E0,0E0,0E0,0E0,0E0,0E0,0E0,0E0,0E0,0E0],"parents":[2147483647,0,0,1,1,2,2,3,3,4,4,5,5,6,6,7,7,9,9,10,10,11,11,12,12,13,13,14,14,15,15,16,16,17,17,18,18,19,19,20,20,21,21,22,22,24,24,25,25,26,26,27,27,28,28,29,29,30,30,31,31,32,32,33,33,34,34,35,35,36,36,37,37,38,38,39,39,40,40,41,41,42,42,43,43,44,44,45,45,46,46,47,47,48,48,49,49,50,50,51,51,52,52,53,53],"right_children":[2,4,6,8,10,12,14,16,-1,18,20,22,24,26,28,30,32,34,36,38,40,42,44,-1,46,48,50,52,54,56,58,60,62,64,66,68,70,72,74,76,78,80,82,84,86,88,90,92,94,96,98,100,102,104,-1,-1,-1,-1,-1,-1,-1,-1,-1,-1,-1,-1,-1,-1,-1,-1,-1,-1,-1,-1,-1,-1,-1,-1,-1,-1,-1,-1,-1,-1,-1,-1,-1,-1,-1,-1,-1,-1,-1,-1,-1,-1,-1,-1,-1,-1,-1,-1,-1,-1,-1],"split_conditions":[1.7439076E-1,3.9943182E-1,6.481236E-1,8.6227274E-1,8.8566196E-1,4.333607E-1,8.901619E-1,3.069154E-1,1.0621965E0,7.65E-1,-3.2550373E0,7.1590906E-1,7.3E-1,2.5485935E1,8.984673E-1,-1.3858709E1,5.566021E-1,4.913547E-1,5.402342E-1,-8.569717E0,5.7271516E-1,2.664501E-1,4.445E-1,-2.5885844E0,4.710548E-1,2.8338796E-1,8.442122E-1,5.5649996E-1,3.801553E-1,-1.973512E1,3.8E-1,-2.6836624E0,8.867576E-3,5.1022166E-1,1.1398787E1,1.0597485E1,3.3237445E-1,-4.5207825E0,-8.5182905E0,4.86567E-1,8.897506E-1,3.0297145E-1,5.489294E-1,7.5954545E-1,3.0434711E1,8.912264E-1,8.883946E-1,2.1147217E1,7.6100004E-1,6.735E-1,8.575392E-1,5.445E-1,7.625E-1,8.0045456E-1,-3.1582955E-1,-2.5509704E-2,4.413482E-2,3.8832816E-1,1.8869619E-1,8.090906E-3,-4.8788067E-2,-1.149878E-2,-3.460805E-2,-2.4563298E-4,-8.920084E-2,-2.8563464E-2,-8.001268E-2,3.923404E-3,-5.875959E-2,2.6633311E-2,4.8690826E-1,-1.2433577E-2,7.01995E-2,-2.9015937E-1,-3.6311097E-2,4.7386892E-2,2.8935027E-1,1.3651145E-1,-2.9985763E-2,-1.5615088E-1,-5.661643E-2,-2.1190706E-1,-1.4283725E0,6.074234E-1,-6.68669E-2,-3.764157E-2,-1.4618379E-1,-1.5549734E-1,-3.7414458E-2,-4.3935773E-1,-1.8497607E-1,-7.216474E-2,-1.5327528E-1,8.020556E-2,-6.56081E-2,-3.0813426E-1,-1.2475327E-1,-1.8443299E-3,-1.4432232E-1,-1.2287261E-1,-2.2137588E-1,-3.7552294E-1,5.5571828E-2,-2.4602378E-3,-7.569499E-2],"split_indices":[6,3,4,0,7,6,7,4,0,0,2,0,0,1,7,1,4,4,4,1,4,6,3,0,6,6,7,3,6,1,3,2,6,5,1,1,7,2,2,4,7,7,4,0,1,7,7,1,3,3,7,3,3,0,0,0,0,0,0,0,0,0,0,0,0,0,0,0,0,0,0,0,0,0,0,0,0,0,0,0,0,0,0,0,0,0,0,0,0,0,0,0,0,0,0,0,0,0,0,0,0,0,0,0,0],"split_type":[0,0,0,0,0,0,0,0,0,0,0,0,0,0,0,0,0,0,0,0,0,0,0,0,0,0,0,0,0,0,0,0,0,0,0,0,0,0,0,0,0,0,0,0,0,0,0,0,0,0,0,0,0,0,0,0,0,0,0,0,0,0,0,0,0,0,0,0,0,0,0,0,0,0,0,0,0,0,0,0,0,0,0,0,0,0,0,0,0,0,0,0,0,0,0,0,0,0,0,0,0,0,0,0,0],"sum_hessian":[2.36143E5,1.65179E5,7.0964E4,6.4874E4,1.00305E5,6.779E4,3.174E3,6.4865E4,9E0,9.4275E4,6.03E3,6.637E4,1.42E3,2.453E3,7.21E2,3.38E2,6.4527E4,8.4887E4,9.388E3,4.633E3,1.397E3,1.0166E4,5.6204E4,1E0,1.419E3,2.353E3,1E2,6.38E2,8.3E1,1.66E2,1.72E2,1.7431E4,4.7096E4,1.3479E4,7.1408E4,8.063E3,1.325E3,1.843E3,2.79E3,7.99E2,5.98E2,1.0011E4,1.55E2,8.1E1,5.6123E4,1.303E3,1.16E2,1.988E3,3.65E2,6.8E1,3.2E1,1.22E2,5.16E2,8E1,3E0,7.1E1,9.5E1,1.09E2,6.3E1,1.4963E4,2.468E3,3.2676E4,1.442E4,3.476E3,1.0003E4,6.7315E4,4.093E3,6.107E3,1.956E3,1.191E3,1.34E2,1.554E3,2.89E2,2.8E1,2.762E3,2.11E2,5.88E2,2.61E2,3.37E2,1.535E3,8.476E3,1.32E2,2.3E1,4.5E1,3.6E1,5.5499E4,6.24E2,1.106E3,1.97E2,6.5E1,5.1E1,1.76E3,2.28E2,1.5E2,2.15E2,6.5E1,3E0,4E0,2.8E1,7.4E1,4.8E1,4.94E2,2.2E1,5.5E1,2.5E1],"tree_param":{"num_deleted":"0","num_feature":"8","num_nodes":"105","size_leaf_vector":"0"}},{"base_weights":[-7.31693E-2,-5.0435394E-2,-1.1034081E-1,-5.1130716E-2,5.899796E-1,-1.05924E0,-1.0821714E-1,-2.7992498E-2,-6.875606E-2,1.2980605E0,-3.5241672E-1,-1.4877334E0,-3.4054396E-1,-1.0488596E-1,-4.7615293E-1,-2.8560238E-2,9.177745E-1,2.9195055E-1,-7.0956685E-2,1.1571242E0,2.3239331E0,-2.0749419E0,-1.2545505E0,-3.918724E-1,1.0390725E0,-1.5747598E-1,-8.795687E-2,-7.334323E0,-4.5843446E-1,-3.475343E-2,4.4988662E-2,1.3452511E0,4.65783E-1,4.8539868E-1,-1.1753343E0,-6.3592054E-2,-2.2919874E-1,1.1645776E0,2.7669716E-1,2.5336063E0,9.901599E-1,-1.6750578E0,-2.6684747E0,-1.4136978E0,-7.7148753E-1,-6.973917E-1,-1.6771398E-1,1.4966676E0,6.1941236E-2,-1.2661143E-1,-3.5263616E-1,-1.069314E-1,3.2341816E-2,-9.389825E-1,-3.3889234E-1,-2.6246818E-2,-7.229471E-2,2.5666432E-2,8.806615E-1,5.55896E-1,1.4585116E0,-9.02324E-2,7.721169E-1,-6.635466E-1,5.758088E-1,-5.6560075E-1,-1.4974082E0,-8.304292E-2,-2.3115085E-2,-3.9712983E-1,-7.972236E-2,4.413605E-1,1.1773001E0,-3.2766807E-1,-1.4250166E0,-8.472028E-1,6.6158496E-2,-7.653845E-1,-4.709421E-2,-3.665825E-1,-7.249227E-2,-7.160134E-2,-2.3675303E-1,-3.2230508E-1,-9.721809E-1,-9.918687E-2,-5.6331533E-1,1.10445075E-1,-3.466373E-1,-6.179478E-1,-1.980828E0,9.202075E-2,-3.9941388E-1],"categories":[],"categories_nodes":[],"categories_segments":[],"categories_sizes":[],"default_left":[true,true,true,true,true,true,true,true,true,true,false,true,true,true,true,true,true,true,true,true,true,true,true,true,true,true,true,false,true,true,true,true,true,true,true,true,true,true,false,false,false,false,false,true,true,true,true,false,false,true,true,true,true,true,true,false,false,false,false,false,false,false,false,false,false,false,false,false,false,false,false,false,false,false,false,false,false,false,false,false,false,false,false,false,false,false,false,false,false,false,false,false,false],"id":8,"left_children":[1,3,5,7,9,11,13,15,17,19,-1,21,23,25,27,29,31,33,35,37,39,41,43,45,47,49,51,-1,53,55,57,59,61,63,65,67,69,71,-1,-1,-1,-1,-1,73,75,77,79,-1,-1,81,83,85,87,89,91,-1,-1,-1,-1,-1,-1,-1,-1,-1,-1,-1,-1,-1,-1,-1,-1,-1,-1,-1,-1,-1,-1,-1,-1,-1,-1,-1,-1,-1,-1,-1,-1,-1,-1,-1,-1,-1,-1],"loss_changes":[1.995487E2,6.527911E1,1.8047302E2,5.9691376E1,1.0655704E2,6.1084625E1,1.0954382E2,3.400967E1,6.5970245E1,1.0467941E1,0E0,1.4512756E1,5.789016E0,7.888013E1,9.409375E1,2.8813473E1,6.715603E0,1.4362762E2,9.6223724E1,2.1586609E-1,2.878914E-1,3.5998535E0,5.982147E0,4.9509077E0,1.2486861E0,1.2993115E2,1.5302515E2,0E0,4.5695816E1,1.8629257E1,7.9307915E1,8.878708E-1,3.4761968E0,4.6710915E1,1.0739441E1,6.2124084E1,9.214189E1,2.2567749E-1,0E0,0E0,0E0,0E0,0E0,3.6895752E-1,1.641613E0,1.3346357E0,8.066362E-1,0E0,0E0,1.1287851E2,5.5046265E1,2.0460834E2,2.7040018E2,5.195645E1,1.68059E1,0E0,0E0,0E0,0E0,0E0,0E0,0E0,0E0,0E0,0E0,0E0,0E0,0E0,0E0,0E0,0E0,0E0,0E0,0E0,0E0,0E0,0E0,0E0,0E0,0E0,0E0,0E0,0E0,0E0,0E0,0E0,0E0,0E0,0E0,0E0,0E0,0E0,0E0],"parents":[2147483647,0,0,1,1,2,2,3,3,4,4,5,5,6,6,7,7,8,8,9,9,11,11,12,12,13,13,14,14,15,15,16,16,17,17,18,18,19,19,20,20,21,21,22,22,23,23,24,24,25,25,26,26,28,28,29,29,30,30,31,31,32,32,33,33,34,34,35,35,36,36,37,37,43,43,44,44,45,45,46,46,49,49,50,50,51,51,52,52,53,53,54,54],"right_children":[2,4,6,8,10,12,14,16,18,20,-1,22,24,26,28,30,32,34,36,38,40,42,44,46,48,50,52,-1,54,56,58,60,62,64,66,68,70,72,-1,-1,-1,-1,-1,74,76,78,80,-1,-1,82,84,86,88,90,92,-1,-1,-1,-1,-1,-1,-1,-1,-1,-1,-1,-1,-1,-1,-1,-1,-1,-1,-1,-1,-1,-1,-1,-1,-1,-1,-1,-1,-1,-1,-1,-1,-1,-1,-1,-1,-1,-1],"split_conditions":[1.4245448E-1,2.1241972E1,6.155255E0,2.2176549E-2,4.33958E-1,5.154729E-1,4.4582683E-1,4.8993373E0,2.6636028E-1,-1.1572396E0,-1.0572502E-1,4.9971032E-1,6.318182E-1,-2.4459357E0,7.390909E-1,8.5979736E-1,5.72265E-1,5.77E-1,6.110177E-1,5.8915246E-1,5.5443007E-1,6.1954546E-1,6.2636364E-1,8.571112E-1,6.4863634E-1,8.405E-1,8.5303676E-1,-2.2002969E0,-2.5767741E0,8.513677E-1,8.643731E-1,9.5140085E0,5.82E-1,4.1363636E-1,6.105E-1,7.6809525E-1,6.099467E-1,7.15E-1,8.300915E-2,7.6008195E-1,2.97048E-1,-5.0251734E-1,-8.005424E-1,5.918182E-1,6.4363635E-1,6.0469837E0,5.45E-1,4.490003E-1,1.8582372E-2,8.7747824E-1,5.888214E-1,7.191117E-1,9.2649996E-1,8.791621E-1,6.71589E-2,-7.8740455E-3,-2.1688415E-2,7.69993E-3,2.6419845E-1,1.667688E-1,4.375535E-1,-2.7069721E-2,2.3163508E-1,-1.99064E-1,1.7274265E-1,-1.6968024E-1,-4.4922248E-1,-2.4912877E-2,-6.934526E-3,-1.19138956E-1,-2.3916708E-2,1.3240816E-1,3.5319003E-1,-9.830043E-2,-4.2750502E-1,-2.5416085E-1,1.984755E-2,-2.2961536E-1,-1.4128264E-2,-1.0997476E-1,-2.1747682E-2,-2.1480402E-2,-7.1025915E-2,-9.669153E-2,-2.916543E-1,-2.9756062E-2,-1.689946E-1,3.3133525E-2,-1.03991196E-1,-1.8538435E-1,-5.942484E-1,2.7606227E-2,-1.1982417E-1],"split_indices":[6,1,1,6,7,5,6,2,4,2,0,5,0,2,0,1,4,3,5,4,5,0,0,7,0,3,7,0,2,4,7,2,3,0,3,3,4,0,0,0,0,0,0,0,0,1,0,0,0,7,4,7,3,7,7,0,0,0,0,0,0,0,0,0,0,0,0,0,0,0,0,0,0,0,0,0,0,0,0,0,0,0,0,0,0,0,0,0,0,0,0,0,0],"split_type":[0,0,0,0,0,0,0,0,0,0,0,0,0,0,0,0,0,0,0,0,0,0,0,0,0,0,0,0,0,0,0,0,0,0,0,0,0,0,0,0,0,0,0,0,0,0,0,0,0,0,0,0,0,0,0,0,0,0,0,0,0,0,0,0,0,0,0,0,0,0,0,0,0,0,0,0,0,0,0,0,0,0,0,0,0,0,0,0,0,0,0,0,0],"sum_hessian":[2.36143E5,1.46529E5,8.9614E4,1.46371E5,1.58E2,1.99E2,8.9415E4,6.3289E4,8.3082E4,9E1,6.8E1,1.24E2,7.5E1,8.8614E4,8.01E2,6.3252E4,3.7E1,5.03E2,8.2579E4,8.1E1,9E0,3.3E1,9.1E1,7.3E1,2E0,2.1577E4,6.7037E4,1E0,8E2,5.834E4,4.912E3,1.8E1,1.9E1,4.45E2,5.8E1,7.8908E4,3.671E3,8E1,1E0,7E0,2E0,2.2E1,1.1E1,6.7E1,2.4E1,3E1,4.3E1,1E0,1E0,1.8632E4,2.945E3,5.7904E4,9.133E3,1.58E2,6.42E2,4.7564E4,1.0776E4,4.802E3,1.1E2,3E0,1.5E1,7E0,1.2E1,3.2E1,4.13E2,2.1E1,3.7E1,5.3296E4,2.5612E4,1.728E3,1.943E3,2E0,7.8E1,1E0,6.6E1,2.2E1,2E0,2.7E1,3E0,1.3E1,3E1,1.2427E4,6.205E3,2.809E3,1.36E2,5.6939E4,9.65E2,7.573E3,1.56E3,1.22E2,3.6E1,7.9E1,5.63E2],"tree_param":{"num_deleted":"0","num_feature":"8","num_nodes":"93","size_leaf_vector":"0"}},{"base_weights":[-5.123562E-2,-4.6500105E-2,-1.6026719E-1,-2.0150095E-2,-5.9877288E-2,-4.8661238E-1,-1.3710442E-1,3.8684818E-1,-2.626998E-2,-9.5867336E-2,-4.2598493E-2,-5.354435E0,-4.6336108E-1,-9.6669465E-2,-2.4936734E-1,2.3044336E-1,2.3810604E0,-2.8649226E-2,2.944294E-1,-8.5638605E-2,-5.1416796E-1,-5.1373616E-2,6.6760756E-2,-1.3445746E0,-3.371016E-1,-8.523755E-2,-6.9698524E-1,-3.411886E-1,-1.6728444E-1,4.0722147E-2,5.765365E-1,-7.64811E-1,2.984845E0,-2.5784438E-2,-3.5371232E-1,1.098207E-1,1.0628934E0,-4.722892E-1,-8.008337E-2,-9.498574E-1,-3.8565165E-1,-2.3583513E-2,-8.904026E-2,2.4291712E-1,-1.1710593E-1,-4.210186E-1,-1.4400189E0,-1.4297924E0,-2.7148226E-1,-4.067356E-1,-6.997757E-2,-1.0150871E0,-3.0653673E-1,-1.7537346E-1,-4.6389747E-1,-2.389936E-1,8.067862E-2,6.346107E-2,-1.0422856E0,6.811415E-1,2.6103926E-1,-1.3493947E0,-2.9010954E-1,9.700902E-3,-4.1223645E-2,-2.4315588E-1,-4.1939443E-1,3.910482E-1,-2.2407247E-1,1.350886E0,-2.5741863E-1,-2.8858732E-2,-6.244672E-1,-4.884699E-2,-1.2242402E-1,-1.56274E0,-8.7920964E-1,1.6182487E0,-3.9866924E-1,-5.179511E-2,3.0477678E-2,-1.4992267E-1,-3.0751396E-2,3.3858216E-1,-1.7174697E-1,-3.2118045E-2,-5.808365E-1,-1.6164554E0,-1.2628865E0,-4.0739813E0,-3.7864685E-1,-4.1143122E-1,6.770791E-2,-2.642978E-1,-7.066628E-1,1.3708414E-1,-9.241997E-2,-5.06203E-1,-1.1028719E0,3.4554788E-1,-4.4958663E-1,-2.3516692E-1,5.614323E-1,-6.5490294E-1,-2.393223E-1,-1.8841377E-1,-6.714877E-1,4.518503E-1,-4.6855558E-2],"categories":[],"categories_nodes":[],"categories_segments":[],"categories_sizes":[],"default_left":[true,true,true,true,true,true,true,true,true,true,true,false,true,true,true,true,true,true,true,true,true,true,true,true,true,true,true,true,true,true,true,true,false,true,true,true,true,true,true,true,true,true,true,true,true,false,true,true,true,true,true,true,true,true,true,true,true,false,false,false,false,false,false,false,false,false,false,false,false,false,false,false,false,false,false,false,false,false,false,false,false,false,false,false,false,false,false,false,false,false,false,false,false,false,false,false,false,false,false,false,false,false,false,false,false,false,false,false,false],"id":9,"left_children":[1,3,5,7,9,11,13,15,17,19,21,-1,23,25,27,29,31,33,35,37,39,41,43,45,47,49,51,53,55,57,59,61,-1,63,65,67,69,71,73,75,77,79,81,83,85,-1,87,89,91,93,95,97,99,101,103,105,107,-1,-1,-1,-1,-1,-1,-1,-1,-1,-1,-1,-1,-1,-1,-1,-1,-1,-1,-1,-1,-1,-1,-1,-1,-1,-1,-1,-1,-1,-1,-1,-1,-1,-1,-1,-1,-1,-1,-1,-1,-1,-1,-1,-1,-1,-1,-1,-1,-1,-1,-1,-1],"loss_changes":[1.2191858E2,7.9772644E1,7.423125E1,1.898277E2,9.334338E1,7.120117E1,4.1642563E1,3.5159137E2,5.7296192E1,2.0828503E2,9.7330185E1,0E0,7.175551E1,4.6264225E1,1.825772E1,6.878946E1,1.5803601E2,6.9394066E1,7.833469E1,1.0205133E2,6.4697815E1,9.8275055E1,2.4404936E2,6.5337067E0,4.041008E1,3.247415E1,1.5338345E1,2.3236298E1,2.2868153E1,1.6762865E1,1.2066162E1,3.4935656E0,0E0,4.0475605E1,4.625313E0,4.2060894E1,4.103344E1,4.5396255E1,6.1965607E1,1.0056885E1,2.4096466E1,8.240251E1,1.4144922E2,1.527039E2,1.4529147E2,0E0,2.4005127E-1,8.7399086E1,2.5566349E1,1.2629517E1,2.9409348E1,2.524109E0,5.56563E0,2.1675495E1,2.8068237E1,2.1683338E1,1.3701586E1,0E0,0E0,0E0,0E0,0E0,0E0,0E0,0E0,0E0,0E0,0E0,0E0,0E0,0E0,0E0,0E0,0E0,0E0,0E0,0E0,0E0,0E0,0E0,0E0,0E0,0E0,0E0,0E0,0E0,0E0,0E0,0E0,0E0,0E0,0E0,0E0,0E0,0E0,0E0,0E0,0E0,0E0,0E0,0E0,0E0,0E0,0E0,0E0,0E0,0E0,0E0,0E0],"parents":[2147483647,0,0,1,1,2,2,3,3,4,4,5,5,6,6,7,7,8,8,9,9,10,10,12,12,13,13,14,14,15,15,16,16,17,17,18,18,19,19,20,20,21,21,22,22,23,23,24,24,25,25,26,26,27,27,28,28,29,29,30,30,31,31,33,33,34,34,35,35,36,36,37,37,38,38,39,39,40,40,41,41,42,42,43,43,44,44,46,46,47,47,48,48,49,49,50,50,51,51,52,52,53,53,54,54,55,55,56,56],"right_children":[2,4,6,8,10,12,14,16,18,20,22,-1,24,26,28,30,32,34,36,38,40,42,44,46,48,50,52,54,56,58,60,62,-1,64,66,68,70,72,74,76,78,80,82,84,86,-1,88,90,92,94,96,98,100,102,104,106,108,-1,-1,-1,-1,-1,-1,-1,-1,-1,-1,-1,-1,-1,-1,-1,-1,-1,-1,-1,-1,-1,-1,-1,-1,-1,-1,-1,-1,-1,-1,-1,-1,-1,-1,-1,-1,-1,-1,-1,-1,-1,-1,-1,-1,-1,-1,-1,-1,-1,-1,-1,-1],"split_conditions":[3.7505296E-1,4.7911334E-1,8.313636E-1,3.5259563E-1,-2.419989E0,-3.879208E0,4.2122287E-1,1.2186351E1,2.0239502E1,9.4949996E-1,8.530344E-1,-1.6063305E0,4.4399852E-1,6.134739E-1,-1.991756E0,-5.9708824E0,8.6718833E-1,1.24609694E-1,6.050185E-1,4.732024E-2,-3.5071456E0,1.1725235E1,8.485E-1,4.222923E-1,-3.4378633E0,2.2257097E1,-2.7462292E0,8.664993E-1,8.6119413E-1,-3.6929383E0,5.468182E-1,7E-1,8.954535E-1,5.694504E-1,1.684011E1,4.3143025E-1,8.6072147E-1,3.65E-1,5.2949977E-1,-7.246712E0,4.526128E-1,6.9954544E-1,8.122727E-1,6.3674164E-1,8.8454616E-1,-1.2630558E-1,8.131818E-1,8.213636E-1,8.828604E-1,-1.653805E0,4.617272E-1,5.0699997E-1,2.5126457E1,8.575653E-1,8.824407E-1,4.929829E-1,8.6854994E-1,1.9038323E-2,-3.1268567E-1,2.0434245E-1,7.831178E-2,-4.0481842E-1,-8.703287E-2,2.9102706E-3,-1.2367094E-2,-7.2946765E-2,-1.2581834E-1,1.17314465E-1,-6.7221746E-2,4.052658E-1,-7.7225596E-2,-8.65762E-3,-1.8734017E-1,-1.4654097E-2,-3.672721E-2,-4.68822E-1,-2.637629E-1,4.8547462E-1,-1.1960078E-1,-1.5538533E-2,9.143304E-3,-4.49768E-2,-9.225419E-3,1.0157465E-1,-5.152409E-2,-9.635414E-3,-1.7425095E-1,-4.8493665E-1,-3.78866E-1,-1.2221944E0,-1.1359406E-1,-1.2342937E-1,2.0312374E-2,-7.928935E-2,-2.1199884E-1,4.1125245E-2,-2.772599E-2,-1.5186091E-1,-3.3086157E-1,1.0366437E-1,-1.34876E-1,-7.055008E-2,1.684297E-1,-1.9647089E-1,-7.179669E-2,-5.652413E-2,-2.0144631E-1,1.3555509E-1,-1.4056668E-2],"split_indices":[6,3,0,4,2,2,6,1,1,3,7,0,7,4,2,1,7,6,5,7,2,1,3,7,2,1,2,7,7,2,0,0,0,4,1,7,7,0,5,2,5,0,0,4,7,0,0,0,7,2,5,3,1,7,7,7,7,0,0,0,0,0,0,0,0,0,0,0,0,0,0,0,0,0,0,0,0,0,0,0,0,0,0,0,0,0,0,0,0,0,0,0,0,0,0,0,0,0,0,0,0,0,0,0,0,0,0,0,0],"split_type":[0,0,0,0,0,0,0,0,0,0,0,0,0,0,0,0,0,0,0,0,0,0,0,0,0,0,0,0,0,0,0,0,0,0,0,0,0,0,0,0,0,0,0,0,0,0,0,0,0,0,0,0,0,0,0,0,0,0,0,0,0,0,0,0,0,0,0,0,0,0,0,0,0,0,0,0,0,0,0,0,0,0,0,0,0,0,0,0,0,0,0,0,0,0,0,0,0,0,0,0,0,0,0,0,0,0,0,0,0],"sum_hessian":[2.36143E5,2.26315E5,9.828E3,7.6207E4,1.50108E5,6.5E2,9.178E3,1.128E3,7.5079E4,4.8689E4,1.01419E5,2E0,6.48E2,6.749E3,2.429E3,1.047E3,8.1E1,7.4527E4,5.52E2,4.7528E4,1.161E3,9.3886E4,7.533E3,8E1,5.68E2,6.624E3,1.25E2,1.145E3,1.284E3,6.77E2,3.7E2,1.3E1,6.8E1,7.3877E4,6.5E2,4.46E2,1.06E2,6.72E2,4.6856E4,2.63E2,8.98E2,5.4027E4,3.9859E4,3.847E3,3.686E3,8E0,7.2E1,3.1E1,5.37E2,2.99E2,6.325E3,6.8E1,5.7E1,4.88E2,6.57E2,9.96E2,2.88E2,6.64E2,1.3E1,2.77E2,9.3E1,5E0,8E0,2.2398E4,5.1479E4,2.44E2,4.06E2,2.42E2,2.04E2,8.7E1,1.9E1,1.72E2,5E2,2.6965E4,1.9891E4,2.5E1,2.38E2,5E0,8.93E2,3.5501E4,1.8526E4,1.9495E4,2.0364E4,3.126E3,7.21E2,3.116E3,5.7E2,3.2E1,4E1,8E0,2.3E1,3.8E2,1.57E2,2.04E2,9.5E1,6.18E2,5.707E3,1.1E1,5.7E1,1E1,4.7E1,4.52E2,3.6E1,3.54E2,3.03E2,8.93E2,1.03E2,7.3E1,2.15E2],"tree_param":{"num_deleted":"0","num_feature":"8","num_nodes":"109","size_leaf_vector":"0"}},{"base_weights":[-3.5887722E-2,-1.7937647E-2,-5.4958895E-2,-2.5702108E-2,9.030925E-2,-6.987673E-2,-1.4297956E-2,-2.4157245E-2,-4.0365934E-1,1.9935381E-1,5.1149506E-2,-5.963828E-2,-6.8105423E-1,4.0475253E-2,-8.343977E-2,-1.359038E-2,-5.968132E-2,-6.056439E-1,6.14129E-1,1.1683496E0,7.8758016E-2,-1.2380837E-2,1.2114642E-1,-6.455954E-2,2.353685E-1,-1.3484722E0,-1.053654E-1,7.230751E-2,-1.6292027E-1,6.7335956E-2,-1.330706E-1,-1.9042842E-2,5.2250296E-2,-2.3528789E-1,-3.7751727E-2,-1.9312346E-1,-1.0967585E0,2.9079096E0,1.2280346E-2,2.841187E0,5.498928E-1,-4.6219103E-2,1.2690133E-1,-7.2502665E-2,2.1561686E-2,1.0988263E-1,5.0992227E-1,-1.3352002E-1,-4.6439946E-2,-3.4842402E-1,3.3465204E-1,-2.2699714E0,-1.1397458E0,7.489146E-2,-2.6135346E-1,-1.3026023E-1,1.1818963E-1,-2.3201185E-1,-4.37427E-2,-1.8028046E-1,1.860534E-1,4.3638434E-2,-2.3219949E-1,-8.30824E-2,-1.5062992E-2,-8.7566696E-2,9.029702E-2,-1.3131498E-1,-5.117205E-1,-1.13863565E-1,5.573017E-3,-2.3196852E-1,5.342384E-1,-1.2946811E0,-4.8851736E-2,6.909689E-1,3.0096412E0,-7.357871E-2,3.1190985E-1,7.494831E-2,3.0743437E0,8.346258E-1,1.309744E-1,7.35276E-2,-1.6851225E-1,2.8736076E-1,9.643875E-2,-7.816813E-2,8.508044E-1,9.351542E-2,-7.7082077E-3,9.32249E-2,2.4683163E-1,5.894572E-1,3.411626E-1,-6.127867E-1,-1.136188E-1,8.535375E-1,-4.935154E-2,-3.0453762E-1,-6.253484E-1,6.165832E-1,1.481054E-1,-1.4971833E0,-2.3129542E0,-9.710686E-1,-1.8349017E0,-5.142E-1,1.16607286E-1,-1.2406763E-1,-4.6267447E-1,-9.546479E-3,-4.4979334E-1,1.9904128E-1,-2.845437E-2,-1.6048424E-1,-8.8402617E-1,8.8241774E-1,-7.392721E-2,-7.9248235E-2,-1.4390867E0,1.3381386E-1,5.1067466E-1,-1.7243621E-1,1.09835625E-1,-4.8619943E0,-2.293345E-1],"categories":[],"categories_nodes":[],"categories_segments":[],"categories_sizes":[],"default_left":[true,true,true,true,true,true,true,true,true,true,true,true,true,true,true,true,true,true,true,true,true,true,true,true,true,true,true,true,true,true,true,true,true,true,true,true,true,true,true,true,true,true,true,true,true,true,true,true,true,true,true,true,true,true,true,true,true,true,true,true,true,true,true,false,false,false,false,false,false,false,false,false,false,false,false,false,false,false,false,false,false,false,false,false,false,false,false,false,false,false,false,false,false,false,false,false,false,false,false,false,false,false,false,false,false,false,false,false,false,false,false,false,false,false,false,false,false,false,false,false,false,false,false,false,false,false,false],"id":10,"left_children":[1,3,5,7,9,11,13,15,17,19,21,23,25,27,29,31,33,35,37,39,41,43,45,47,49,51,53,55,57,59,61,63,65,67,69,71,73,75,77,79,81,83,85,87,89,91,93,95,97,99,101,103,105,107,109,111,113,115,117,119,121,123,125,-1,-1,-1,-1,-1,-1,-1,-1,-1,-1,-1,-1,-1,-1,-1,-1,-1,-1,-1,-1,-1,-1,-1,-1,-1,-1,-1,-1,-1,-1,-1,-1,-1,-1,-1,-1,-1,-1,-1,-1,-1,-1,-1,-1,-1,-1,-1,-1,-1,-1,-1,-1,-1,-1,-1,-1,-1,-1,-1,-1,-1,-1,-1,-1],"loss_changes":[8.083795E1,1.0224571E2,6.944925E1,6.626661E1,3.4757423E1,5.241136E2,1.1639291E2,4.2434555E1,9.534878E1,2.5126703E2,2.664749E1,1.1962222E2,5.300885E2,1.1104364E2,1.0166723E2,3.1280481E1,9.979699E1,7.798979E1,1.0626347E2,2.4466714E2,1.1522042E1,6.4134E0,1.2428749E1,1.0124869E2,7.847985E1,1.2031885E2,2.0883072E1,1.3783963E2,1.9101353E1,9.895239E1,1.790511E2,2.0507446E1,3.5457573E1,8.2622086E1,7.597893E1,6.0856085E0,3.6439926E1,1.5289612E0,1.6179562E0,4.1047424E1,2.0764668E1,7.81775E0,6.7275143E0,5.9984207E0,4.2318316E0,6.30064E0,8.726845E-1,1.6075049E2,1.6820172E2,2.2037392E0,6.0706543E1,4.2340088E-1,5.954358E1,8.538139E0,1.0942728E1,1.0564452E2,1.4336153E2,6.836791E1,2.3911444E1,1.3863934E2,3.851126E1,5.257013E1,8.573984E1,0E0,0E0,0E0,0E0,0E0,0E0,0E0,0E0,0E0,0E0,0E0,0E0,0E0,0E0,0E0,0E0,0E0,0E0,0E0,0E0,0E0,0E0,0E0,0E0,0E0,0E0,0E0,0E0,0E0,0E0,0E0,0E0,0E0,0E0,0E0,0E0,0E0,0E0,0E0,0E0,0E0,0E0,0E0,0E0,0E0,0E0,0E0,0E0,0E0,0E0,0E0,0E0,0E0,0E0,0E0,0E0,0E0,0E0,0E0,0E0,0E0,0E0,0E0,0E0],"parents":[2147483647,0,0,1,1,2,2,3,3,4,4,5,5,6,6,7,7,8,8,9,9,10,10,11,11,12,12,13,13,14,14,15,15,16,16,17,17,18,18,19,19,20,20,21,21,22,22,23,23,24,24,25,25,26,26,27,27,28,28,29,29,30,30,31,31,32,32,33,33,34,34,35,35,36,36,37,37,38,38,39,39,40,40,41,41,42,42,43,43,44,44,45,45,46,46,47,47,48,48,49,49,50,50,51,51,52,52,53,53,54,54,55,55,56,56,57,57,58,58,59,59,60,60,61,61,62,62],"right_children":[2,4,6,8,10,12,14,16,18,20,22,24,26,28,30,32,34,36,38,40,42,44,46,48,50,52,54,56,58,60,62,64,66,68,70,72,74,76,78,80,82,84,86,88,90,92,94,96,98,100,102,104,106,108,110,112,114,116,118,120,122,124,126,-1,-1,-1,-1,-1,-1,-1,-1,-1,-1,-1,-1,-1,-1,-1,-1,-1,-1,-1,-1,-1,-1,-1,-1,-1,-1,-1,-1,-1,-1,-1,-1,-1,-1,-1,-1,-1,-1,-1,-1,-1,-1,-1,-1,-1,-1,-1,-1,-1,-1,-1,-1,-1,-1,-1,-1,-1,-1,-1,-1,-1,-1,-1,-1],"split_conditions":[5.8111863E0,6.422727E-1,8.3686614E-1,1.2833658E-1,-1.1964171E0,7.1705365E-1,5.2357197E-1,5.5639803E-2,6.2136364E-1,5.95246E-2,5.1615787E-1,5.303757E-1,7.78914E-1,3.901258E-1,8.648306E-1,7.2409093E-1,4.731818E-1,6.086364E-1,5.829787E-1,1.23E-1,6.265E-1,7.086171E-2,3.5183656E-1,6.8136364E-1,6.565E-1,6.168182E-1,1.2761504E1,-4.3807707E0,8.81309E-1,-3.0170467E0,1.9586328E-1,-7.152983E0,-3.1091557E0,5.782418E-1,3.1059641E-2,5.913636E-1,5.985607E-1,6.2227273E-1,3.619358E-1,8.4361434E-1,-1.5807991E0,2.9977865E0,4.5058233E-1,1.9726843E-1,3.4200816E0,5.9589183E-1,3.5932696E-1,4.4188225E-1,2.919191E-1,-2.6237087E0,7.63E-1,5.8449996E-1,9.1499996E-1,8.1557643E-1,5.738604E-1,6.9498485E-1,8.2449996E-1,8.78353E-1,8.8319296E-1,8.335E-1,5.812974E-1,-3.6849058E0,6.35E-1,-2.4924722E-2,-4.5188977E-3,-2.627001E-2,2.7089108E-2,-3.9394494E-2,-1.5351614E-1,-3.415907E-2,1.6719052E-3,-6.959056E-2,1.6027153E-1,-3.8840434E-1,-1.4655521E-2,2.0729066E-1,9.028924E-1,-2.2073613E-2,9.357296E-2,2.2484494E-2,9.2230314E-1,2.5038776E-1,3.929232E-2,2.205828E-2,-5.055368E-2,8.620823E-2,2.8931627E-2,-2.345044E-2,2.5524133E-1,2.8054627E-2,-2.3124623E-3,2.796747E-2,7.404949E-2,1.7683718E-1,1.0234878E-1,-1.8383601E-1,-3.4085643E-2,2.5606126E-1,-1.4805462E-2,-9.136129E-2,-1.8760453E-1,1.8497497E-1,4.443162E-2,-4.49155E-1,-6.938863E-1,-2.913206E-1,-5.5047053E-1,-1.5426E-1,3.4982186E-2,-3.7220288E-2,-1.3880235E-1,-2.8639438E-3,-1.34938E-1,5.9712384E-2,-8.536312E-3,-4.8145276E-2,-2.6520786E-1,2.6472533E-1,-2.2178164E-2,-2.3774471E-2,-4.31726E-1,4.014416E-2,1.532024E-1,-5.1730864E-2,3.295069E-2,-1.4585984E0,-6.880035E-2],"split_indices":[1,0,7,6,2,7,4,6,0,7,5,7,7,6,7,3,0,0,4,3,3,6,2,0,3,0,1,2,7,2,6,2,2,5,7,0,4,0,7,1,2,1,4,7,1,5,7,4,4,2,3,3,3,7,4,3,3,7,7,3,5,2,0,0,0,0,0,0,0,0,0,0,0,0,0,0,0,0,0,0,0,0,0,0,0,0,0,0,0,0,0,0,0,0,0,0,0,0,0,0,0,0,0,0,0,0,0,0,0,0,0,0,0,0,0,0,0,0,0,0,0,0,0,0,0,0,0],"split_type":[0,0,0,0,0,0,0,0,0,0,0,0,0,0,0,0,0,0,0,0,0,0,0,0,0,0,0,0,0,0,0,0,0,0,0,0,0,0,0,0,0,0,0,0,0,0,0,0,0,0,0,0,0,0,0,0,0,0,0,0,0,0,0,0,0,0,0,0,0,0,0,0,0,0,0,0,0,0,0,0,0,0,0,0,0,0,0,0,0,0,0,0,0,0,0,0,0,0,0,0,0,0,0,0,0,0,0,0,0,0,0,0,0,0,0,0,0,0,0,0,0,0,0,0,0,0,0],"sum_hessian":[2.36143E5,1.21648E5,1.14495E5,1.13507E5,8.141E3,8.3763E4,3.0732E4,1.13046E5,4.61E2,2.15E3,5.991E3,8.2384E4,1.379E3,1.7148E4,1.3584E4,8.713E4,2.5916E4,3.85E2,7.6E1,2.37E2,1.913E3,3.141E3,2.85E3,8.1033E4,1.351E3,6.38E2,7.41E2,1.4828E4,2.32E3,3.364E3,1.022E4,8.0467E4,6.663E3,2.876E3,2.304E4,2.1E2,1.75E2,1.5E1,6.1E1,6.3E1,1.74E2,5.32E2,1.381E3,1.133E3,2.008E3,2.771E3,7.9E1,1.686E4,6.4173E4,1.96E2,1.155E3,1.16E2,5.22E2,3.44E2,3.97E2,2.738E3,1.209E4,1.468E3,8.52E2,1.09E3,2.274E3,3.673E3,6.547E3,4.707E3,7.576E4,1.425E3,5.238E3,2.091E3,7.85E2,8.357E3,1.4683E4,2E2,1E1,1.47E2,2.8E1,1E0,1.4E1,4.8E1,1.3E1,5E0,5.8E1,1.03E2,7.1E1,2.69E2,2.63E2,2.19E2,1.162E3,1.127E3,6E0,5.8E2,1.428E3,2.472E3,2.99E2,5.2E1,2.7E1,6.71E2,1.6189E4,2.06E2,6.3967E4,1.71E2,2.5E1,4.59E2,6.96E2,8E0,1.08E2,4.22E2,1E2,2.2E1,3.22E2,2.37E2,1.6E2,1.988E3,7.5E2,7.793E3,4.297E3,1.324E3,1.44E2,2.6E1,8.26E2,1.01E3,8E1,1.96E3,3.14E2,8.61E2,2.812E3,3E0,6.544E3],"tree_param":{"num_deleted":"0","num_feature":"8","num_nodes":"127","size_leaf_vector":"0"}},{"base_weights":[-2.5128596E-2,-1.6567606E-2,-5.682027E-2,-1.5880108E-2,-3.8633007E-1,-4.1920766E-2,-1.9716057E-1,-2.1156698E-2,3.3543337E-2,-2.074813E0,-2.8704107E-1,-6.8963625E-2,2.0908497E-2,-7.009941E-1,-1.3303089E-1,-2.5389833E-2,4.6761513E-2,2.314735E-4,1.9015145E-1,-4.7017097E0,-1.6676681E0,2.576789E-1,-4.9817324E-1,6.3449055E-1,-7.51766E-2,-5.818883E-1,3.049791E-2,-2.9594228E-1,-3.2696214E0,-4.078615E-1,-1.8762115E-2,1.3558327E-2,-3.2887664E-2,-5.0637826E-2,3.2397723E-1,1.4913008E-1,-1.0343207E-2,4.7875437E-1,8.003321E-2,4.335156E-2,1.6829151E0,-5.3094894E-1,3.8749668E-1,1.5489772E-1,1.0140713E0,-2.1275496E-2,-1.6042687E-1,-6.6145174E-2,-8.596911E-1,9.263416E-2,-3.679061E-2,-9.298423E-2,-8.16471E-1,-3.9366598E0,5.047987E-1,-5.122985E-1,4.568957E-2,-2.2399104E-1,9.864327E-2,7.1472204E-3,1.4981471E-1,-4.8356336E-2,-1.5385616E-2,-9.333011E-2,1.1362092E-2,4.554427E-1,1.4421897E-1,6.848027E-1,5.7433162E-2,-3.6862478E-2,2.0041028E-2,2.8439626E-1,1.5884589E0,-6.318725E-2,1.14041544E-1,2.5602064E-1,-5.040757E-1,-1.01335E0,2.0201528E0,-5.474604E-1,5.3055805E-1,7.9158384E-1,5.352245E-2,7.990289E-1,-4.1297074E-2,-5.579224E-1,1.2117656E0,-7.996239E-2,1.835936E-1,4.733876E-1,-1.7515203E-1,-2.5171185E-1,3.2247928E-1,-3.1407192E-1,-1.0927007E0,1.27072465E-2,2.4539506E-1,7.123233E-1,-5.132726E-2,-1.8138474E-1,1.5836309E-1,-1.544986E-2,-1.30471E0,-4.105384E0,-2.7658389E0,3.50359E-1,8.5133153E-1,-3.5027254E-1,-7.59896E-1,5.4217875E-1,3.4792434E-2,-8.820315E-2,-8.058881E-1,1.2892991E-1,-9.323452E-1],"categories":[],"categories_nodes":[],"categories_segments":[],"categories_sizes":[],"default_left":[true,true,true,true,true,true,true,true,true,true,true,true,true,true,true,true,true,true,true,false,false,true,true,true,true,true,true,true,true,true,true,true,true,true,true,true,true,true,true,true,true,true,true,true,true,true,true,true,true,true,true,true,true,true,true,true,true,true,true,false,false,false,false,false,false,false,false,false,false,false,false,false,false,false,false,false,false,false,false,false,false,false,false,false,false,false,false,false,false,false,false,false,false,false,false,false,false,false,false,false,false,false,false,false,false,false,false,false,false,false,false,false,false,false,false],"id":11,"left_children":[1,3,5,7,9,11,13,15,17,19,21,23,25,27,29,31,33,35,37,-1,-1,39,41,43,45,47,49,51,53,55,57,59,61,63,65,67,69,71,73,75,77,79,81,83,85,87,89,91,93,95,97,99,101,103,105,107,109,111,113,-1,-1,-1,-1,-1,-1,-1,-1,-1,-1,-1,-1,-1,-1,-1,-1,-1,-1,-1,-1,-1,-1,-1,-1,-1,-1,-1,-1,-1,-1,-1,-1,-1,-1,-1,-1,-1,-1,-1,-1,-1,-1,-1,-1,-1,-1,-1,-1,-1,-1,-1,-1,-1,-1,-1,-1],"loss_changes":[6.406778E1,4.725731E1,1.0500806E2,4.839708E1,5.724293E1,7.71466E1,1.556442E2,4.8209503E1,9.339305E1,1.2480125E1,3.773595E1,1.387775E2,7.899627E1,5.650248E2,1.3430965E2,4.609394E1,2.656486E2,2.3246698E1,9.975229E1,0E0,0E0,2.8030014E1,7.05645E0,5.0451218E1,1.445809E2,3.0603958E1,5.623861E1,4.9683105E1,1.8829578E2,5.9517E1,7.283713E1,2.2257965E1,3.5833527E1,1.927327E1,6.038501E1,4.804869E1,1.1108248E1,1.8654286E2,1.108315E1,9.559142E0,1.2958511E1,4.286621E0,1.1722248E0,1.570352E1,4.8846085E1,2.317966E2,1.138338E2,5.561969E0,1.7328506E1,8.5379364E1,7.036165E1,7.5832634E0,5.16037E1,1.0905151E0,3.4394956E-1,4.0693512E1,1.2579695E0,8.6844955E1,6.0166218E1,0E0,0E0,0E0,0E0,0E0,0E0,0E0,0E0,0E0,0E0,0E0,0E0,0E0,0E0,0E0,0E0,0E0,0E0,0E0,0E0,0E0,0E0,0E0,0E0,0E0,0E0,0E0,0E0,0E0,0E0,0E0,0E0,0E0,0E0,0E0,0E0,0E0,0E0,0E0,0E0,0E0,0E0,0E0,0E0,0E0,0E0,0E0,0E0,0E0,0E0,0E0,0E0,0E0,0E0,0E0,0E0],"parents":[2147483647,0,0,1,1,2,2,3,3,4,4,5,5,6,6,7,7,8,8,9,9,10,10,11,11,12,12,13,13,14,14,15,15,16,16,17,17,18,18,21,21,22,22,23,23,24,24,25,25,26,26,27,27,28,28,29,29,30,30,31,31,32,32,33,33,34,34,35,35,36,36,37,37,38,38,39,39,40,40,41,41,42,42,43,43,44,44,45,45,46,46,47,47,48,48,49,49,50,50,51,51,52,52,53,53,54,54,55,55,56,56,57,57,58,58],"right_children":[2,4,6,8,10,12,14,16,18,20,22,24,26,28,30,32,34,36,38,-1,-1,40,42,44,46,48,50,52,54,56,58,60,62,64,66,68,70,72,74,76,78,80,82,84,86,88,90,92,94,96,98,100,102,104,106,108,110,112,114,-1,-1,-1,-1,-1,-1,-1,-1,-1,-1,-1,-1,-1,-1,-1,-1,-1,-1,-1,-1,-1,-1,-1,-1,-1,-1,-1,-1,-1,-1,-1,-1,-1,-1,-1,-1,-1,-1,-1,-1,-1,-1,-1,-1,-1,-1,-1,-1,-1,-1,-1,-1,-1,-1,-1,-1],"split_conditions":[1.5700979E1,2.6008397E-1,8.845087E-1,7.731818E-1,1.4645058E1,8.454498E-1,7.195455E-1,8.860704E-1,5.288968E-1,6.554545E-1,4.7935468E-1,3.2510602E-1,1.9513151E-1,8.04E-1,6.4049995E-1,3.1234478E-3,-3.540433E0,-1.3982692E0,7.5972354E-1,-1.4105129E0,-5.0030047E-1,4.7801238E-1,8.661796E-1,2.6208723E-1,3.8953218E-1,-2.7283814E0,7.720909E-1,6.707325E-1,5.4719615E-1,8.9987016E-1,8.902447E-1,2.9766545E0,3.3897117E-1,-5.132996E0,5.7686263E-1,1.10376306E-1,9.6274996E-1,3.1190348E-1,8.6111665E-1,2.7305785E-1,6.9272727E-1,-1.8053228E0,1.5443987E1,6.165E-1,4.5529658E-1,3.5845459E-1,2.775E-1,7.754545E-1,7.045E-1,8.7368864E-1,2.3708522E-1,8.933462E-1,7.07E-1,9.5E-1,1.6309471E1,8.9740956E-1,7.522727E-1,-1.7050745E0,6.21734E-1,2.1441663E-3,4.4944413E-2,-1.4506902E-2,-4.615685E-3,-2.7999034E-2,3.4086276E-3,1.3663282E-1,4.3265693E-2,2.0544082E-1,1.722995E-2,-1.1058744E-2,6.012309E-3,8.531888E-2,4.7653767E-1,-1.8956175E-2,3.4212466E-2,7.6806195E-2,-1.5122272E-1,-3.0400503E-1,6.0604584E-1,-1.6423813E-1,1.5916742E-1,2.3747516E-1,1.6056735E-2,2.3970868E-1,-1.23891225E-2,-1.6737673E-1,3.635297E-1,-2.3988718E-2,5.507808E-2,1.4201629E-1,-5.254561E-2,-7.551356E-2,9.6743785E-2,-9.4221584E-2,-3.2781023E-1,3.812174E-3,7.3618524E-2,2.13697E-1,-1.5398178E-2,-5.4415423E-2,4.750893E-2,-4.634958E-3,-3.9141303E-1,-1.2316152E0,-8.297517E-1,1.051077E-1,2.5539947E-1,-1.0508177E-1,-2.279688E-1,1.6265363E-1,1.0437731E-2,-2.6460946E-2,-2.4176644E-1,3.8678974E-2,-2.797036E-1],"split_indices":[1,6,7,0,1,7,0,7,4,0,4,4,4,3,3,6,2,2,3,0,0,4,7,6,7,2,3,4,5,7,7,1,7,2,4,7,3,7,3,6,0,2,1,3,7,7,3,0,3,7,6,7,3,3,1,7,0,2,5,0,0,0,0,0,0,0,0,0,0,0,0,0,0,0,0,0,0,0,0,0,0,0,0,0,0,0,0,0,0,0,0,0,0,0,0,0,0,0,0,0,0,0,0,0,0,0,0,0,0,0,0,0,0,0,0],"split_type":[0,0,0,0,0,0,0,0,0,0,0,0,0,0,0,0,0,0,0,0,0,0,0,0,0,0,0,0,0,0,0,0,0,0,0,0,0,0,0,0,0,0,0,0,0,0,0,0,0,0,0,0,0,0,0,0,0,0,0,0,0,0,0,0,0,0,0,0,0,0,0,0,0,0,0,0,0,0,0,0,0,0,0,0,0,0,0,0,0,0,0,0,0,0,0,0,0,0,0,0,0,0,0,0,0,0,0,0,0,0,0,0,0,0,0],"sum_hessian":[2.36143E5,1.85921E5,5.0222E4,1.85577E5,3.44E2,4.5403E4,4.819E3,1.67676E5,1.7901E4,1.8E1,3.26E2,3.1741E4,1.3662E4,5.43E2,4.276E3,1.57839E5,9.837E3,1.4762E4,3.139E3,1E0,1.7E1,9.1E1,2.35E2,2.77E2,3.1464E4,2.13E2,1.3449E4,4.7E2,7.3E1,1.255E3,3.021E3,2.548E4,1.32359E5,7.28E3,2.557E3,9.78E2,1.3784E4,8.66E2,2.273E3,8E1,1.1E1,2.27E2,8E0,1.23E2,1.54E2,1.9277E4,1.2187E4,7.5E1,1.38E2,6.992E3,6.457E3,3.39E2,1.31E2,6.2E1,1.1E1,1.02E3,2.35E2,1.099E3,1.922E3,2.4336E4,1.144E3,7.026E4,6.2099E4,4.311E3,2.969E3,1.476E3,1.081E3,1.42E2,8.36E2,7.36E3,6.424E3,7.38E2,1.28E2,4.36E2,1.837E3,5.8E1,2.2E1,1E0,1E1,2.24E2,3E0,3E0,5E0,2.8E1,9.5E1,1.7E1,1.37E2,1.4985E4,4.292E3,2.76E2,1.1911E4,5.1E1,2.4E1,4.2E1,9.6E1,4.591E3,2.401E3,1.22E2,6.335E3,2.51E2,8.8E1,5E1,8.1E1,5.2E1,1E1,9E0,2E0,6.18E2,4.02E2,4E0,2.31E2,8.92E2,2.07E2,1.868E3,5.4E1],"tree_param":{"num_deleted":"0","num_feature":"8","num_nodes":"115","size_leaf_vector":"0"}},{"base_weights":[-1.7601926E-2,-7.911922E-3,-3.2132898E-2,-6.8959226E-3,-5.8032936E-1,-7.838972E-2,-1.9188724E-2,5.0012064E-3,-3.6665976E-2,-1.9180669E-1,-8.406559E-1,2.5219837E-1,-9.522124E-2,-7.4784845E-1,-1.7912889E-2,-9.919181E-3,1.18497394E-1,-8.764714E-2,-7.541804E-3,-9.251728E-4,-4.241641E-1,-9.051252E-1,5.6285348E-2,2.4358299E0,-9.752287E-4,1.4402819E-1,-1.1119979E-1,-1.2921048E0,-2.8504595E-1,-2.522956E-1,-1.4550907E-2,-1.9309733E-2,5.4951593E-2,3.0085513E-1,-4.668271E-2,-6.417201E-2,-1.2442209E0,2.0985432E-1,-3.0811181E-2,1.3788621E-1,-7.395945E-2,8.743715E-2,-4.3747604E-1,-7.465801E-1,-1.3263025E0,-7.0910744E-2,4.1911185E-1,-2.512036E-1,2.724357E0,2.4951907E-1,-3.0378166E-1,9.185414E-1,9.369758E-2,-1.5931259E-1,-4.4248264E-2,-7.6980925E-1,-1.3476099E0,-8.7016195E-1,-9.9009246E-2,-5.334442E-1,1.7206126E-1,-1.817702E-2,1.5629429E-1,-6.6519454E-3,-1.0613338E-1,2.7919505E-2,1.5338004E-1,6.6750035E-2,5.3409874E-1,-9.333677E-2,6.001201E-2,-5.2942004E-2,-4.0955746E-1,-1.13539636E-1,-1.7720592E0,7.9347156E-2,1.0301712E0,-5.5762064E-2,1.8602234E-1,2.6095536E-1,3.4093827E-2,-9.88662E-2,-1.1755963E-2,-4.870031E-1,-2.6069316E-1,-3.7787646E-2,-7.6725924E-1,-1.4651248E0,1.8526237E-1,-1.5765174E-1,3.0012393E-2,-3.0626383E-1,1.4969945E-1,2.7679696E0,4.7878492E-1,1.3724601E-1,1.2176597E0,-4.2767993E-1,3.4631662E-2,1.089304E0,1.628709E-1,8.291115E-2,1.6325347E0,-1.449465E-1,-4.7728747E-1,1.1457566E-1,-1.8520679E-1,-1.1043707E0,-1.502442E0,-1.1742972E0,-3.627579E-2,-1.9330096E-1,-9.2301506E-1,3.58299E-1,-2.4505912E-1,-1.471661E-2,-2.0869519E-1,2.622737E-1,3.5232365E-2],"categories":[],"categories_nodes":[],"categories_segments":[],"categories_sizes":[],"default_left":[true,true,true,true,true,true,true,true,true,true,true,true,true,true,true,true,true,true,true,true,true,true,true,true,true,true,true,true,true,true,true,true,true,true,true,true,true,true,true,true,true,false,true,true,true,true,false,true,true,true,true,true,true,true,true,false,true,false,true,true,true,true,true,false,false,false,false,false,false,false,false,false,false,false,false,false,false,false,false,false,false,false,false,false,false,false,false,false,false,false,false,false,false,false,false,false,false,false,false,false,false,false,false,false,false,false,false,false,false,false,false,false,false,false,false,false,false,false,false],"id":12,"left_children":[1,3,5,7,9,11,13,15,17,19,21,23,25,27,29,31,33,35,37,39,41,43,45,47,49,51,53,55,57,59,61,63,65,67,69,71,73,75,77,79,81,-1,83,85,87,89,-1,91,93,95,97,99,101,103,105,-1,107,-1,109,111,113,115,117,-1,-1,-1,-1,-1,-1,-1,-1,-1,-1,-1,-1,-1,-1,-1,-1,-1,-1,-1,-1,-1,-1,-1,-1,-1,-1,-1,-1,-1,-1,-1,-1,-1,-1,-1,-1,-1,-1,-1,-1,-1,-1,-1,-1,-1,-1,-1,-1,-1,-1,-1,-1,-1,-1,-1,-1],"loss_changes":[3.3250046E1,8.2389015E1,5.6564804E1,5.0088764E1,2.5225594E1,1.1496016E2,6.861148E1,1.7110811E2,5.995493E1,4.5235863E0,8.724724E0,5.5339307E2,7.515816E1,3.2124626E1,5.806337E1,5.440259E1,3.5364484E2,3.9851996E2,1.3001433E2,5.880633E-1,3.5153008E-1,8.358391E0,5.373708E-1,8.131372E1,6.8190254E1,4.7900436E1,5.9347244E1,6.730118E-1,7.642413E0,1.24410034E2,4.5009193E1,8.5734116E1,3.0043304E1,3.0465198E2,3.0673462E1,5.579252E1,1.7406934E2,2.6595544E2,1.2561329E2,2.4657583E-1,5.7710648E-2,0E0,2.6704025E-1,1.4953537E0,8.035469E0,8.351906E-2,0E0,2.886595E-1,7.880615E0,5.331137E1,1.7079842E1,9.500603E0,1.906918E1,4.8904938E1,1.7253995E2,0E0,2.991333E-1,0E0,3.6675107E0,8.290529E1,3.2404163E1,4.689746E1,1.936417E1,0E0,0E0,0E0,0E0,0E0,0E0,0E0,0E0,0E0,0E0,0E0,0E0,0E0,0E0,0E0,0E0,0E0,0E0,0E0,0E0,0E0,0E0,0E0,0E0,0E0,0E0,0E0,0E0,0E0,0E0,0E0,0E0,0E0,0E0,0E0,0E0,0E0,0E0,0E0,0E0,0E0,0E0,0E0,0E0,0E0,0E0,0E0,0E0,0E0,0E0,0E0,0E0,0E0,0E0,0E0,0E0],"parents":[2147483647,0,0,1,1,2,2,3,3,4,4,5,5,6,6,7,7,8,8,9,9,10,10,11,11,12,12,13,13,14,14,15,15,16,16,17,17,18,18,19,19,20,20,21,21,22,22,23,23,24,24,25,25,26,26,27,27,28,28,29,29,30,30,31,31,32,32,33,33,34,34,35,35,36,36,37,37,38,38,39,39,40,40,42,42,43,43,44,44,45,45,47,47,48,48,49,49,50,50,51,51,52,52,53,53,54,54,56,56,58,58,59,59,60,60,61,61,62,62],"right_children":[2,4,6,8,10,12,14,16,18,20,22,24,26,28,30,32,34,36,38,40,42,44,46,48,50,52,54,56,58,60,62,64,66,68,70,72,74,76,78,80,82,-1,84,86,88,90,-1,92,94,96,98,100,102,104,106,-1,108,-1,110,112,114,116,118,-1,-1,-1,-1,-1,-1,-1,-1,-1,-1,-1,-1,-1,-1,-1,-1,-1,-1,-1,-1,-1,-1,-1,-1,-1,-1,-1,-1,-1,-1,-1,-1,-1,-1,-1,-1,-1,-1,-1,-1,-1,-1,-1,-1,-1,-1,-1,-1,-1,-1,-1,-1,-1,-1,-1,-1],"split_conditions":[8.900831E0,1.7026156E-1,6.772659E-1,4.3976438E-1,-2.429114E0,3.827333E-1,5.913636E-1,3.9388555E-1,8.024535E-1,-2.4520802E0,8.687429E0,-3.6820507E0,2.035E-1,4.6342957E-1,-4.469354E0,6.877273E-1,5.655385E-1,7.496939E-1,4.630524E-1,6.131818E-1,6.3272727E-1,-2.306038E0,6.3954544E-1,8.6866665E-1,6.75E-1,-4.141388E0,8.403833E-1,5.5863637E-1,4.1528374E-1,1.5002699E1,8.931198E-1,4.531312E0,5.934621E-1,-4.1759424E0,7.065E-1,7.2249824E-1,4.9136364E-1,3.650391E-1,-3.0402865E0,8.6307037E-1,6.7318183E-1,2.6231147E-2,6.668182E-1,6.0954547E-1,5.3412706E-1,6.1648214E-1,1.2573355E-1,8.0136365E-1,7.040909E-1,3.0449533E-1,3.475656E-1,4.0644088E-1,1.4546371E1,6.522344E-1,8.7557244E-1,-2.3094279E-1,4.86772E-1,-2.610486E-1,-5.5340414E0,5.395155E-1,8.793966E-1,6.11721E-1,3.3881775E-1,-1.9955838E-3,-3.1840015E-2,8.375851E-3,4.601401E-2,2.0025011E-2,1.6022962E-1,-2.800103E-2,1.8003603E-2,-1.5882602E-2,-1.2286724E-1,-3.4061894E-2,-5.3161776E-1,2.3804149E-2,3.0905136E-1,-1.672862E-2,5.5806704E-2,7.828661E-2,1.0228149E-2,-2.9659862E-2,-3.526789E-3,-1.4610094E-1,-7.8207955E-2,-1.1336294E-2,-2.3017778E-1,-4.3953747E-1,5.5578712E-2,-4.7295522E-2,9.003718E-3,-9.187915E-2,4.4909835E-2,8.3039093E-1,1.4363548E-1,4.1173805E-2,3.652979E-1,-1.2830399E-1,1.0389499E-2,3.267912E-1,4.8861273E-2,2.4873346E-2,4.8976043E-1,-4.348395E-2,-1.4318624E-1,3.43727E-2,-5.5562038E-2,-3.3131123E-1,-4.5073262E-1,-3.5228917E-1,-1.0882737E-2,-5.799029E-2,-2.7690452E-1,1.074897E-1,-7.351774E-2,-4.414983E-3,-6.260856E-2,7.868211E-2,1.056971E-2],"split_indices":[1,6,3,7,2,4,0,7,7,2,1,2,3,4,2,0,4,7,5,0,0,2,0,7,0,2,7,0,7,1,7,1,4,2,3,7,0,1,2,7,0,0,0,0,5,4,0,0,0,4,6,7,2,7,7,0,7,0,2,5,7,5,6,0,0,0,0,0,0,0,0,0,0,0,0,0,0,0,0,0,0,0,0,0,0,0,0,0,0,0,0,0,0,0,0,0,0,0,0,0,0,0,0,0,0,0,0,0,0,0,0,0,0,0,0,0,0,0,0],"split_type":[0,0,0,0,0,0,0,0,0,0,0,0,0,0,0,0,0,0,0,0,0,0,0,0,0,0,0,0,0,0,0,0,0,0,0,0,0,0,0,0,0,0,0,0,0,0,0,0,0,0,0,0,0,0,0,0,0,0,0,0,0,0,0,0,0,0,0,0,0,0,0,0,0,0,0,0,0,0,0,0,0,0,0,0,0,0,0,0,0,0,0,0,0,0,0,0,0,0,0,0,0,0,0,0,0,0,0,0,0,0,0,0,0,0,0,0,0,0,0],"sum_hessian":[2.36143E5,1.41671E5,9.4472E4,1.41421E5,2.5E2,2.0655E4,7.3817E4,1.01042E5,4.0379E4,1.01E2,1.49E2,1E3,1.9655E4,1.28E2,7.3689E4,8.9303E4,1.1739E4,1.468E4,2.5699E4,5.6E1,4.5E1,1.39E2,1E1,1.03E2,8.97E2,1.23E3,1.8425E4,5.8E1,7E1,1.041E3,7.2648E4,7.8011E4,1.1292E4,5.579E3,6.16E3,1.4389E4,2.91E2,2.484E3,2.3215E4,1.9E1,3.7E1,1E0,4.4E1,1.03E2,3.6E1,8E0,2E0,1E1,9.3E1,4.91E2,4.06E2,7.4E1,1.156E3,1.072E4,7.705E3,7E0,5.1E1,1.6E1,5.4E1,6.26E2,4.15E2,7.1139E4,1.509E3,6.8086E4,9.925E3,8.86E3,2.432E3,2.785E3,2.794E3,4.286E3,1.874E3,1.3937E4,4.52E2,9.3E1,1.98E2,2.144E3,3.4E2,2.082E4,2.395E3,8E0,1.1E1,2.6E1,1.1E1,3.3E1,1.1E1,3E0,1E2,3.3E1,3E0,4E0,4E0,9E0,1E0,9.1E1,2E0,4.41E2,5E1,2.97E2,1.09E2,6E1,1.4E1,1.149E3,7E0,1.0258E4,4.62E2,3.623E3,4.082E3,2.3E1,2.8E1,2E0,5.2E1,3.35E2,2.91E2,2.87E2,1.28E2,6.9871E4,1.268E3,8.04E2,7.05E2],"tree_param":{"num_deleted":"0","num_feature":"8","num_nodes":"119","size_leaf_vector":"0"}},{"base_weights":[-1.2324898E-2,-1.111882E-2,-1.17704466E-1,-1.1628063E-2,2.1572618E-1,-3.8580012E0,-1.1485973E-1,-1.5323251E-2,1.5171748E-2,4.3072417E-1,-8.943562E-2,5.584664E-3,-1.5297253E-1,-8.1407875E-3,-4.9074322E-2,2.0186275E-2,-3.6037898E-1,4.096813E-1,2.42651E0,6.643682E-3,-2.6421157E-1,-1.9803232E-2,2.945087E-1,-9.848711E-2,-2.7297753E-1,-3.8180366E-2,-3.7202288E-3,-1.2562954E-1,-2.6746247E-2,7.0722026E-1,1.8182103E-2,-4.475879E-1,2.101982E-1,4.3292797E-1,-1.0717045E0,2.797633E-1,-2.328068E-2,-1.8023153E-1,-3.0349094E-1,3.0130656E-3,-3.9434755E-1,1.0759729E0,2.4173068E-1,-1.2803674E-1,4.028462E-1,-4.167673E-1,-7.1727E-2,-3.2380708E-2,-5.954006E-1,-1.1812397E-2,5.45926E-2,-3.4981495E-1,-9.066453E-2,7.0788756E-2,-4.3214787E-2,5.0274557E-1,2.108716E0,2.7696893E-2,-1.0406783E-1,5.437246E-2,-5.010644E-1,2.7479586E-1,-1.6328907E-1,5.0031555E-1,1.0062352E-1,3.5909933E-1,-8.351579E-3,-5.5416427E-3,-4.2074792E-2,-3.199107E-1,-3.0581117E-2,1.934904E-2,-4.8904866E-1,-2.6415497E-1,-6.803943E-1,-1.0975244E-1,2.7468035E-1,1.630161E-1,-1.6188057E-1,3.130217E-1,5.520677E-1,-3.4663534E-1,-6.045348E-1,-4.290541E-3,-4.5094982E-1],"categories":[],"categories_nodes":[],"categories_segments":[],"categories_sizes":[],"default_left":[true,true,true,true,true,false,true,true,true,true,true,true,true,true,true,true,true,true,false,true,true,true,true,true,true,true,true,true,true,true,true,true,true,true,false,true,true,false,true,true,true,false,true,true,true,true,true,false,false,false,false,false,false,false,false,false,false,false,false,false,false,false,false,false,false,false,false,false,false,false,false,false,false,false,false,false,false,false,false,false,false,false,false,false,false],"id":13,"left_children":[1,3,5,7,9,-1,11,13,15,17,19,21,23,25,27,29,31,33,-1,35,37,39,41,43,45,47,49,51,53,55,57,59,61,63,-1,65,67,-1,69,71,73,-1,75,77,79,81,83,-1,-1,-1,-1,-1,-1,-1,-1,-1,-1,-1,-1,-1,-1,-1,-1,-1,-1,-1,-1,-1,-1,-1,-1,-1,-1,-1,-1,-1,-1,-1,-1,-1,-1,-1,-1,-1,-1],"loss_changes":[3.0011631E1,2.6973162E1,2.79874E1,2.3069447E1,3.435212E1,0E0,1.22620125E1,4.9627934E1,5.316652E1,1.1899017E1,3.6456957E0,4.7223487E0,1.3239777E1,2.2415495E1,6.1399216E1,3.8344437E1,1.8604588E1,1.0967342E1,0E0,1.1588962E0,1.9929981E-1,5.060251E0,1.8845992E0,2.0747034E1,1.8287716E1,6.995967E1,6.943738E1,6.3547546E1,4.467634E1,2.215205E1,3.2312603E1,8.697563E0,1.2511916E0,6.69001E0,0E0,3.230095E-1,4.244069E-2,0E0,2.1875381E-1,4.5028768E0,1.0864706E0,0E0,6.092098E-1,1.3028843E1,8.726826E-1,4.6496277E0,6.7750273E0,0E0,0E0,0E0,0E0,0E0,0E0,0E0,0E0,0E0,0E0,0E0,0E0,0E0,0E0,0E0,0E0,0E0,0E0,0E0,0E0,0E0,0E0,0E0,0E0,0E0,0E0,0E0,0E0,0E0,0E0,0E0,0E0,0E0,0E0,0E0,0E0,0E0,0E0],"parents":[2147483647,0,0,1,1,2,2,3,3,4,4,6,6,7,7,8,8,9,9,10,10,11,11,12,12,13,13,14,14,15,15,16,16,17,17,19,19,20,20,21,21,22,22,23,23,24,24,25,25,26,26,27,27,28,28,29,29,30,30,31,31,32,32,33,33,35,35,36,36,38,38,39,39,40,40,42,42,43,43,44,44,45,45,46,46],"right_children":[2,4,6,8,10,-1,12,14,16,18,20,22,24,26,28,30,32,34,-1,36,38,40,42,44,46,48,50,52,54,56,58,60,62,64,-1,66,68,-1,70,72,74,-1,76,78,80,82,84,-1,-1,-1,-1,-1,-1,-1,-1,-1,-1,-1,-1,-1,-1,-1,-1,-1,-1,-1,-1,-1,-1,-1,-1,-1,-1,-1,-1,-1,-1,-1,-1,-1,-1,-1,-1,-1,-1],"split_conditions":[4.1938868E-1,1.6442332E0,7.227273E-1,8.322727E-1,7.358962E-1,-1.1574004E0,4.7068763E-1,1.3883998E1,6.3934517E-1,8.9670205E-1,5.140909E-1,9.077273E-1,8.673453E-1,-5.2536383E0,3.0795038E-1,4.4788983E-1,-7.7666134E-1,1.0879596E-1,7.279531E-1,7.669626E-1,5.2681816E-1,-3.545757E-1,4.2376417E-1,8.610513E-1,8.845326E-1,7.985E-1,8.181883E-1,-1.6539143E0,3.8947916E-1,-9.010555E-1,8.772023E-1,-3.0679889E0,2.4965397E1,3.6065832E-1,-3.2151136E-1,5.031818E-1,3.740909E-1,-5.406946E-2,5.7681817E-1,8.984297E-1,4.5805973E-1,3.2279187E-1,1.7557882E-1,-2.822497E0,4.280543E-1,8.789801E-1,8.9843506E-1,-9.714212E-3,-1.7862017E-1,-3.5437194E-3,1.637778E-2,-1.0494449E-1,-2.719936E-2,2.1236628E-2,-1.2964437E-2,1.5082368E-1,6.3261485E-1,8.309068E-3,-3.122035E-2,1.6311739E-2,-1.5031934E-1,8.243876E-2,-4.898672E-2,1.5009467E-1,3.0187057E-2,1.077298E-1,-2.5054738E-3,-1.6624929E-3,-1.2622438E-2,-9.5973216E-2,-9.174336E-3,5.8047124E-3,-1.467146E-1,-7.924649E-2,-2.041183E-1,-3.2925732E-2,8.240411E-2,4.8904832E-2,-4.8564173E-2,9.3906514E-2,1.6562031E-1,-1.0399061E-1,-1.8136045E-1,-1.2871624E-3,-1.3528495E-1],"split_indices":[6,2,0,0,4,0,5,1,4,7,0,0,7,2,7,3,2,6,0,4,0,2,6,7,7,3,7,2,7,2,7,2,1,7,0,0,0,0,0,7,6,0,7,2,6,7,7,0,0,0,0,0,0,0,0,0,0,0,0,0,0,0,0,0,0,0,0,0,0,0,0,0,0,0,0,0,0,0,0,0,0,0,0,0,0],"split_type":[0,0,0,0,0,0,0,0,0,0,0,0,0,0,0,0,0,0,0,0,0,0,0,0,0,0,0,0,0,0,0,0,0,0,0,0,0,0,0,0,0,0,0,0,0,0,0,0,0,0,0,0,0,0,0,0,0,0,0,0,0,0,0,0,0,0,0,0,0,0,0,0,0,0,0,0,0,0,0,0,0,0,0,0,0],"sum_hessian":[2.36143E5,2.33472E5,2.671E3,2.3295E5,5.22E2,1E0,2.67E3,2.04723E5,2.8227E4,3.06E2,2.16E2,6.42E2,2.028E3,1.68802E5,3.5921E4,2.7856E4,3.71E2,3.04E2,2E0,1.4E2,7.6E1,5.91E2,5.1E1,1.396E3,6.32E2,2.1653E4,1.47149E5,8.11E3,2.7811E4,8E1,2.7776E4,3.22E2,4.9E1,3E2,4E0,1.3E1,1.27E2,2.6E1,5E1,5.58E2,3.3E1,2E0,4.9E1,1.319E3,7.7E1,3.68E2,2.64E2,2.1431E4,2.22E2,1.29218E5,1.7931E4,1.093E3,7.017E3,4.017E3,2.3794E4,7.1E1,9E0,2.5771E4,2.005E3,3.1E1,2.91E2,4.2E1,7E0,2.49E2,5.1E1,1E1,3E0,6.6E1,6.1E1,4.7E1,3E0,5.41E2,1.7E1,2.4E1,9E0,4E0,4.5E1,1.37E2,1.182E3,5E1,2.7E1,2.7E2,9.8E1,2.25E2,3.9E1],"tree_param":{"num_deleted":"0","num_feature":"8","num_nodes":"85","size_leaf_vector":"0"}},{"base_weights":[-8.629509E-3,7.433874E-3,-1.5969582E-2,3.789073E-3,8.292747E-2,-3.721231E-2,-1.527329E-3,3.438638E-2,-2.2026442E-3,1.2388668E-1,2.5014796E-3,-2.804556E-1,-2.7152685E-2,-3.746501E-2,1.7289925E-2,1.5210134E-1,2.5440173E-2,1.164813E-2,-3.3466026E-2,