{"learner":{"attributes":{"scikit_learn":"{\"n_estimators\": 100, \"objective\": \"reg:squarederror\", \"max_depth\": null, \"learning_rate\": null, \"verbosity\": null, \"booster\": null, \"tree_method\": null, \"gamma\": null, \"min_child_weight\": null, \"max_delta_step\": null, \"subsample\": null, \"colsample_bytree\": null, \"colsample_bylevel\": null, \"colsample_bynode\": null, \"reg_alpha\": null, \"reg_lambda\": null, \"scale_pos_weight\": null, \"base_score\": null, \"missing\": NaN, \"num_parallel_tree\": null, \"kwargs\": {}, \"random_state\": null, \"n_jobs\": null, \"monotone_constraints\": null, \"interaction_constraints\": null, \"importance_type\": \"gain\", \"gpu_id\": null, \"validate_parameters\": null, \"n_features_in_\": 6, \"type\": \"XGBRegressor\"}"},"gradient_booster":{"model":{"gbtree_model_param":{"num_trees":"100","size_leaf_vector":"0"},"tree_info":[0,0,0,0,0,0,0,0,0,0,0,0,0,0,0,0,0,0,0,0,0,0,0,0,0,0,0,0,0,0,0,0,0,0,0,0,0,0,0,0,0,0,0,0,0,0,0,0,0,0,0,0,0,0,0,0,0,0,0,0,0,0,0,0,0,0,0,0,0,0,0,0,0,0,0,0,0,0,0,0,0,0,0,0,0,0,0,0,0,0,0,0,0,0,0,0,0,0,0,0],"trees":[{"base_weights":[-2.9608364E0,-1.8753297E0,-4.018465E0,-3.0858114E0,-1.6288661E0,-5.5667486E0,-3.038301E0,-2.9494398E0,-2.2989338E1,-1.4433806E0,-2.288719E0,-6.571621E0,-4.9552803E0,-3.5866327E0,-2.4922175E0,-2.5271103E0,-4.568771E0,-2.6680435E1,-1.6254683E1,-1.3302771E0,-1.5866164E0,-3.0509715E0,-1.7802712E0,-6.907087E0,-5.01503E0,2.629E1,-4.9778843E0,-4.204983E0,-3.1380832E0,-2.1778154E0,-2.9327645E0,-3.3932378E0,-2.2747867E0,-5.3072796E0,-4.02054E0,-1.7461424E1,-1.1476923E1,-1.5168211E0,-1.2094684E0,-1.8784013E0,-1.493512E0,-2.9126563E0,-3.4205077E0,-2.2064278E0,-1.5350665E0,-6.239706E0,-7.74412E0,3.715116E-1,-5.088819E0,3.1079231E1,1.645111E1,-4.3854733E0,-5.7527604E0,-3.5721056E0,-4.9090242E0,-2.6171503E0,-3.515004E0,-2.6074378E0,-1.8510602E0,2.3528334E1,-2.937768E0,-4.946941E0,-2.2061179E0,-1.7247157E-1,-2.3336935E0,-5.7762485E0,-4.8960104E0,-2.7938182E0,-4.142124E0,-1.6784846E0,-1.2511882E0,1.3921429E1,-1.2176865E0,-1.5267451E0,-2.2451847E0,-1.8645986E0,-1.3204381E0,-2.755538E0,-3.1586814E0,-3.6038022E0,-2.6552885E0,-2.4421706E0,-1.3717202E0,-1.6370976E0,-9.665328E-1,-6.598219E0,-5.6864295E0,-7.5616045E0,-1.0071616E1,1.0328333E0,-1.0721428E0,-4.727832E0,-5.797467E0,-4.667305E0,-3.2074645E0,-6.346189E0,-5.074005E0,3.2547763E-1,-3.6135166E0,2.0568E1,-4.925883E0,2.054446E0,-2.6661954E0,-3.951487E0,-3.2542338E0,-2.8154895E0,-2.0806437E0,-2.0537362E0,-1.5396543E0,-3.2040048E0,-2.5122402E0],"categories":[],"categories_nodes":[],"categories_segments":[],"categories_sizes":[],"default_left":[true,true,true,true,true,true,true,true,true,true,true,true,true,true,true,true,true,false,true,true,true,true,true,true,true,true,true,true,true,true,true,true,true,true,true,false,false,true,true,true,true,true,true,true,true,true,true,true,true,false,false,true,true,true,true,true,true,true,true,false,true,false,false,false,false,false,false,false,false,false,false,false,false,false,false,false,false,false,false,false,false,false,false,false,false,false,false,false,false,false,false,false,false,false,false,false,false,false,false,false,false,false,false,false,false,false,false,false,false,false,false],"id":0,"left_children":[1,3,5,7,9,11,13,15,17,19,21,23,25,27,29,31,33,-1,35,37,39,41,43,45,47,49,51,53,55,57,59,61,63,65,67,-1,-1,69,71,73,75,77,79,81,83,85,87,89,91,-1,-1,93,95,97,99,101,103,105,107,-1,109,-1,-1,-1,-1,-1,-1,-1,-1,-1,-1,-1,-1,-1,-1,-1,-1,-1,-1,-1,-1,-1,-1,-1,-1,-1,-1,-1,-1,-1,-1,-1,-1,-1,-1,-1,-1,-1,-1,-1,-1,-1,-1,-1,-1,-1,-1,-1,-1,-1,-1],"loss_changes":[2.7110075E5,3.4762906E4,1.8149538E5,5.3438766E4,1.1847531E4,2.845625E4,2.1922562E4,1.3379047E4,2.8973281E3,1.2223594E3,8.228008E3,9.122875E3,2.0491812E4,1.01226875E4,5.076875E3,3.3867188E3,1.6179844E3,0E0,8.787305E1,9.5009375E2,9.0303125E2,4.244453E2,1.3285156E3,8.00975E3,1.2392109E3,4.7824707E2,1.3199375E4,6.8269062E3,4.1502812E3,3.0021406E3,2.0923594E3,6.448289E3,1.4895234E3,3.0384766E2,3.3564844E2,0E0,0E0,7.1071094E2,3.2054844E3,1.0364219E3,1.6213477E3,2.3060938E2,3.1429297E2,9.1225E2,4.679336E2,1.5554688E3,2.6404688E3,4.216031E1,7.581953E2,0E0,0E0,5.4069062E3,4.9942812E3,1.3074062E3,3.2233594E3,2.0439453E3,1.3857812E3,1.0080547E3,7.649414E2,0E0,1.7229219E3,0E0,0E0,0E0,0E0,0E0,0E0,0E0,0E0,0E0,0E0,0E0,0E0,0E0,0E0,0E0,0E0,0E0,0E0,0E0,0E0,0E0,0E0,0E0,0E0,0E0,0E0,0E0,0E0,0E0,0E0,0E0,0E0,0E0,0E0,0E0,0E0,0E0,0E0,0E0,0E0,0E0,0E0,0E0,0E0,0E0,0E0,0E0,0E0,0E0,0E0],"parents":[2147483647,0,0,1,1,2,2,3,3,4,4,5,5,6,6,7,7,8,8,9,9,10,10,11,11,12,12,13,13,14,14,15,15,16,16,18,18,19,19,20,20,21,21,22,22,23,23,24,24,25,25,26,26,27,27,28,28,29,29,30,30,31,31,32,32,33,33,34,34,37,37,38,38,39,39,40,40,41,41,42,42,43,43,44,44,45,45,46,46,47,47,48,48,51,51,52,52,53,53,54,54,55,55,56,56,57,57,58,58,60,60],"right_children":[2,4,6,8,10,12,14,16,18,20,22,24,26,28,30,32,34,-1,36,38,40,42,44,46,48,50,52,54,56,58,60,62,64,66,68,-1,-1,70,72,74,76,78,80,82,84,86,88,90,92,-1,-1,94,96,98,100,102,104,106,108,-1,110,-1,-1,-1,-1,-1,-1,-1,-1,-1,-1,-1,-1,-1,-1,-1,-1,-1,-1,-1,-1,-1,-1,-1,-1,-1,-1,-1,-1,-1,-1,-1,-1,-1,-1,-1,-1,-1,-1,-1,-1,-1,-1,-1,-1,-1,-1,-1,-1,-1,-1],"split_conditions":[3.0947942E-1,4.2318183E-1,5.2590907E-1,4.811E-1,1.4560208E-1,3.740909E-1,7.553854E-1,1.799127E-1,3.368182E-1,8.3725E-1,6.068182E-1,5.6449264E-1,3.231E-1,6.45E-1,7.6898754E-1,6.713152E-1,3.5045454E-1,-8.004131E0,3.968182E-1,5.6045455E-1,4.7714725E-1,2.3475707E-1,7.0863634E-1,6.6213536E-1,2.543E-1,2.3735E-1,7.759391E-1,7.8636837E-1,5.244094E-1,7.368182E-1,4.21725E-1,3.25E-2,1.008E-3,3.140909E-1,3.984615E-3,-5.238427E0,-3.443077E0,7.304082E-1,5E-4,6.4814997E-1,6.777273E-1,5.529524E-1,8.486567E-1,9.275E-1,9.999667E-1,3.3227274E-1,4.4915E-1,3.059091E-1,8.462482E-1,9.32377E0,4.9353333E0,7.0975E-1,4.96157E-1,4.8275715E-1,4.6780002E-1,5.7190496E-1,7.459091E-1,9.1078573E-1,8.884208E-1,7.0585003E0,8.585E-1,-1.4840823E0,-6.618354E-1,-5.1741473E-2,-7.0010805E-1,-1.7328746E0,-1.4688032E0,-8.381455E-1,-1.2426373E0,-5.035454E-1,-3.7535647E-1,4.176429E0,-3.6530596E-1,-4.5802355E-1,-6.7355543E-1,-5.5937964E-1,-3.9613146E-1,-8.266614E-1,-9.476045E-1,-1.0811408E0,-7.965866E-1,-7.3265123E-1,-4.1151607E-1,-4.911293E-1,-2.8995985E-1,-1.9794657E0,-1.7059289E0,-2.2684815E0,-3.021485E0,3.0985E-1,-3.2164288E-1,-1.4183496E0,-1.7392403E0,-1.4001915E0,-9.622394E-1,-1.9038568E0,-1.5222017E0,9.764329E-2,-1.0840551E0,6.1704006E0,-1.4777648E0,6.1633384E-1,-7.998586E-1,-1.1854461E0,-9.762702E-1,-8.446469E-1,-6.2419313E-1,-6.161209E-1,-4.618963E-1,-9.612015E-1,-7.5367206E-1],"split_indices":[5,0,0,1,5,0,2,5,0,2,0,2,1,0,5,3,0,0,0,0,4,5,0,5,1,1,5,5,5,0,1,2,2,0,2,0,0,3,2,1,0,4,2,2,2,0,1,0,5,0,0,2,3,1,1,1,0,2,2,0,2,0,0,0,0,0,0,0,0,0,0,0,0,0,0,0,0,0,0,0,0,0,0,0,0,0,0,0,0,0,0,0,0,0,0,0,0,0,0,0,0,0,0,0,0,0,0,0,0,0,0],"split_type":[0,0,0,0,0,0,0,0,0,0,0,0,0,0,0,0,0,0,0,0,0,0,0,0,0,0,0,0,0,0,0,0,0,0,0,0,0,0,0,0,0,0,0,0,0,0,0,0,0,0,0,0,0,0,0,0,0,0,0,0,0,0,0,0,0,0,0,0,0,0,0,0,0,0,0,0,0,0,0,0,0,0,0,0,0,0,0,0,0,0,0,0,0,0,0,0,0,0,0,0,0,0,0,0,0,0,0,0,0,0,0],"sum_hessian":[2.36143E5,1.16537E5,1.19606E5,1.9712E4,9.6825E4,4.6364E4,7.3242E4,1.9579E4,1.33E2,7.5582E4,2.1243E4,1.7536E4,2.8828E4,3.6543E4,3.6699E4,1.5531E4,4.048E3,8.4E1,4.9E1,4.2239E4,3.3343E4,8.498E3,1.2745E4,1.4424E4,3.112E3,2E1,2.8808E4,1.536E4,2.1183E4,2.1419E4,1.528E4,3.501E3,1.203E4,1.721E3,2.327E3,3.7E1,1.2E1,1.6598E4,2.5641E4,8.061E3,2.5282E4,6.19E3,2.308E3,4.652E3,8.093E3,8.03E3,6.394E3,4.2E1,3.07E3,1.2E1,8E0,1.633E4,1.2478E4,8.092E3,7.268E3,8.896E3,1.2287E4,9.25E3,1.2169E4,2E0,1.5278E4,1.515E3,1.986E3,3.28E2,1.1702E4,7.98E2,9.23E2,2.12E2,2.115E3,1.0315E4,6.283E3,1.3E1,2.5628E4,4.118E3,3.943E3,8.038E3,1.7244E4,3.785E3,2.405E3,1.859E3,4.49E2,3.626E3,1.026E3,6.86E3,1.233E3,4.866E3,3.164E3,5.933E3,4.61E2,2.9E1,1.3E1,2.039E3,1.031E3,1.3175E4,3.155E3,6.653E3,5.825E3,8.5E1,8.007E3,4E0,7.264E3,9.2E1,8.804E3,4.59E3,7.697E3,6.628E3,2.622E3,7.368E3,4.801E3,9.394E3,5.884E3],"tree_param":{"num_deleted":"0","num_feature":"6","num_nodes":"111","size_leaf_vector":"0"}},{"base_weights":[-2.0727088E0,-1.322754E0,-2.8231606E0,-2.4337788E0,-1.1862254E0,-4.0481567E0,-2.1971555E0,-2.2996354E0,-1.7098806E1,-1.0343729E0,-1.69988E0,-4.8338404E0,-3.6840672E0,-2.668581E0,-1.8079605E0,-1.9555615E0,-3.4985695E0,-1.9188612E1,-1.2757007E1,-1.343308E0,-9.9621415E-1,-2.2905557E0,-1.2674278E0,-4.686555E0,-7.185288E0,2.0810139E1,-3.6983056E0,-3.175152E0,-2.298693E0,-2.0602896E0,-1.5461518E0,-2.8187573E0,-1.7167147E0,-3.9290924E0,-3.145194E0,-1.317921E0,-9.659005E0,-8.717253E-1,-1.0924188E0,-2.6039028E0,-2.1487107E0,-1.5596256E0,-1.0489944E0,-5.034621E0,-3.7273748E0,-8.900887E0,-6.6450157E0,2.2835712E1,1.1786734E1,-3.5999272E0,-5.851008E0,-2.6624048E0,-3.748226E0,-1.892216E0,-2.5894992E0,-2.328248E0,-1.7626815E0,-1.6522945E0,-9.1149545E-1,-4.1971154E0,-1.7497988E0,-1.7012082E0,-5.3148212E0,-3.986463E0,-2.7740722E0,-1.2104877E0,-3.2466874E0,-6.5764433E-1,-1.4016373E0,-8.2885766E-1,-1.5396765E0,-1.1722869E0,-9.093335E-1,-2.9931242E0,-2.190925E0,-2.0178804E0,-2.414672E0,-1.71946E0,-1.031354E0,-1.1348406E0,-6.588096E-1,-4.654713E0,-5.586856E0,-2.8468792E0,-3.977027E0,-9.377413E0,-7.5933833E0,-5.8325386E0,-8.340598E0,-3.9275732E0,-3.070464E0,-7.2538266E0,-5.3888564E0,1.98027E0,-2.7061262E0,1.4220557E1,-3.7758245E0,-2.3979733E0,-1.6297177E0,-9.604584E-1,-2.6371799E0,-2.251755E0,-3.4480774E0,-3.0873234E0,-1.7011756E0,-1.798771E0,-1.0866643E0,-5.8649313E-1,-1.1506919E0],"categories":[],"categories_nodes":[],"categories_segments":[],"categories_sizes":[],"default_left":[true,true,true,true,true,true,true,true,true,true,true,true,true,true,true,true,true,false,false,true,true,true,true,true,true,true,true,true,true,true,true,true,true,true,true,true,false,true,true,true,true,true,true,true,true,true,true,false,false,true,true,true,true,true,true,true,true,true,true,false,false,false,false,false,false,false,false,false,false,false,false,false,false,false,false,false,false,false,false,false,false,false,false,false,false,false,false,false,false,false,false,false,false,false,false,false,false,false,false,false,false,false,false,false,false,false,false,false,false],"id":1,"left_children":[1,3,5,7,9,11,13,15,17,19,21,23,25,27,29,31,33,-1,-1,35,37,39,41,43,45,47,49,51,53,55,57,59,61,63,65,67,-1,69,71,73,75,77,79,81,83,85,87,-1,-1,89,91,93,95,97,99,101,103,105,107,-1,-1,-1,-1,-1,-1,-1,-1,-1,-1,-1,-1,-1,-1,-1,-1,-1,-1,-1,-1,-1,-1,-1,-1,-1,-1,-1,-1,-1,-1,-1,-1,-1,-1,-1,-1,-1,-1,-1,-1,-1,-1,-1,-1,-1,-1,-1,-1,-1,-1],"loss_changes":[1.3289925E5,1.7913297E4,9.050444E4,2.5386938E4,8.202953E3,1.14008125E4,1.4327656E4,5.2771562E3,8.168086E2,9.5578125E2,6.127633E3,4.3429688E3,9.591406E3,6.6115156E3,2.8237969E3,2.0475977E3,4.2198828E2,0E0,0E0,1.8710029E3,8.645547E2,4.4522656E2,8.828613E2,3.9524688E3,6.2953125E2,2.3282715E1,5.7533438E3,4.3697344E3,2.4088594E3,1.7334141E3,1.4135469E3,3.1693223E3,4.261504E2,7.395703E1,3.0494434E2,4.9086816E2,0E0,9.009082E2,5.9496875E2,5.0073828E2,2.382793E2,4.9859473E2,2.649746E2,1.8044844E3,6.8571875E2,3.78291E1,7.3521875E2,0E0,0E0,4.5116562E3,7.3240625E2,1.6028438E3,3.5429531E3,1.1272109E3,9.218672E2,9.740586E2,8.3612305E2,1.488957E3,2.3347607E2,0E0,0E0,0E0,0E0,0E0,0E0,0E0,0E0,0E0,0E0,0E0,0E0,0E0,0E0,0E0,0E0,0E0,0E0,0E0,0E0,0E0,0E0,0E0,0E0,0E0,0E0,0E0,0E0,0E0,0E0,0E0,0E0,0E0,0E0,0E0,0E0,0E0,0E0,0E0,0E0,0E0,0E0,0E0,0E0,0E0,0E0,0E0,0E0,0E0,0E0],"parents":[2147483647,0,0,1,1,2,2,3,3,4,4,5,5,6,6,7,7,8,8,9,9,10,10,11,11,12,12,13,13,14,14,15,15,16,16,19,19,20,20,21,21,22,22,23,23,24,24,25,25,26,26,27,27,28,28,29,29,30,30,31,31,32,32,33,33,34,34,35,35,37,37,38,38,39,39,40,40,41,41,42,42,43,43,44,44,45,45,46,46,49,49,50,50,51,51,52,52,53,53,54,54,55,55,56,56,57,57,58,58],"right_children":[2,4,6,8,10,12,14,16,18,20,22,24,26,28,30,32,34,-1,-1,36,38,40,42,44,46,48,50,52,54,56,58,60,62,64,66,68,-1,70,72,74,76,78,80,82,84,86,88,-1,-1,90,92,94,96,98,100,102,104,106,108,-1,-1,-1,-1,-1,-1,-1,-1,-1,-1,-1,-1,-1,-1,-1,-1,-1,-1,-1,-1,-1,-1,-1,-1,-1,-1,-1,-1,-1,-1,-1,-1,-1,-1,-1,-1,-1,-1,-1,-1,-1,-1,-1,-1,-1,-1,-1,-1,-1,-1],"split_conditions":[3.213126E-1,3.8136363E-1,4.940909E-1,4.6127498E-1,1.4772487E-1,3.4772727E-1,7.298982E-1,1.7908244E-1,3.2545453E-1,4.522727E-1,5.95E-1,4.0845E-1,2.92925E-1,6.1227274E-1,8.320357E-1,6.631303E-1,3.2954547E-1,-5.7565837E0,-3.8271022E0,4.908E-1,7.651129E-1,4.5045453E-1,7.204546E-1,4.5816863E-1,3.2863638E-1,1.962E-1,5.5395E-1,7.824267E-1,5.233885E-1,7.45E-1,8.4409094E-1,2.85E-2,3.9179617E-1,5.175E-1,1.9137932E-3,6.322299E-1,-2.8977017E0,1.3070759E-1,5.378228E-1,8.226676E-1,2.3406222E-1,9.2316663E-1,9.957143E-1,6.607717E-1,4.3538243E-1,4.185E-1,4.332E-1,6.850714E0,3.5360203E0,4.35E-1,4.659091E-1,4.5903414E-1,5.0392497E-1,4.922191E-1,2.9737166E-1,7.0658004E-1,3.4726948E-1,9.675778E-1,3.806967E-1,-1.2591347E0,-5.2493966E-1,-5.103625E-1,-1.5944464E0,-1.195939E0,-8.322217E-1,-3.6314633E-1,-9.7400624E-1,-1.9729331E-1,-4.2049122E-1,-2.486573E-1,-4.6190298E-1,-3.5168606E-1,-2.7280006E-1,-8.979373E-1,-6.5727746E-1,-6.0536414E-1,-7.244016E-1,-5.15838E-1,-3.094062E-1,-3.404522E-1,-1.976429E-1,-1.396414E0,-1.6760569E0,-8.540638E-1,-1.1931081E0,-2.8132238E0,-2.2780151E0,-1.7497617E0,-2.5021796E0,-1.178272E0,-9.211392E-1,-2.1761482E0,-1.616657E0,5.9408104E-1,-8.118379E-1,4.266167E0,-1.1327474E0,-7.19392E-1,-4.8891532E-1,-2.8813753E-1,-7.9115397E-1,-6.755265E-1,-1.0344232E0,-9.2619705E-1,-5.103527E-1,-5.396313E-1,-3.2599932E-1,-1.7594795E-1,-3.4520757E-1],"split_indices":[5,0,0,1,5,0,2,5,0,0,0,1,1,0,2,3,0,0,0,1,2,0,0,2,0,1,1,5,5,0,0,2,1,2,2,3,0,5,4,3,5,2,2,5,5,2,1,0,0,0,0,1,1,3,3,1,3,2,5,0,0,0,0,0,0,0,0,0,0,0,0,0,0,0,0,0,0,0,0,0,0,0,0,0,0,0,0,0,0,0,0,0,0,0,0,0,0,0,0,0,0,0,0,0,0,0,0,0,0],"split_type":[0,0,0,0,0,0,0,0,0,0,0,0,0,0,0,0,0,0,0,0,0,0,0,0,0,0,0,0,0,0,0,0,0,0,0,0,0,0,0,0,0,0,0,0,0,0,0,0,0,0,0,0,0,0,0,0,0,0,0,0,0,0,0,0,0,0,0,0,0,0,0,0,0,0,0,0,0,0,0,0,0,0,0,0,0,0,0,0,0,0,0,0,0,0,0,0,0,0,0,0,0,0,0,0,0,0,0,0,0],"sum_hessian":[2.36143E5,1.18112E5,1.18031E5,1.2924E4,1.05188E5,3.9916E4,7.8115E4,1.2808E4,1.16E2,8.1189E4,2.3999E4,1.2636E4,2.728E4,3.5323E4,4.2792E4,9.954E3,2.854E3,7.6E1,4E1,8.922E3,7.2267E4,1.0142E4,1.3857E4,1.1894E4,7.42E2,1.5E1,2.7265E4,1.4904E4,2.0419E4,2.1787E4,2.1005E4,2.155E3,7.799E3,1.282E3,1.572E3,8.896E3,2.6E1,3.1507E4,4.076E4,3.155E3,6.987E3,5.925E3,7.932E3,8.724E3,3.17E3,1.74E2,5.68E2,1.1E1,4E0,2.6076E4,1.189E3,7.869E3,7.035E3,8.519E3,1.19E4,1.1461E4,1.0326E4,1.7994E4,3.011E3,9.4E2,1.215E3,7.767E3,3.2E1,1.219E3,6.3E1,7.9E1,1.493E3,1.002E3,7.894E3,2.9609E4,1.898E3,2.8376E4,1.2384E4,1.621E3,1.534E3,4.689E3,2.298E3,4.547E3,1.378E3,6.5E3,1.432E3,5.174E3,3.55E3,7.03E2,2.467E3,1.23E2,5.1E1,3.87E2,1.81E2,1.6104E4,9.972E3,2.91E2,8.98E2,7.3E1,7.796E3,1E1,7.025E3,2.908E3,5.611E3,3.39E2,1.1561E4,1.0731E4,7.3E2,4.56E2,9.87E3,1.4291E4,3.703E3,1.278E3,1.733E3],"tree_param":{"num_deleted":"0","num_feature":"6","num_nodes":"109","size_leaf_vector":"0"}},{"base_weights":[-1.4510647E0,-9.170568E-1,-1.9684488E0,-1.4782292E0,-7.8442276E-1,-2.8877516E0,-1.5527769E0,-1.4159706E0,-1.1284518E1,-6.977069E-1,-1.0904058E0,-3.1167097E0,-2.057736E0,-1.8761498E0,-1.2272295E0,-1.1932054E0,-2.1370237E0,-1.3141458E1,-7.567723E0,-6.316425E-1,-8.2017E-1,-1.4034023E0,-8.01686E-1,-2.7697437E0,-3.572736E0,1.58622875E1,-2.0819163E0,-2.5305681E0,-1.6749582E0,-9.814518E-1,-1.4937179E0,-1.6575465E0,-1.0391128E0,-2.5716028E0,-1.7679522E0,-7.445963E-1,-4.2710742E-1,-1.0097544E0,-6.7551947E-1,-1.4488677E0,-6.8687546E-1,-8.7316823E-1,-4.556976E-1,-3.3453689E0,-2.5784922E0,-4.4287853E0,-3.3461478E0,-1.7784613E0,-2.7340055E0,-1.9243027E0,-2.9564192E0,1.5884948E1,-1.6826651E0,-4.8238206E-1,-1.0623785E0,-1.5553045E0,-9.518819E-1,-2.3444788E0,-9.750397E-1,3.903135E-1,-1.0822737E0,-2.6618185E0,-2.3651637E-1,-2.1746986E0,-1.4274946E0,-6.6982025E-1,-1.0347917E0,1.1556571E1,-4.3487298E-1,-1.6249993E0,-8.412737E-1,-1.1142792E0,-6.479276E-1,-1.4974452E0,-8.732587E-1,-8.293061E-1,1.368591E0,-9.769722E-1,-5.1483744E-1,-5.444285E-1,1.5682051E0,-3.5683467E0,-2.7723243E0,-3.043744E0,-2.416044E0,-4.0514255E0,-6.6932077E0,-3.0716407E0,-3.95539E0,-1.6937412E0,-3.6892114E0,7.6932745E0,-2.749248E0,2.8877634E-1,-2.0641954E0,-1.2787242E0,-3.16382E0,2.063893E1,1.0950633E1,-1.8275955E0,-1.2825185E0,1.0922568E0,-5.612764E-1,-1.162475E0,-7.636764E-1,1.1521616E1,-1.5574298E0,-1.422552E0,-7.633456E-1],"categories":[],"categories_nodes":[],"categories_segments":[],"categories_sizes":[],"default_left":[true,true,true,true,true,true,true,true,true,true,true,true,true,true,true,true,true,false,false,true,true,true,true,true,true,false,true,true,true,true,true,true,true,true,true,true,true,true,true,true,true,true,true,true,true,true,true,true,true,true,true,true,true,true,true,true,true,false,false,false,false,false,false,false,false,false,false,false,false,false,false,false,false,false,false,false,false,false,false,false,false,false,false,false,false,false,false,false,false,false,false,false,false,false,false,false,false,false,false,false,false,false,false,false,false,false,false,false,false],"id":2,"left_children":[1,3,5,7,9,11,13,15,17,19,21,23,25,27,29,31,33,-1,-1,35,37,39,41,43,45,-1,47,49,51,53,55,57,59,61,63,65,67,69,71,73,75,77,79,81,83,85,87,89,91,93,95,97,99,101,103,105,107,-1,-1,-1,-1,-1,-1,-1,-1,-1,-1,-1,-1,-1,-1,-1,-1,-1,-1,-1,-1,-1,-1,-1,-1,-1,-1,-1,-1,-1,-1,-1,-1,-1,-1,-1,-1,-1,-1,-1,-1,-1,-1,-1,-1,-1,-1,-1,-1,-1,-1,-1,-1],"loss_changes":[6.524178E4,8.6481875E3,4.582725E4,1.3546242E4,2.4932383E3,7.090375E3,8.692734E3,3.5432617E3,8.6681055E2,5.9203516E2,1.874377E3,4.6210625E3,3.5328828E3,5.4511094E3,2.6945156E3,1.2051367E3,8.309297E2,0E0,0E0,1.0989219E3,7.030586E2,3.23375E2,2.666587E2,1.8217109E3,2.4375469E3,0E0,1.5914375E3,2.5092305E3,4.3159844E3,8.6443945E2,6.5747656E2,1.967294E3,7.8191797E2,5.028506E2,3.8740918E2,6.644238E2,1.5805322E3,1.1496396E3,1.7553223E2,2.604707E2,1.7562079E2,3.3232812E2,3.332616E2,5.194844E2,9.361797E2,2.231332E3,1.6604297E3,8.8538086E2,4.280332E2,1.2457822E3,1.9862539E3,1.02397705E2,1.8349375E3,3.7206085E2,5.5006055E2,5.106797E2,1.7798828E2,0E0,0E0,0E0,0E0,0E0,0E0,0E0,0E0,0E0,0E0,0E0,0E0,0E0,0E0,0E0,0E0,0E0,0E0,0E0,0E0,0E0,0E0,0E0,0E0,0E0,0E0,0E0,0E0,0E0,0E0,0E0,0E0,0E0,0E0,0E0,0E0,0E0,0E0,0E0,0E0,0E0,0E0,0E0,0E0,0E0,0E0,0E0,0E0,0E0,0E0,0E0,0E0],"parents":[2147483647,0,0,1,1,2,2,3,3,4,4,5,5,6,6,7,7,8,8,9,9,10,10,11,11,12,12,13,13,14,14,15,15,16,16,19,19,20,20,21,21,22,22,23,23,24,24,26,26,27,27,28,28,29,29,30,30,31,31,32,32,33,33,34,34,35,35,36,36,37,37,38,38,39,39,40,40,41,41,42,42,43,43,44,44,45,45,46,46,47,47,48,48,49,49,50,50,51,51,52,52,53,53,54,54,55,55,56,56],"right_children":[2,4,6,8,10,12,14,16,18,20,22,24,26,28,30,32,34,-1,-1,36,38,40,42,44,46,-1,48,50,52,54,56,58,60,62,64,66,68,70,72,74,76,78,80,82,84,86,88,90,92,94,96,98,100,102,104,106,108,-1,-1,-1,-1,-1,-1,-1,-1,-1,-1,-1,-1,-1,-1,-1,-1,-1,-1,-1,-1,-1,-1,-1,-1,-1,-1,-1,-1,-1,-1,-1,-1,-1,-1,-1,-1,-1,-1,-1,-1,-1,-1,-1,-1,-1,-1,-1,-1,-1,-1,-1,-1],"split_conditions":[3.0677658E-1,4.3772727E-1,4.7863635E-1,4.8360002E-1,1.434623E-1,5.9605E-1,6.959091E-1,1.6007245E-1,3.481818E-1,6.121758E-1,6.531818E-1,7.699496E-1,1.706E-1,4.7794497E-1,7.6898754E-1,6.8019843E-1,3.4981668E-1,-3.9424374E0,-2.2703168E0,6.504545E-1,5.01427E-1,9.6150005E-1,9.9001217E-1,3.2045454E-1,8.44743E-1,4.7586865E0,8.596906E-1,7.9403913E-1,3.8283926E-1,3.5614455E-1,9.1349995E-1,5.5984847E-2,1.008E-3,7.255E-1,8.313206E-1,8.6074996E-1,5E-4,7.75E-1,6.8227273E-1,8.419298E-1,5.6785E-1,8.55E-1,6.8178E-1,3.4633332E-1,1.2275E-1,5.5940294E-1,5.592951E-1,9.9975E-1,3.27575E-1,3.61826E-1,2.519296E-1,2.7165002E-1,8.029444E-1,6.4193517E-1,8.808986E-1,6.0585E-1,8.679145E-1,-7.033437E-1,-2.9251194E-1,1.17094055E-1,-3.2468212E-1,-7.985456E-1,-7.095491E-2,-6.524096E-1,-4.282484E-1,-2.0094608E-1,-3.1043753E-1,3.4669714E0,-1.304619E-1,-4.874998E-1,-2.5238213E-1,-3.3428377E-1,-1.9437829E-1,-4.492336E-1,-2.619776E-1,-2.4879184E-1,4.105773E-1,-2.9309168E-1,-1.5445124E-1,-1.6332856E-1,4.7046155E-1,-1.0705041E0,-8.3169734E-1,-9.1312325E-1,-7.248132E-1,-1.2154276E0,-2.0079625E0,-9.214923E-1,-1.186617E0,-5.081224E-1,-1.1067635E0,2.3079824E0,-8.2477444E-1,8.663291E-2,-6.1925864E-1,-3.8361728E-1,-9.4914603E-1,6.191679E0,3.28519E0,-5.482787E-1,-3.8475558E-1,3.2767704E-1,-1.6838291E-1,-3.487425E-1,-2.2910292E-1,3.456485E0,-4.6722895E-1,-4.2676562E-1,-2.2900368E-1],"split_indices":[5,0,0,1,5,2,0,5,0,1,0,5,1,3,5,3,1,0,0,0,4,2,2,0,5,0,5,5,1,5,2,2,2,2,3,2,2,0,0,3,1,0,1,2,2,4,4,2,1,3,3,1,2,2,2,1,5,0,0,0,0,0,0,0,0,0,0,0,0,0,0,0,0,0,0,0,0,0,0,0,0,0,0,0,0,0,0,0,0,0,0,0,0,0,0,0,0,0,0,0,0,0,0,0,0,0,0,0,0],"split_type":[0,0,0,0,0,0,0,0,0,0,0,0,0,0,0,0,0,0,0,0,0,0,0,0,0,0,0,0,0,0,0,0,0,0,0,0,0,0,0,0,0,0,0,0,0,0,0,0,0,0,0,0,0,0,0,0,0,0,0,0,0,0,0,0,0,0,0,0,0,0,0,0,0,0,0,0,0,0,0,0,0,0,0,0,0,0,0,0,0,0,0,0,0,0,0,0,0,0,0,0,0,0,0,0,0,0,0,0,0],"sum_hessian":[2.36143E5,1.16206E5,1.19937E5,2.2213E4,9.3993E4,3.7343E4,8.2594E4,2.2074E4,1.39E2,7.324E4,2.0753E4,2.9267E4,8.076E3,4.1433E4,4.1161E4,1.6866E4,5.208E3,9.1E1,4.8E1,4.7579E4,2.5661E4,9.956E3,1.0797E4,1.6625E4,1.2642E4,1E1,8.066E3,9.74E3,3.1693E4,2.1415E4,1.9746E4,4.2E3,1.2666E4,2.389E3,2.819E3,3.065E4,1.6929E4,1.1103E4,1.4558E4,9.361E3,5.95E2,8.947E3,1.85E3,4.142E3,1.2483E4,2.642E3,1E4,5.507E3,2.559E3,4.021E3,5.719E3,1.3E1,3.168E4,2.989E3,1.8426E4,1.7729E4,2.017E3,2.092E3,2.108E3,3.71E2,1.2295E4,2.3E3,8.9E1,1.282E3,1.537E3,2.4373E4,6.277E3,1E1,1.6919E4,2.385E3,8.718E3,8.59E2,1.3699E4,8.631E3,7.3E2,5.57E2,3.8E1,6.936E3,2.011E3,1.773E3,7.7E1,2.978E3,1.164E3,3.226E3,9.257E3,2.267E3,3.75E2,6.898E3,3.102E3,5.275E3,2.32E2,3E0,2.556E3,2.39E2,3.782E3,6.3E2,5.089E3,5E0,8E0,2.3254E4,8.426E3,1.42E2,2.847E3,1.3799E4,4.627E3,2E0,1.7727E4,5.75E2,1.442E3],"tree_param":{"num_deleted":"0","num_feature":"6","num_nodes":"109","size_leaf_vector":"0"}},{"base_weights":[-1.0157628E0,-6.109617E-1,-1.3511204E0,-1.2385197E0,-5.5182827E-1,-1.8646932E0,-9.566451E-1,-1.152273E0,-9.086655E0,-5.0306207E-1,-8.266267E-1,-2.0213466E0,-1.0903046E0,-7.6968986E-1,-1.2039027E0,-1.8310381E0,-1.0290557E0,-1.0313176E1,-7.5995984E0,-5.069989E-1,9.044552E-1,-1.121856E0,-6.144376E-1,-1.7778958E0,-2.3675423E0,1.143408E1,-1.106125E0,-9.1744316E-1,-5.8439016E-1,1.2382741E1,-1.2077537E0,-3.0760612E0,-9.7634596E-1,-9.377546E-1,-1.6668136E0,-1.9484234E0,-7.676739E0,-5.258487E-1,-3.1207356E-1,5.220372E-1,1.6825495E0,-2.9643968E-1,-1.1760614E0,-9.9688137E-1,-5.733839E-1,-2.0838585E0,-1.5106295E0,-2.5553246E0,-1.602745E0,-1.3478218E0,-8.5059255E-1,2.2208648E0,-9.2842597E-1,-4.1160154E-1,-7.3366475E-1,1.591878E1,6.370154E0,-1.459729E0,-1.0211009E0,1.137104E0,-3.3627613E0,8.835623E-1,-1.0690479E0,1.5810733E-1,-9.764247E-1,1.655274E-2,-1.808689E0,-6.504293E-1,-4.660554E-1,-4.1906357E-1,3.7725115E-1,1.8058535E-1,1.3173376E0,2.1831195E0,6.932513E-1,1.5035962E-1,-9.145209E-1,-1.2819687E0,-8.863966E-1,-1.3435638E0,-7.218649E-1,-4.215208E-1,-6.4557534E-1,-2.489176E0,-1.9682981E0,-2.820856E0,-1.4852381E0,-2.2997923E0,-2.993008E0,-1.4186459E0,-2.457572E0,-1.3088131E0,-3.3054996E0,-7.604851E-1,-1.7266735E0,2.5663056E0,-1.2520709E0,-1.1205325E0,-8.0726504E-1,-4.816833E-1,7.6867384E-1,-7.555238E-1,1.0974324E-1,2.5705292E0,8.046393E0,-1.2149311E0,-1.8773038E0,-6.5210503E-1,-1.0800234E0],"categories":[],"categories_nodes":[],"categories_segments":[],"categories_sizes":[],"default_left":[true,true,true,true,true,true,true,true,true,true,true,true,true,true,true,true,true,false,true,true,true,true,true,true,true,false,true,true,true,true,true,true,true,true,true,false,false,true,true,true,true,true,true,true,true,true,true,true,true,true,true,true,true,true,true,false,true,true,true,false,false,false,false,false,false,false,false,false,false,false,false,false,false,false,false,false,false,false,false,false,false,false,false,false,false,false,false,false,false,false,false,false,false,false,false,false,false,false,false,false,false,false,false,false,false,false,false,false,false],"id":3,"left_children":[1,3,5,7,9,11,13,15,17,19,21,23,25,27,29,31,33,-1,35,37,39,41,43,45,47,-1,49,51,53,55,57,59,61,63,65,-1,-1,67,69,71,73,75,77,79,81,83,85,87,89,91,93,95,97,99,101,-1,103,105,107,-1,-1,-1,-1,-1,-1,-1,-1,-1,-1,-1,-1,-1,-1,-1,-1,-1,-1,-1,-1,-1,-1,-1,-1,-1,-1,-1,-1,-1,-1,-1,-1,-1,-1,-1,-1,-1,-1,-1,-1,-1,-1,-1,-1,-1,-1,-1,-1,-1,-1],"loss_changes":[3.2056484E4,3.9698984E3,2.6162734E4,6.225583E3,1.3099766E3,6.8038125E3,3.3757031E3,7.603701E2,1.0401465E2,4.6064648E2,9.224385E2,3.9286094E3,1.8834941E3,1.1383594E3,1.6603906E3,1.485689E3,4.477246E2,0E0,6.4033203E0,3.0413477E2,6.815492E1,2.7530713E2,1.3407764E2,2.2375234E3,2.7623672E3,0E0,5.813252E2,7.9970703E2,4.757578E2,8.994153E1,1.4772422E3,6.9112695E2,1.4422327E2,2.8628418E2,2.3049902E2,0E0,0E0,5.6220703E2,5.389081E2,4.2396526E1,3.612274E1,1.05353806E2,1.7621094E2,7.81651E1,8.465991E1,5.93375E2,4.824961E2,1.7226484E3,5.9453125E2,3.6566992E2,3.6079102E2,1.003884E2,5.358828E2,7.081692E2,1.8261914E2,0E0,1.1161911E1,1.3651348E3,3.920664E2,0E0,0E0,0E0,0E0,0E0,0E0,0E0,0E0,0E0,0E0,0E0,0E0,0E0,0E0,0E0,0E0,0E0,0E0,0E0,0E0,0E0,0E0,0E0,0E0,0E0,0E0,0E0,0E0,0E0,0E0,0E0,0E0,0E0,0E0,0E0,0E0,0E0,0E0,0E0,0E0,0E0,0E0,0E0,0E0,0E0,0E0,0E0,0E0,0E0,0E0],"parents":[2147483647,0,0,1,1,2,2,3,3,4,4,5,5,6,6,7,7,8,8,9,9,10,10,11,11,12,12,13,13,14,14,15,15,16,16,18,18,19,19,20,20,21,21,22,22,23,23,24,24,26,26,27,27,28,28,29,29,30,30,31,31,32,32,33,33,34,34,37,37,38,38,39,39,40,40,41,41,42,42,43,43,44,44,45,45,46,46,47,47,48,48,49,49,50,50,51,51,52,52,53,53,54,54,56,56,57,57,58,58],"right_children":[2,4,6,8,10,12,14,16,18,20,22,24,26,28,30,32,34,-1,36,38,40,42,44,46,48,-1,50,52,54,56,58,60,62,64,66,-1,-1,68,70,72,74,76,78,80,82,84,86,88,90,92,94,96,98,100,102,-1,104,106,108,-1,-1,-1,-1,-1,-1,-1,-1,-1,-1,-1,-1,-1,-1,-1,-1,-1,-1,-1,-1,-1,-1,-1,-1,-1,-1,-1,-1,-1,-1,-1,-1,-1,-1,-1,-1,-1,-1,-1,-1,-1,-1,-1,-1,-1,-1,-1,-1,-1,-1],"split_conditions":[2.3780102E-1,3.659091E-1,5.5863637E-1,4.511E-1,1.4813703E-1,7.022728E-1,7.690586E-1,6.334592E-1,3.0727273E-1,9.722914E-1,5.559091E-1,7.718884E-1,2.5435E-1,8.088889E-1,5.4770005E-1,1E-2,1.8186754E-1,-3.093953E0,3.0954546E-1,7.7510023E-1,1.005785E0,1.558258E-3,4.534035E-1,3.959091E-1,5.812342E-1,3.4302242E0,8.078333E-1,5.021992E-1,3.7524974E-1,3.32625E-1,7.15E-1,3.035E-1,4.55E-2,1.0151516E-3,1.962069E-3,-5.84527E-1,-2.303022E0,5.977273E-1,5.0772727E-1,2.008E-1,3.8405E-1,5.42881E-1,8.602965E-1,1.6217117E-1,5.070993E-1,3.0045456E-1,5E-4,5.493531E-1,8.95631E-1,6.0115004E-1,9.9975E-1,5.196433E-1,5.1164794E-1,7.637E-1,6.7249393E-1,4.7756343E0,8.883302E-1,6.6801155E-1,7.0774996E-1,3.411312E-1,-1.0088284E0,2.650687E-1,-3.2071438E-1,4.74322E-2,-2.929274E-1,4.965822E-3,-5.426067E-1,-1.951288E-1,-1.3981663E-1,-1.2571907E-1,1.1317535E-1,5.4175608E-2,3.952013E-1,6.549359E-1,2.079754E-1,4.5107886E-2,-2.7435628E-1,-3.8459063E-1,-2.65919E-1,-4.0306917E-1,-2.1655947E-1,-1.2645625E-1,-1.9367261E-1,-7.4675286E-1,-5.9048945E-1,-8.4625685E-1,-4.4557145E-1,-6.899377E-1,-8.979024E-1,-4.2559376E-1,-7.372716E-1,-3.9264396E-1,-9.916499E-1,-2.2814554E-1,-5.180021E-1,7.6989174E-1,-3.756213E-1,-3.3615977E-1,-2.4217953E-1,-1.44505E-1,2.3060216E-1,-2.2665715E-1,3.2922972E-2,7.711588E-1,2.413918E0,-3.6447936E-1,-5.631912E-1,-1.9563152E-1,-3.2400703E-1],"split_indices":[5,0,0,1,5,2,5,3,0,3,0,5,1,2,1,2,5,0,0,3,3,2,4,0,3,0,2,1,5,1,0,1,2,2,2,0,0,0,0,2,1,4,3,5,3,0,2,4,5,1,2,2,4,1,5,0,5,1,1,0,0,0,0,0,0,0,0,0,0,0,0,0,0,0,0,0,0,0,0,0,0,0,0,0,0,0,0,0,0,0,0,0,0,0,0,0,0,0,0,0,0,0,0,0,0,0,0,0,0],"split_type":[0,0,0,0,0,0,0,0,0,0,0,0,0,0,0,0,0,0,0,0,0,0,0,0,0,0,0,0,0,0,0,0,0,0,0,0,0,0,0,0,0,0,0,0,0,0,0,0,0,0,0,0,0,0,0,0,0,0,0,0,0,0,0,0,0,0,0,0,0,0,0,0,0,0,0,0,0,0,0,0,0,0,0,0,0,0,0,0,0,0,0,0,0,0,0,0,0,0,0,0,0,0,0,0,0,0,0,0,0],"sum_hessian":[2.36143E5,1.06995E5,1.29148E5,9.212E3,9.7783E4,5.6103E4,7.3045E4,9.113E3,9.9E1,8.3048E4,1.4735E4,4.6662E4,9.441E3,4.1597E4,3.1448E4,1.398E3,7.715E3,5.1E1,4.8E1,8.2817E4,2.31E2,6.16E3,8.575E3,2.74E4,1.9262E4,1.1E1,9.43E3,2.3141E4,1.8456E4,8E0,3.144E4,5.68E2,8.3E2,6.751E3,9.64E2,1E0,4.7E1,7.5513E4,7.304E3,1.56E2,7.5E1,3.8E2,5.78E3,8.29E2,7.746E3,1.2772E4,1.4628E4,1.5463E4,3.799E3,4.844E3,4.586E3,8E1,2.3061E4,8.556E3,9.9E3,4E0,4E0,1.3376E4,1.8064E4,3.6E1,5.32E2,3.9E1,7.91E2,2.3E2,6.521E3,7.5E1,8.89E2,2.4486E4,5.1027E4,6.323E3,9.81E2,1.1E2,4.6E1,4.9E1,2.6E1,2.21E2,1.59E2,4.23E3,1.55E3,3.65E2,4.64E2,2.498E3,5.248E3,2.829E3,9.943E3,2.76E2,1.4352E4,9.767E3,5.696E3,3.128E3,6.71E2,4.751E3,9.3E1,4.16E3,4.26E2,7.3E1,7E0,8.916E3,1.4145E4,8.077E3,4.79E2,9.65E3,2.5E2,2E0,2E0,8.435E3,4.941E3,2.489E3,1.5575E4],"tree_param":{"num_deleted":"0","num_feature":"6","num_nodes":"109","size_leaf_vector":"0"}},{"base_weights":[-7.110602E-1,-4.4833753E-1,-9.653069E-1,-9.828326E-1,-4.086115E-1,-1.2913682E0,-6.521723E-1,-9.17617E-1,-6.481708E0,-3.495906E-1,-5.850101E-1,-1.6871276E0,-1.1202381E0,-5.2243763E-1,-7.9833496E-1,-1.5855807E0,-8.3573824E-1,-7.098593E0,-4.6880083E0,-4.6920726E-1,-3.0736983E-1,-8.580865E-1,-4.6222076E-1,-1.4330192E0,-2.1425612E0,-1.6575477E0,-1.0040698E0,2.1015818E0,-5.290719E-1,2.1945922E0,-8.1041664E-1,-2.085814E0,-3.7208217E-1,-6.9925344E-1,-1.3279616E0,-3.4241173E0,-5.6170416E0,-5.9463114E-1,-3.1378287E-1,-3.8482454E-1,-1.6490014E-1,-9.828732E-1,-5.986072E-1,-5.245297E-1,-1.8323706E-1,-2.3230443E0,-1.3618635E0,-9.8473287E-1,-2.3484821E0,-1.5996667E0,-3.2688808E0,1.0555953E1,-1.0098654E0,2.9212894E0,-5.855762E-1,-5.9918445E-1,-3.2803008E-1,7.7524314E0,1.8743973E0,-1.0926154E0,-7.293992E-1,-1.4752314E0,-2.4615064E0,5.306141E-1,-1.2509011E0,-7.6758164E-1,-3.652037E-1,-1.3776445E0,-4.7484306E-1,-4.469793E0,3.0751944E-1,-5.9513597E0,-2.4074214E0,-1.2034644E0,-4.954005E-1,-1.1435369E0,-2.881048E-1,-3.579092E-1,-7.548691E-1,-3.6512163E-2,-3.314509E-1,-3.5437864E-1,-1.0177691E0,-7.0429075E-1,3.8790473E-1,-5.837809E-1,-2.0607345E-1,-2.125844E-1,1.6134835E0,-2.8877375E0,-2.099666E0,-2.0421753E0,-1.2807021E0,-1.7083386E0,-4.5682433E-1,-2.44009E0,-1.2008297E-1,-1.8300743E0,-1.1951305E0,-4.4947147E0,-2.8708556E0,1.47472925E1,8.131904E0,-9.7196764E-1,-2.1703823E0,2.4067137E0,3.6071756E0,-2.3916979E-1,-6.490342E-1,-2.6621538E-1,-1.1137551E0,8.642807E0,1.6502762E0,2.4066477E0,-2.6667622E-1,-8.316766E-1,-1.9235889E0,-3.7154403E-1,-8.056502E-1],"categories":[],"categories_nodes":[],"categories_segments":[],"categories_sizes":[],"default_left":[true,true,true,true,true,true,true,true,true,true,true,true,true,true,true,true,true,false,true,true,true,true,true,true,true,true,true,true,true,true,true,true,true,true,true,true,true,true,true,true,true,true,true,true,true,true,true,true,true,true,true,true,true,true,false,true,true,true,true,true,true,false,false,false,false,false,false,false,false,false,false,false,false,false,false,false,false,false,false,false,false,false,false,false,false,false,false,false,false,false,false,false,false,false,false,false,false,false,false,false,false,false,false,false,false,false,false,false,false,false,false,false,false,false,false,false,false,false,false],"id":4,"left_children":[1,3,5,7,9,11,13,15,17,19,21,23,25,27,29,31,33,-1,35,37,39,41,43,45,47,49,51,53,55,57,59,61,63,65,67,69,71,73,75,77,79,81,83,85,87,89,91,93,95,97,99,101,103,105,-1,107,109,111,113,115,117,-1,-1,-1,-1,-1,-1,-1,-1,-1,-1,-1,-1,-1,-1,-1,-1,-1,-1,-1,-1,-1,-1,-1,-1,-1,-1,-1,-1,-1,-1,-1,-1,-1,-1,-1,-1,-1,-1,-1,-1,-1,-1,-1,-1,-1,-1,-1,-1,-1,-1,-1,-1,-1,-1,-1,-1,-1,-1],"loss_changes":[1.5773133E4,2.4655977E3,1.2252E4,2.875145E3,1.1252969E3,3.9796797E3,1.1604375E3,4.3298438E2,7.07334E1,4.0895605E2,9.0832324E2,2.0505508E3,2.5602969E3,5.6576074E2,1.0426309E3,5.2491406E2,4.7444385E2,0E0,1.246991E1,4.1173975E2,6.606538E2,2.71562E2,3.2491748E2,7.183594E2,1.512375E3,6.751426E2,2.2719023E3,1.8233069E2,4.558506E2,1.9190143E2,6.546875E2,1.3698535E2,2.0216362E2,1.26216064E2,6.440723E1,5.6003677E1,6.9506836E-1,7.0583594E2,2.0078247E2,3.8604395E2,4.5093634E2,1.24081055E2,2.8510645E2,2.8825293E2,1.8041241E2,1.00146484E2,5.800137E2,3.6631927E2,1.1006289E3,6.5437305E2,1.1005054E2,5.279663E1,1.4815938E3,1.3553833E1,0E0,4.3033105E2,4.0613196E2,1.8336243E1,1.2713605E2,1.3846152E3,6.075967E2,0E0,0E0,0E0,0E0,0E0,0E0,0E0,0E0,0E0,0E0,0E0,0E0,0E0,0E0,0E0,0E0,0E0,0E0,0E0,0E0,0E0,0E0,0E0,0E0,0E0,0E0,0E0,0E0,0E0,0E0,0E0,0E0,0E0,0E0,0E0,0E0,0E0,0E0,0E0,0E0,0E0,0E0,0E0,0E0,0E0,0E0,0E0,0E0,0E0,0E0,0E0,0E0,0E0,0E0,0E0,0E0,0E0,0E0],"parents":[2147483647,0,0,1,1,2,2,3,3,4,4,5,5,6,6,7,7,8,8,9,9,10,10,11,11,12,12,13,13,14,14,15,15,16,16,18,18,19,19,20,20,21,21,22,22,23,23,24,24,25,25,26,26,27,27,28,28,29,29,30,30,31,31,32,32,33,33,34,34,35,35,36,36,37,37,38,38,39,39,40,40,41,41,42,42,43,43,44,44,45,45,46,46,47,47,48,48,49,49,50,50,51,51,52,52,53,53,55,55,56,56,57,57,58,58,59,59,60,60],"right_children":[2,4,6,8,10,12,14,16,18,20,22,24,26,28,30,32,34,-1,36,38,40,42,44,46,48,50,52,54,56,58,60,62,64,66,68,70,72,74,76,78,80,82,84,86,88,90,92,94,96,98,100,102,104,106,-1,108,110,112,114,116,118,-1,-1,-1,-1,-1,-1,-1,-1,-1,-1,-1,-1,-1,-1,-1,-1,-1,-1,-1,-1,-1,-1,-1,-1,-1,-1,-1,-1,-1,-1,-1,-1,-1,-1,-1,-1,-1,-1,-1,-1,-1,-1,-1,-1,-1,-1,-1,-1,-1,-1,-1,-1,-1,-1,-1,-1,-1,-1],"split_conditions":[3.0621564E-1,3.4954545E-1,5.904545E-1,4.393239E-1,1.3105187E-1,4.7524935E-1,7.687193E-1,3.0135135E-3,3.181818E-1,5.1047736E-1,5.359091E-1,5.485705E-1,3.4136364E-1,5.168556E-1,5.9825003E-1,8.596721E-1,1.8251956E-1,-2.129578E0,3.3272728E-1,5.01427E-1,6.413636E-1,8.331547E-1,9.765965E-1,6.905769E-2,3.4297144E-1,4.0115E-1,2.8275E-1,7.444539E-1,8.259091E-1,5.6369996E-1,6.668182E-1,1.875E-4,9.241648E-1,6.27488E-1,5.301666E-1,3.2681817E-1,3.481818E-1,7.568182E-1,6.65E-1,5.6556106E-1,6.148449E-1,1.4078054E-3,4.701875E-1,8.5136366E-1,6.8755E-1,2.968182E-1,3.8910937E-1,4.3049997E-1,8.9948547E-1,4.2595455E-1,3.2045454E-1,9.325001E-2,6.1475E-1,6.25E-1,-1.7567286E-1,3.5992038E-1,7.9995E-1,6.1859834E-1,8.7494993E-1,6.6955E-1,6.9345E-1,-4.4256943E-1,-7.3845196E-1,1.5918423E-1,-3.7527034E-1,-2.302745E-1,-1.09561116E-1,-4.132934E-1,-1.4245293E-1,-1.3409379E0,9.225583E-2,-1.785408E0,-7.2222644E-1,-3.6103934E-1,-1.4862016E-1,-3.430611E-1,-8.643144E-2,-1.0737277E-1,-2.2646074E-1,-1.0953649E-2,-9.943528E-2,-1.0631359E-1,-3.0533075E-1,-2.1128723E-1,1.1637142E-1,-1.7513427E-1,-6.182204E-2,-6.377532E-2,4.840451E-1,-8.6632127E-1,-6.2989986E-1,-6.126526E-1,-3.8421065E-1,-5.125016E-1,-1.370473E-1,-7.32027E-1,-3.602489E-2,-5.490223E-1,-3.5853916E-1,-1.3484144E0,-8.612567E-1,4.424188E0,2.4395711E0,-2.915903E-1,-6.511147E-1,7.220141E-1,1.0821527E0,-7.175094E-2,-1.9471027E-1,-7.986462E-2,-3.3412653E-1,2.592842E0,4.9508289E-1,7.2199434E-1,-8.000287E-2,-2.4950299E-1,-5.770767E-1,-1.1146321E-1,-2.4169506E-1],"split_indices":[5,0,0,1,5,3,5,2,0,3,0,4,0,1,1,3,5,0,0,4,0,3,2,2,3,1,1,2,0,1,0,2,3,4,2,0,0,0,0,1,1,2,1,0,1,0,5,2,5,2,0,1,1,0,0,5,1,3,5,1,1,0,0,0,0,0,0,0,0,0,0,0,0,0,0,0,0,0,0,0,0,0,0,0,0,0,0,0,0,0,0,0,0,0,0,0,0,0,0,0,0,0,0,0,0,0,0,0,0,0,0,0,0,0,0,0,0,0,0],"split_type":[0,0,0,0,0,0,0,0,0,0,0,0,0,0,0,0,0,0,0,0,0,0,0,0,0,0,0,0,0,0,0,0,0,0,0,0,0,0,0,0,0,0,0,0,0,0,0,0,0,0,0,0,0,0,0,0,0,0,0,0,0,0,0,0,0,0,0,0,0,0,0,0,0,0,0,0,0,0,0,0,0,0,0,0,0,0,0,0,0,0,0,0,0,0,0,0,0,0,0,0,0,0,0,0,0,0,0,0,0,0,0,0,0,0,0,0,0,0,0],"sum_hessian":[2.36143E5,1.16137E5,1.20006E5,8.033E3,1.08104E5,5.8788E4,6.1218E4,7.94E3,9.3E1,8.1004E4,2.71E4,1.7744E4,4.1044E4,3.2434E4,2.8784E4,8.65E2,7.075E3,6.7E1,2.6E1,2.113E4,5.9874E4,8.404E3,1.8696E4,1.1392E4,6.352E3,7.294E3,3.375E4,8.1E1,3.2353E4,1.15E2,2.8669E4,6.12E2,2.53E2,5.541E3,1.534E3,1.3E1,1.3E1,1.1692E4,9.438E3,3.8786E4,2.1088E4,5.673E3,2.731E3,1.5282E4,3.414E3,8.41E2,1.0551E4,9.6E2,5.392E3,7.043E3,2.51E2,1.6E1,3.3734E4,6.2E1,1.9E1,2.3986E4,8.367E3,5E0,1.1E2,6.392E3,2.2277E4,2.35E2,3.77E2,1.25E2,1.28E2,4.599E3,9.42E2,1.449E3,8.5E1,1E1,3E0,1.1E1,2E0,1.637E3,1.0055E4,2.82E2,9.156E3,3.6158E4,2.628E3,1.1909E4,9.179E3,2.99E2,5.374E3,2.467E3,2.64E2,1.2884E4,2.398E3,3.36E3,5.4E1,2.35E2,6.06E2,1.122E3,9.429E3,4.04E2,5.56E2,5.179E3,2.13E2,4.485E3,2.558E3,5.9E1,1.92E2,4E0,1.2E1,3.2669E4,1.065E3,3.8E1,2.4E1,2.918E3,2.1068E4,7.758E3,6.09E2,4E0,1E0,8.8E1,2.2E1,4.866E3,1.526E3,3.914E3,1.8363E4],"tree_param":{"num_deleted":"0","num_feature":"6","num_nodes":"119","size_leaf_vector":"0"}},{"base_weights":[-4.977739E-1,-8.9804345E-1,-4.0414056E-1,-8.3219147E-1,-2.9208958E0,-2.7148074E-1,-5.631884E-1,-5.9836316E-1,-1.1485068E0,-4.1499424E0,-2.2333663E0,-2.2965005E-1,-3.67764E-1,-7.224093E-1,-3.8708276E-1,-4.5296806E-1,-7.9328656E-1,-1.5561323E0,-9.5452505E-1,-4.4027233E0,-2.1258752E0,-1.6159189E0,-4.043783E0,-1.2391244E-1,-2.8993943E-1,-4.9766505E-1,-2.3443295E-1,4.107948E0,-7.2863674E-1,7.3625603E0,-3.9007482E-1,-6.2853396E-1,-3.1451607E-1,-8.516068E-1,1.1718107E-1,-1.3896532E0,-3.3259199E0,-1.063981E0,-5.863448E-1,-4.7272377E0,-3.8229623E0,-2.5854845E0,-1.2562654E0,5.7936367E-2,-1.7965274E0,-5.202846E0,-3.1745825E0,-2.6893774E-1,3.1505086E-2,-3.2294324E-1,-1.8533693E-1,-5.289287E-1,-9.967856E-2,-2.4976264E-1,4.2445454E-1,8.142331E0,3.1184344E0,-9.223419E-1,-5.8450663E-1,1.3249814E1,6.0867558E0,-4.6093026E-1,-1.7260633E-1,-9.898006E-1,-4.088651E-1,1.4248544E0,-3.676597E-1,-1.4113398E0,-7.9990727E-1,4.4316474E-1,-3.1670728E-1,-1.6188236E0,-1.0793244E0,-4.3599396E0,-2.5696702E0,-9.069225E-1,-2.0726488E0,-3.6129496E-1,-1.1726065E0,-2.9321551E0,-4.8381033E0,-3.3700047E0,-4.095469E0,-1.4257464E0,-5.666916E-1,3.345864E-1,-5.0518475E-2,-2.5155861E0,-1.6196761E0,-4.719786E0,-6.4052677E0,-3.6924565E0,-1.9098333E0,-1.3757144E-1,-5.9504193E-1,7.799878E0,2.235546E-2,-2.2355483E-1,-3.7816185E-1,-2.8646755E-1,-3.8233448E-2,-4.3833053E-1,-6.7629766E-1,1.3498632E0,-2.076024E-1,-2.934362E-1,-5.0632942E-2,-5.457284E-1,9.942746E-1,-5.071711E-1,3.3659124E0,-9.944391E-1,-1.1525062E-1,-8.4117204E-1,-4.263483E-1,-5.033245E-1,-1.2073252E-2,1.9006793E-1,-2.14367E-1],"categories":[],"categories_nodes":[],"categories_segments":[],"categories_sizes":[],"default_left":[true,true,true,true,true,true,true,true,true,true,true,true,true,true,true,true,true,true,true,true,true,true,true,true,true,true,true,true,true,true,true,true,true,true,true,true,true,true,true,true,true,false,true,true,true,true,true,true,true,true,true,true,true,true,true,false,true,true,true,false,false,true,true,false,false,false,false,false,false,false,false,false,false,false,false,false,false,false,false,false,false,false,false,false,false,false,false,false,false,false,false,false,false,false,false,false,false,false,false,false,false,false,false,false,false,false,false,false,false,false,false,false,false,false,false,false,false,false,false],"id":5,"left_children":[1,3,5,7,9,11,13,15,17,19,21,23,25,27,29,31,33,35,37,39,41,43,45,47,49,51,53,55,57,59,61,63,65,67,69,71,73,75,77,79,81,-1,83,85,87,89,91,93,95,97,99,101,103,105,107,-1,109,111,113,-1,-1,115,117,-1,-1,-1,-1,-1,-1,-1,-1,-1,-1,-1,-1,-1,-1,-1,-1,-1,-1,-1,-1,-1,-1,-1,-1,-1,-1,-1,-1,-1,-1,-1,-1,-1,-1,-1,-1,-1,-1,-1,-1,-1,-1,-1,-1,-1,-1,-1,-1,-1,-1,-1,-1,-1,-1,-1,-1],"loss_changes":[8.84998E3,5.960922E3,4.0377793E3,3.2061465E3,1.1830352E3,4.201831E2,2.4400723E3,7.06208E2,1.4555723E3,2.4902148E2,1.00734375E3,4.6370947E2,5.472251E2,1.3778574E3,9.6113135E2,3.4696143E2,5.656006E2,1.7454951E3,5.0263672E2,6.621484E1,1.993341E1,2.050719E2,2.1519873E2,5.954563E2,1.5988086E2,1.991023E2,1.5764429E2,2.1014117E2,1.2738945E3,3.9527405E1,6.3649023E2,4.9923975E2,7.388137E2,2.8851074E2,9.094517E1,3.8449512E2,3.876045E2,1.5229121E3,3.774469E2,4.2134277E1,6.6882324E0,0E0,1.7631721E0,2.027173E0,7.375122E1,2.6110107E1,8.0715454E1,5.8535724E2,9.062798E2,1.9318408E2,1.6532831E2,1.978374E2,1.8284584E2,1.3254895E2,1.9679715E2,0E0,4.56727E1,1.133002E3,1.0622236E3,0E0,0E0,5.92917E2,1.538284E2,0E0,0E0,0E0,0E0,0E0,0E0,0E0,0E0,0E0,0E0,0E0,0E0,0E0,0E0,0E0,0E0,0E0,0E0,0E0,0E0,0E0,0E0,0E0,0E0,0E0,0E0,0E0,0E0,0E0,0E0,0E0,0E0,0E0,0E0,0E0,0E0,0E0,0E0,0E0,0E0,0E0,0E0,0E0,0E0,0E0,0E0,0E0,0E0,0E0,0E0,0E0,0E0,0E0,0E0,0E0,0E0],"parents":[2147483647,0,0,1,1,2,2,3,3,4,4,5,5,6,6,7,7,8,8,9,9,10,10,11,11,12,12,13,13,14,14,15,15,16,16,17,17,18,18,19,19,20,20,21,21,22,22,23,23,24,24,25,25,26,26,27,27,28,28,29,29,30,30,31,31,32,32,33,33,34,34,35,35,36,36,37,37,38,38,39,39,40,40,42,42,43,43,44,44,45,45,46,46,47,47,48,48,49,49,50,50,51,51,52,52,53,53,54,54,56,56,57,57,58,58,61,61,62,62],"right_children":[2,4,6,8,10,12,14,16,18,20,22,24,26,28,30,32,34,36,38,40,42,44,46,48,50,52,54,56,58,60,62,64,66,68,70,72,74,76,78,80,82,-1,84,86,88,90,92,94,96,98,100,102,104,106,108,-1,110,112,114,-1,-1,116,118,-1,-1,-1,-1,-1,-1,-1,-1,-1,-1,-1,-1,-1,-1,-1,-1,-1,-1,-1,-1,-1,-1,-1,-1,-1,-1,-1,-1,-1,-1,-1,-1,-1,-1,-1,-1,-1,-1,-1,-1,-1,-1,-1,-1,-1,-1,-1,-1,-1,-1,-1,-1,-1,-1,-1,-1],"split_conditions":[4.1863635E-1,4.8165E-1,3.592764E-1,4.312688E-1,3.968182E-1,1.3023728E-1,7.303667E-1,7.7513754E-2,3.1772727E-1,8.935993E-1,5.0804996E-1,6.76378E-1,6.7045456E-1,3.9038277E-1,3.5554808E-1,4.9909523E-1,7.355E-1,3.7375E-1,3.8954544E-1,8.4498817E-1,5.484363E-1,3.364467E-1,8.473889E-1,5.531818E-1,5.490185E-1,9.650625E-1,7.7989995E-1,6.1417186E-1,4.9995553E-1,7.265E-2,8.9594305E-1,4.2039473E-2,1.008E-3,4.4041687E-1,4.128489E-1,2.977273E-1,3.0772728E-1,4.425897E-1,6.336218E-1,4.980476E-1,5.910467E-1,-7.756454E-1,3.9227274E-1,8.6133707E-1,4.4538754E-1,5.2063984E-1,8.9180624E-1,3.985E-1,5E-4,5.886588E-1,7.0863634E-1,2.3737165E-1,5.579345E-1,9.999667E-1,8.04E-1,2.4426994E0,1.7680204E-1,8.9323354E-1,5.088277E-1,3.9749444E0,1.8260268E0,8.668182E-1,5.25E-1,-2.9694018E-1,-1.22659534E-1,4.2745635E-1,-1.1029791E-1,-4.2340195E-1,-2.3997219E-1,1.3294943E-1,-9.501219E-2,-4.856471E-1,-3.2379732E-1,-1.307982E0,-7.709011E-1,-2.7207676E-1,-6.2179464E-1,-1.0838849E-1,-3.5178196E-1,-8.796466E-1,-1.451431E0,-1.0110015E0,-1.2286408E0,-4.2772394E-1,-1.7000748E-1,1.0037593E-1,-1.5155544E-2,-7.5467587E-1,-4.8590285E-1,-1.4159359E0,-1.9215804E0,-1.107737E0,-5.7295E-1,-4.1271433E-2,-1.7851259E-1,2.3399634E0,6.7066383E-3,-6.706645E-2,-1.1344856E-1,-8.594027E-2,-1.1470035E-2,-1.3149917E-1,-2.0288931E-1,4.0495896E-1,-6.2280722E-2,-8.803086E-2,-1.5189883E-2,-1.6371852E-1,2.9828238E-1,-1.5215133E-1,1.0097737E0,-2.9833174E-1,-3.4575187E-2,-2.523516E-1,-1.2790449E-1,-1.5099736E-1,-3.621976E-3,5.702038E-2,-6.43101E-2],"split_indices":[0,1,5,5,0,5,2,5,0,5,1,2,0,1,1,4,2,1,0,5,4,3,5,0,4,2,1,3,3,1,2,2,2,3,5,0,0,1,3,4,4,0,0,5,5,3,5,2,2,1,0,5,3,2,2,0,2,5,4,0,0,0,0,0,0,0,0,0,0,0,0,0,0,0,0,0,0,0,0,0,0,0,0,0,0,0,0,0,0,0,0,0,0,0,0,0,0,0,0,0,0,0,0,0,0,0,0,0,0,0,0,0,0,0,0,0,0,0,0],"split_type":[0,0,0,0,0,0,0,0,0,0,0,0,0,0,0,0,0,0,0,0,0,0,0,0,0,0,0,0,0,0,0,0,0,0,0,0,0,0,0,0,0,0,0,0,0,0,0,0,0,0,0,0,0,0,0,0,0,0,0,0,0,0,0,0,0,0,0,0,0,0,0,0,0,0,0,0,0,0,0,0,0,0,0,0,0,0,0,0,0,0,0,0,0,0,0,0,0,0,0,0,0,0,0,0,0,0,0,0,0,0,0,0,0,0,0,0,0,0,0],"sum_hessian":[2.36143E5,4.4766E4,1.91377E5,4.3356E4,1.41E3,1.04346E5,8.7031E4,2.493E4,1.8426E4,5.04E2,9.06E2,7.2745E4,3.1601E4,4.5705E4,4.1326E4,1.4281E4,1.0649E4,5.939E3,1.2487E4,4.47E2,5.7E1,6.77E2,2.29E2,2.6417E4,4.6328E4,1.6005E4,1.5596E4,5.8E1,4.5647E4,1.5E1,4.1311E4,6.295E3,7.986E3,1.0008E4,6.41E2,5.43E3,5.09E2,9.624E3,2.863E3,2.82E2,1.65E2,3.6E1,2.1E1,6.6E1,6.11E2,9.6E1,1.33E2,1.3665E4,1.2752E4,3.5215E4,1.1113E4,1.4839E4,1.166E3,1.5242E4,3.54E2,1E1,4.8E1,1.9472E4,2.6175E4,1E0,1.4E1,3.1158E4,1.0153E4,2.379E3,3.916E3,2.36E2,7.75E3,8.44E2,9.164E3,3.66E2,2.75E2,3.121E3,2.309E3,2.13E2,2.96E2,8.329E3,1.295E3,2.07E3,7.93E2,1.8E1,2.64E2,6.7E1,9.8E1,1.6E1,5E0,1.8E1,4.8E1,1.18E2,4.93E2,7.2E1,2.4E1,9.3E1,4E1,9.742E3,3.923E3,1.4E1,1.2738E4,1.2579E4,2.2636E4,6.585E3,4.528E3,9.192E3,5.647E3,8E1,1.086E3,1.25E4,2.742E3,1.31E2,2.23E2,3E0,4.5E1,1.7875E4,1.597E3,9.978E3,1.6197E4,2.8469E4,2.689E3,1.048E3,9.105E3],"tree_param":{"num_deleted":"0","num_feature":"6","num_nodes":"119","size_leaf_vector":"0"}},{"base_weights":[-3.4847125E-1,-5.8983505E-1,-2.6655307E-1,-5.5448526E-1,-2.0312102E0,-2.0574456E-1,-4.755254E-1,-3.503088E-1,-6.969997E-1,-3.3077793E0,-1.5898105E0,1.8926144E-1,-2.1599227E-1,2.2396128E0,-4.8600715E-1,-3.3216628E-1,-3.3341553E0,-7.9426533E-1,-4.001608E-1,-3.9478064E0,-2.7292464E0,-1.3607557E0,-2.9272826E0,1.02679014E-1,3.5389206E0,-2.6753148E-1,-1.564903E-1,6.9771748E0,1.7122527E0,-7.0700186E-1,-3.687107E-1,-3.7275544E-1,2.4585288E-2,-4.8580174E0,-3.1209557E0,-7.324323E-1,-1.8231086E0,2.9771965E0,-4.197143E-1,-3.6101782E0,-5.312112E0,-2.8983388E0,-1.3313636E0,-1.0086141E0,-2.0380177E0,-2.3944097E0,-4.981536E0,1.3043792E0,1.78744E-2,4.230799E0,2.0428427E-1,-2.778526E-1,2.8910854E-1,-2.0105633E-1,3.5841777E-3,1.1359076E1,5.429261E0,1.4243852E-1,1.9152982E0,-2.0908749E-1,-9.951988E-1,2.482386E0,-3.7643373E-1,7.064683E-2,-4.1272995E-1,-2.6768878E-1,5.1338917E-1,-1.1816494E0,-3.221716E0,-8.8151854E-1,-4.9315545E-1,-2.6332328E0,-1.4292977E0,4.44502E0,2.4353259E0,-6.731215E-1,-2.0957588E-1,-2.5609171E0,-3.8251336E0,1.1160574E-1,-2.9698174E0,-1.3612896E0,-3.3649635E-1,-2.7686793E-1,-1.1138153E0,-2.6122615E0,-1.5648506E0,-2.5563273E0,-9.280378E-1,2.02091E-1,1.6488714E0,1.3819183E-1,-2.6562175E-1,6.6912234E-2,2.308384E-1,9.0775144E-1,-2.8248838E-1,6.999366E-1,-4.5343168E-2,6.939171E0,-2.0223421E-1,3.678854E-1,-8.373301E-2,8.6371034E-2,2.1019618E-1,2.061556E0,6.293216E-1,-5.251891E-1,2.290595E-1,-1.9881061E0,-7.695696E-1,2.2538724E0,6.8345723E0,-4.2569205E-1,-1.0383969E-1],"categories":[],"categories_nodes":[],"categories_segments":[],"categories_sizes":[],"default_left":[true,true,true,true,true,true,true,true,true,true,true,true,true,true,true,true,true,true,true,true,true,true,true,true,true,true,true,true,true,true,true,true,true,false,true,true,true,true,true,true,false,true,true,true,true,true,false,true,true,false,true,true,true,true,true,false,false,true,true,true,true,true,true,false,false,false,false,false,false,false,false,false,false,false,false,false,false,false,false,false,false,false,false,false,false,false,false,false,false,false,false,false,false,false,false,false,false,false,false,false,false,false,false,false,false,false,false,false,false,false,false,false,false,false,false],"id":6,"left_children":[1,3,5,7,9,11,13,15,17,19,21,23,25,27,29,31,33,35,37,39,41,43,45,47,49,51,53,55,57,59,61,63,65,-1,67,69,71,73,75,77,-1,79,81,83,85,87,-1,89,91,-1,93,95,97,99,101,-1,-1,103,105,107,109,111,113,-1,-1,-1,-1,-1,-1,-1,-1,-1,-1,-1,-1,-1,-1,-1,-1,-1,-1,-1,-1,-1,-1,-1,-1,-1,-1,-1,-1,-1,-1,-1,-1,-1,-1,-1,-1,-1,-1,-1,-1,-1,-1,-1,-1,-1,-1,-1,-1,-1,-1,-1,-1],"loss_changes":[4.6689023E3,3.047705E3,2.2402998E3,1.6992598E3,8.016406E2,5.528638E2,1.1320361E3,1.2987175E3,9.927715E2,1.2511694E2,3.2259058E2,1.0013712E3,4.0818555E2,3.7030853E2,1.0259092E3,3.456089E2,3.19469E1,1.6467119E3,5.619884E2,6.0050537E1,4.246997E1,2.1544922E2,1.577439E2,3.4320862E2,1.9985901E2,4.0988135E2,4.4078918E2,4.007068E1,4.4032562E1,1.969293E3,5.704153E2,3.7985376E2,3.4858444E2,0E0,2.1595703E1,8.71374E2,4.6458057E2,2.8148071E1,4.4945374E2,2.200586E1,0E0,3.7766968E1,2.2669601E-1,4.6033997E1,8.041504E1,2.730658E1,0E0,8.39668E1,1.07379395E2,0E0,4.29188E-2,3.851665E2,1.7851715E2,4.0788928E2,4.2809473E2,0E0,0E0,4.6428174E-2,2.1837006E1,6.9718555E2,1.9459531E3,5.4213165E1,3.4630542E2,0E0,0E0,0E0,0E0,0E0,0E0,0E0,0E0,0E0,0E0,0E0,0E0,0E0,0E0,0E0,0E0,0E0,0E0,0E0,0E0,0E0,0E0,0E0,0E0,0E0,0E0,0E0,0E0,0E0,0E0,0E0,0E0,0E0,0E0,0E0,0E0,0E0,0E0,0E0,0E0,0E0,0E0,0E0,0E0,0E0,0E0,0E0,0E0,0E0,0E0,0E0,0E0],"parents":[2147483647,0,0,1,1,2,2,3,3,4,4,5,5,6,6,7,7,8,8,9,9,10,10,11,11,12,12,13,13,14,14,15,15,16,16,17,17,18,18,19,19,20,20,21,21,22,22,23,23,24,24,25,25,26,26,27,27,28,28,29,29,30,30,31,31,32,32,34,34,35,35,36,36,37,37,38,38,39,39,41,41,42,42,43,43,44,44,45,45,47,47,48,48,50,50,51,51,52,52,53,53,54,54,57,57,58,58,59,59,60,60,61,61,62,62],"right_children":[2,4,6,8,10,12,14,16,18,20,22,24,26,28,30,32,34,36,38,40,42,44,46,48,50,52,54,56,58,60,62,64,66,-1,68,70,72,74,76,78,-1,80,82,84,86,88,-1,90,92,-1,94,96,98,100,102,-1,-1,104,106,108,110,112,114,-1,-1,-1,-1,-1,-1,-1,-1,-1,-1,-1,-1,-1,-1,-1,-1,-1,-1,-1,-1,-1,-1,-1,-1,-1,-1,-1,-1,-1,-1,-1,-1,-1,-1,-1,-1,-1,-1,-1,-1,-1,-1,-1,-1,-1,-1,-1,-1,-1,-1,-1,-1],"split_conditions":[4.5954546E-1,5.1765E-1,7.687193E-1,2.4132717E-1,4.340909E-1,4.3467864E-1,5.0240004E-1,4.9531457E-1,4.1045454E-1,8.486862E-1,5.312457E-1,3.760748E-1,7.0772725E-1,4.3345E-1,6.25E-1,9.470718E-1,2.8772727E-1,4.688966E-1,3.7819403E-1,5.1983225E-1,5.7850003E-1,5.4034996E-1,5.447E-1,6.254107E-1,5.150819E-1,8.085549E-1,5.6424737E-1,1.55E-1,8.5344076E-1,5.7655E-1,6.2055004E-1,6.161399E-1,5.700629E-1,-1.4574053E0,2.8954545E-1,3.55E-1,3.9045453E-1,5.987973E-1,4.4974345E-1,8.1446326E-1,-1.5936337E0,2.3050001E-1,6.5574646E-1,3.5166496E-1,4.4863635E-1,6.3661355E-1,-1.4944608E0,5.1027656E-1,6.955E-1,1.2692398E0,4.2685002E-1,3.5893708E-1,4.7612286E-1,5E-4,6.002635E-1,3.4077227E0,1.6287785E0,4.6863636E-1,8.9133954E-1,5.0136364E-1,5.3409094E-1,7.031818E-1,6.0504156E-1,2.119405E-2,-1.23818986E-1,-8.0306634E-2,1.5401676E-1,-3.5449484E-1,-9.665148E-1,-2.644556E-1,-1.4794664E-1,-7.8996986E-1,-4.2878932E-1,1.3335061E0,7.305978E-1,-2.0193647E-1,-6.287277E-2,-7.682752E-1,-1.1475401E0,3.3481725E-2,-8.9094526E-1,-4.0838692E-1,-1.0094891E-1,-8.3060384E-2,-3.341446E-1,-7.836785E-1,-4.6945518E-1,-7.668982E-1,-2.7841136E-1,6.06273E-2,4.9466145E-1,4.1457552E-2,-7.968653E-2,2.007367E-2,6.925152E-2,2.7232546E-1,-8.474652E-2,2.09981E-1,-1.3602951E-2,2.0817513E0,-6.0670264E-2,1.1036563E-1,-2.5119903E-2,2.591131E-2,6.305886E-2,6.1846685E-1,1.8879648E-1,-1.5755674E-1,6.871785E-2,-5.9643185E-1,-2.3087089E-1,6.7616177E-1,2.050372E0,-1.2770762E-1,-3.1151908E-2],"split_indices":[0,1,5,5,0,1,1,1,0,5,3,5,0,1,0,3,0,1,1,3,2,1,1,3,2,3,3,1,5,1,1,3,4,0,0,0,0,3,5,5,0,2,4,3,0,3,0,4,2,0,1,3,4,2,1,0,0,0,5,0,0,0,3,0,0,0,0,0,0,0,0,0,0,0,0,0,0,0,0,0,0,0,0,0,0,0,0,0,0,0,0,0,0,0,0,0,0,0,0,0,0,0,0,0,0,0,0,0,0,0,0,0,0,0,0],"split_type":[0,0,0,0,0,0,0,0,0,0,0,0,0,0,0,0,0,0,0,0,0,0,0,0,0,0,0,0,0,0,0,0,0,0,0,0,0,0,0,0,0,0,0,0,0,0,0,0,0,0,0,0,0,0,0,0,0,0,0,0,0,0,0,0,0,0,0,0,0,0,0,0,0,0,0,0,0,0,0,0,0,0,0,0,0,0,0,0,0,0,0,0,0,0,0,0,0,0,0,0,0,0,0,0,0,0,0,0,0,0,0,0,0,0,0],"sum_hessian":[2.36143E5,5.9836E4,1.76307E5,5.8405E4,1.431E3,1.36569E5,3.9738E4,2.401E4,3.4395E4,3.66E2,1.065E3,3.453E3,1.33116E5,1.52E2,3.9586E4,2.3866E4,1.44E2,2.5905E4,8.49E3,1.71E2,1.95E2,9.11E2,1.54E2,3.367E3,8.6E1,7.1329E4,6.1787E4,1.4E1,1.38E2,1.3724E4,2.5862E4,2.1428E4,2.438E3,1.5E1,1.29E2,2.4438E4,1.467E3,4.8E1,8.442E3,1.4E2,3.1E1,1.73E2,2.2E1,6.01E2,3.1E2,1.24E2,3E1,2.21E2,3.146E3,7.1E1,1.5E1,7.0031E4,1.298E3,4.8331E4,1.3456E4,2E0,1.2E1,1.6E1,1.22E2,5.032E3,8.692E3,6.9E1,2.5793E4,1.772E3,1.9656E4,1.526E3,9.12E2,7E0,1.22E2,1.5055E4,9.383E3,4.78E2,9.89E2,1.1E1,3.7E1,3.826E3,4.616E3,2.6E1,1.14E2,4E0,1.69E2,2.1E1,1E0,7.6E1,5.25E2,1.38E2,1.72E2,1.11E2,1.3E1,5.3E1,1.68E2,2.209E3,9.37E2,3E0,1.2E1,2.72E2,6.9759E4,5.82E2,7.16E2,7E0,4.8324E4,2.601E3,1.0855E4,1E1,6E0,1.09E2,1.3E1,2.923E3,2.109E3,1.608E3,7.084E3,6.7E1,2E0,2.1845E4,3.948E3],"tree_param":{"num_deleted":"0","num_feature":"6","num_nodes":"115","size_leaf_vector":"0"}},{"base_weights":[-2.4392891E-1,-4.083056E-1,-1.8245348E-1,-3.8285413E-1,-1.4717586E0,-1.40503E-1,-3.2655874E-1,-6.2896E-1,-3.1130216E-1,-2.5884385E0,-1.1989913E0,-8.648461E-2,-1.9011918E-1,1.515695E0,-3.3620358E-1,-5.51769E-1,-2.0903466E0,-1.4712797E-1,-4.5381075E-1,-2.3930037E0,-4.11378E0,-9.843332E-1,-2.3818321E0,-7.212531E-3,-1.5982293E-1,-2.113512E-1,6.044672E-2,5.141442E0,1.1761606E0,-4.3696058E-1,-1.520182E-1,-7.6628214E-1,-4.2462334E-1,-2.8217072E0,-1.7005106E0,-1.8984243E-1,5.165381E-1,-1.2860638E0,-4.0856525E-1,-2.5342033E0,-1.4902635E0,-8.699886E-1,-2.2071521E0,-1.9010403E0,-3.4554229E0,-4.4839967E-2,2.0011976E-1,-2.7594098E-1,-8.696731E-2,-2.207102E-1,3.2175177E-1,-7.44923E-2,1.6028912E-1,9.08726E0,4.0095153E0,9.515811E-1,1.9982532E0,-5.278699E-1,3.408599E-2,-1.313755E0,-1.18879355E-1,-6.567242E-1,-3.0341337E0,-1.4554113E0,-3.9477563E-1,-3.2457952E0,-2.2805037E0,-1.3780906E0,-2.7409086E0,-6.7781925E-2,-3.5249296E-1,1.3386385E-1,2.815822E0,-7.815111E-1,-2.1589613E0,-6.24935E-1,-3.3444384E-1,-2.434799E0,-3.1501775E0,-2.1755853E0,-1.1678061E0,-1.0469478E0,-5.340286E-1,-1.2891643E0,-2.4619372E0,-2.198161E0,-1.2487692E0,-2.9700491E0,-4.699398E0,-2.521632E-1,1.7698582E-2,2.9500064E-1,-2.8741065E-1,-6.7520106E-1,-1.294277E-1,6.852375E-2,-2.2217453E-1,-2.4523146E-1,-1.963508E-2,-2.1553273E-1,3.7489277E-1,1.701679E-1,-3.2315078E-1,5.477894E-1,1.1651534E-1,1.0226183E0,4.1498213E0,1.2767868E0,5.809103E-1,2.7539644E-1,-5.7784295E-1,-2.188064E0,7.675703E-2,-2.0772789E-2,-1.3416553E0,-5.1045537E-1,-6.24324E-2],"categories":[],"categories_nodes":[],"categories_segments":[],"categories_sizes":[],"default_left":[true,true,true,true,true,true,true,true,true,true,true,true,true,true,true,true,true,true,true,true,false,true,true,true,true,true,true,true,true,true,true,true,true,true,true,true,true,true,true,true,true,true,true,true,true,true,true,true,true,true,true,true,true,false,true,true,false,true,true,true,true,false,false,false,false,false,false,false,false,false,false,false,false,false,false,false,false,false,false,false,false,false,false,false,false,false,false,false,false,false,false,false,false,false,false,false,false,false,false,false,false,false,false,false,false,false,false,false,false,false,false,false,false,false,false,false,false],"id":7,"left_children":[1,3,5,7,9,11,13,15,17,19,21,23,25,27,29,31,33,35,37,39,-1,41,43,45,47,49,51,53,55,57,59,61,63,65,67,69,71,73,75,77,79,81,83,85,87,89,91,93,95,97,99,101,103,-1,105,107,-1,109,111,113,115,-1,-1,-1,-1,-1,-1,-1,-1,-1,-1,-1,-1,-1,-1,-1,-1,-1,-1,-1,-1,-1,-1,-1,-1,-1,-1,-1,-1,-1,-1,-1,-1,-1,-1,-1,-1,-1,-1,-1,-1,-1,-1,-1,-1,-1,-1,-1,-1,-1,-1,-1,-1,-1,-1,-1,-1],"loss_changes":[2.3861904E3,1.7391582E3,1.0389507E3,1.1052314E3,4.5439648E2,3.5676733E2,6.8904736E2,1.5938086E3,1.1378555E3,7.7798584E1,3.0462817E2,3.7052792E2,3.6914795E2,2.4262814E2,7.1534326E2,3.6599756E2,1.9734497E2,6.4082275E2,9.798784E2,2.974707E1,0E0,1.4139813E2,8.892322E1,2.3895753E2,2.8004785E2,3.1921704E2,7.304709E1,3.949286E1,3.2438812E1,1.0670693E3,5.2469543E2,1.2395669E3,2.5894226E2,4.8829834E1,1.5220471E2,4.2157886E2,1.2024146E3,5.8935986E2,3.9584033E2,6.168091E0,5.856842E0,5.5265625E1,1.717456E1,2.2449432E1,1.985498E1,3.3614008E2,2.177254E2,7.4650854E2,4.277176E2,3.099485E2,3.1602013E1,1.4034473E2,5.279087E1,0E0,2.0424957E0,1.7098846E1,0E0,8.3859814E2,3.8248807E2,1.3608337E1,2.9296912E2,0E0,0E0,0E0,0E0,0E0,0E0,0E0,0E0,0E0,0E0,0E0,0E0,0E0,0E0,0E0,0E0,0E0,0E0,0E0,0E0,0E0,0E0,0E0,0E0,0E0,0E0,0E0,0E0,0E0,0E0,0E0,0E0,0E0,0E0,0E0,0E0,0E0,0E0,0E0,0E0,0E0,0E0,0E0,0E0,0E0,0E0,0E0,0E0,0E0,0E0,0E0,0E0,0E0,0E0,0E0,0E0],"parents":[2147483647,0,0,1,1,2,2,3,3,4,4,5,5,6,6,7,7,8,8,9,9,10,10,11,11,12,12,13,13,14,14,15,15,16,16,17,17,18,18,19,19,21,21,22,22,23,23,24,24,25,25,26,26,27,27,28,28,29,29,30,30,31,31,32,32,33,33,34,34,35,35,36,36,37,37,38,38,39,39,40,40,41,41,42,42,43,43,44,44,45,45,46,46,47,47,48,48,49,49,50,50,51,51,52,52,54,54,55,55,57,57,58,58,59,59,60,60],"right_children":[2,4,6,8,10,12,14,16,18,20,22,24,26,28,30,32,34,36,38,40,-1,42,44,46,48,50,52,54,56,58,60,62,64,66,68,70,72,74,76,78,80,82,84,86,88,90,92,94,96,98,100,102,104,-1,106,108,-1,110,112,114,116,-1,-1,-1,-1,-1,-1,-1,-1,-1,-1,-1,-1,-1,-1,-1,-1,-1,-1,-1,-1,-1,-1,-1,-1,-1,-1,-1,-1,-1,-1,-1,-1,-1,-1,-1,-1,-1,-1,-1,-1,-1,-1,-1,-1,-1,-1,-1,-1,-1,-1,-1,-1,-1,-1,-1,-1],"split_conditions":[4.7136363E-1,5.2814996E-1,7.687193E-1,3.2681817E-1,4.4136363E-1,1.163714E-1,5.1657E-1,3.8275E-1,4.0749785E-1,5.2395433E-1,5.2904695E-1,8.076626E-1,9.9575E-1,4.724E-1,7.631818E-1,2.940909E-1,3.1227273E-1,8.4132993E-1,3.5681817E-1,8.8996166E-1,-1.2341341E0,5.707E-1,5.4555E-1,7.052019E-1,7.2318184E-1,5.57865E-1,2.653507E-1,1.55E-1,5.059091E-1,6.20188E-1,3.0723822E-1,3.49175E-1,5E-4,8.4412646E-1,4.1535002E-1,1.5995936E-1,3.5954547E-1,4.2825E-1,4.0136364E-1,8.8658667E-1,4.1029426E-1,5.705238E-1,3.9914984E-1,6.039823E-1,5.7379997E-1,5.5863637E-1,6.9759333E-1,5.700802E-1,6.4296E-1,8.6227274E-1,4.9965E-1,1.4734654E-1,2.8841367E-1,2.7261782E0,2.305E-1,5.017E-1,5.99476E-1,3.7805146E-1,8.219042E-1,8.690771E-1,6.0150003E-1,-1.9701727E-1,-9.102401E-1,-4.3662342E-1,-1.1843269E-1,-9.737386E-1,-6.841512E-1,-4.134272E-1,-8.222726E-1,-2.0334579E-2,-1.0574789E-1,4.015916E-2,8.447466E-1,-2.3445335E-1,-6.476884E-1,-1.874805E-1,-1.00333154E-1,-7.304397E-1,-9.450533E-1,-6.526756E-1,-3.5034186E-1,-3.1408435E-1,-1.6020858E-1,-3.867493E-1,-7.385812E-1,-6.5944827E-1,-3.7463075E-1,-8.9101475E-1,-1.4098195E0,-7.564896E-2,5.309575E-3,8.8500194E-2,-8.62232E-2,-2.0256032E-1,-3.8828313E-2,2.0557126E-2,-6.665236E-2,-7.356944E-2,-5.890524E-3,-6.465983E-2,1.1246783E-1,5.105037E-2,-9.694524E-2,1.6433683E-1,3.4954604E-2,3.067855E-1,1.2449465E0,3.8303605E-1,1.742731E-1,8.261894E-2,-1.733529E-1,-6.564193E-1,2.3027109E-2,-6.231837E-3,-4.024966E-1,-1.5313661E-1,-1.872972E-2],"split_indices":[0,1,5,0,0,5,1,1,1,3,3,2,2,1,0,0,0,5,0,5,0,1,1,3,0,5,5,1,0,3,3,1,2,5,1,5,0,1,0,5,3,4,3,3,1,0,2,3,1,0,1,5,5,0,1,1,0,3,5,5,2,0,0,0,0,0,0,0,0,0,0,0,0,0,0,0,0,0,0,0,0,0,0,0,0,0,0,0,0,0,0,0,0,0,0,0,0,0,0,0,0,0,0,0,0,0,0,0,0,0,0,0,0,0,0,0,0],"split_type":[0,0,0,0,0,0,0,0,0,0,0,0,0,0,0,0,0,0,0,0,0,0,0,0,0,0,0,0,0,0,0,0,0,0,0,0,0,0,0,0,0,0,0,0,0,0,0,0,0,0,0,0,0,0,0,0,0,0,0,0,0,0,0,0,0,0,0,0,0,0,0,0,0,0,0,0,0,0,0,0,0,0,0,0,0,0,0,0,0,0,0,0,0,0,0,0,0,0,0,0,0,0,0,0,0,0,0,0,0,0,0,0,0,0,0,0,0],"sum_hessian":[2.36143E5,6.4275E4,1.71868E5,6.2774E4,1.501E3,1.33118E5,3.875E4,1.4138E4,4.8636E4,2.93E2,1.208E3,6.3733E4,6.9385E4,2.01E2,3.8549E4,1.343E4,7.08E2,2.2601E4,2.6035E4,2.62E2,3.1E1,1.024E3,1.84E2,3.0628E4,3.3105E4,6.3965E4,5.42E3,1.6E1,1.85E2,2.4917E4,1.3632E4,4.996E3,8.434E3,2.44E2,4.64E2,2.1235E4,1.366E3,1.341E3,2.4694E4,2.25E2,3.7E1,9.38E2,8.6E1,1.29E2,5.5E1,2.5924E4,4.704E3,1.2762E4,2.0343E4,6.2862E4,1.103E3,2.305E3,3.115E3,2E0,1.4E1,1.47E2,3.8E1,2.0886E4,4.031E3,3.77E2,1.3255E4,4.767E3,2.29E2,2.36E2,8.198E3,1.34E2,1.1E2,3.56E2,1.08E2,1.2132E4,9.103E3,1.172E3,1.94E2,8.51E2,4.9E2,6.299E3,1.8395E4,1.98E2,2.7E1,1E1,2.7E1,6.13E2,3.25E2,2E1,6.6E1,8.7E1,4.2E1,4.2E1,1.3E1,6.007E3,1.9917E4,3.938E3,7.66E2,3.425E3,9.337E3,9.462E3,1.0881E4,5.6029E4,6.833E3,9.9E1,1.004E3,1.162E3,1.143E3,3.15E2,2.8E3,1E0,1.3E1,7.7E1,7E1,1.223E3,1.9663E4,7.5E1,3.956E3,8E0,3.69E2,1.669E3,1.1586E4],"tree_param":{"num_deleted":"0","num_feature":"6","num_nodes":"117","size_leaf_vector":"0"}},{"base_weights":[-1.7079224E-1,-3.3874238E-1,-1.3863866E-1,-3.0442366E-1,-1.4248059E0,-7.2487585E-2,-1.9327633E-1,-3.288023E-1,2.1519263E-1,1.1073432E0,-1.5160656E0,-8.7702215E-2,8.1319034E-2,-2.5718388E-1,-6.764902E-2,-3.912905E-1,-9.048033E-2,3.1392914E-1,-1.0123345E0,5.0118876E-1,1.1420083E0,-1.3644166E0,-2.4259617E0,-2.0457211E-1,-7.085802E-2,3.364604E-2,5.1456493E-1,2.4197385E-1,-2.6801854E-1,2.0479045E0,-7.0135444E-2,-5.070242E-1,-2.9396653E-1,-5.0314028E-2,-9.7512066E-1,2.377315E-1,1.1895026E0,-1.4828502E0,-8.005941E-1,-1.209278E0,-2.4153302E0,-3.3054976E0,-1.6013105E0,2.0582859E-1,-2.9291728E-1,2.5467974E-1,-8.826111E-2,1.1081919E-1,-2.2014423E-1,2.9036644E-1,1.3957269E0,4.63992E-1,-6.616033E-1,-3.9823902E-1,-2.0779493E-1,8.195391E0,1.7064075E0,-6.1184514E-1,-6.2134452E-2,-4.4863835E-1,-1.6913015E0,-1.4106615E-1,-4.2358953E-1,-1.3488045E-1,1.6034535E-1,-1.5666714E0,-3.0608302E-1,3.5344295E-2,4.537576E-1,2.3077345E0,-1.6962326E-1,-6.535142E-1,-9.816881E-1,-1.4939747E0,-9.196685E-1,-2.452816E0,-1.0400982E0,-3.287325E-1,-3.5559528E0,-6.377734E-1,-1.9987793E0,9.4623035E-1,-3.0768958E-1,7.040512E-1,-3.2012787E-1,-1.4999504E-1,3.7291393E-1,-2.4180222E-1,-6.433156E-2,-8.360976E-3,3.906043E-1,-1.4709023E-1,-9.3033373E-1,3.6112732E-1,-1.0631645E0,4.2639074E0,3.563312E-1,8.5380316E-2,9.367535E-1,-4.501385E-1,-1.0842607E0,-4.6713102E-1,8.08909E-3,-3.0945098E-1,-1.319968E-1,1.3743631E0,2.6315134E0,1.1471842E-3,-8.5255194E-1,-8.033933E-2,1.5235509E-1],"categories":[],"categories_nodes":[],"categories_segments":[],"categories_sizes":[],"default_left":[true,true,true,true,true,true,true,true,true,true,true,true,true,true,true,true,true,true,true,false,false,true,true,true,true,true,true,true,true,true,true,true,true,true,true,true,true,false,true,true,true,true,true,true,true,true,true,true,true,true,true,true,true,true,true,false,true,true,true,false,false,false,false,false,false,false,false,false,false,false,false,false,false,false,false,false,false,false,false,false,false,false,false,false,false,false,false,false,false,false,false,false,false,false,false,false,false,false,false,false,false,false,false,false,false,false,false,false,false,false,false],"id":8,"left_children":[1,3,5,7,9,11,13,15,17,19,21,23,25,27,29,31,33,35,37,-1,-1,39,41,43,45,47,49,51,53,55,57,59,61,63,65,67,69,-1,71,73,75,77,79,81,83,85,87,89,91,93,95,97,99,101,103,-1,105,107,109,-1,-1,-1,-1,-1,-1,-1,-1,-1,-1,-1,-1,-1,-1,-1,-1,-1,-1,-1,-1,-1,-1,-1,-1,-1,-1,-1,-1,-1,-1,-1,-1,-1,-1,-1,-1,-1,-1,-1,-1,-1,-1,-1,-1,-1,-1,-1,-1,-1,-1,-1,-1],"loss_changes":[1.2751768E3,1.4138257E3,7.163518E2,4.660205E2,2.7019727E2,2.0981207E2,8.7144775E2,5.232058E2,2.0017946E2,2.8914642E-1,1.5150879E2,1.6059406E2,1.6668214E2,3.8916357E2,1.9267082E2,3.1338623E2,2.5933984E2,1.0159352E2,1.1066986E1,0E0,0E0,1.542472E2,1.1003125E2,3.726726E2,4.0401956E2,1.4245229E2,1.5763889E2,3.070405E2,5.521592E2,7.628731E1,1.5841652E2,8.783518E2,2.996692E2,1.2443956E2,1.2497946E2,6.145558E1,1.8580922E2,0E0,1.6757202E0,6.804956E1,3.7896729E0,5.5492554E1,3.0895218E1,6.926532E2,2.2964801E2,1.7321204E2,2.4869629E2,1.859674E2,8.785533E1,6.158548E1,4.8143097E2,2.1972348E2,2.650383E1,6.2331885E2,3.7098657E2,0E0,9.284752E0,7.849834E1,1.4069276E2,0E0,0E0,0E0,0E0,0E0,0E0,0E0,0E0,0E0,0E0,0E0,0E0,0E0,0E0,0E0,0E0,0E0,0E0,0E0,0E0,0E0,0E0,0E0,0E0,0E0,0E0,0E0,0E0,0E0,0E0,0E0,0E0,0E0,0E0,0E0,0E0,0E0,0E0,0E0,0E0,0E0,0E0,0E0,0E0,0E0,0E0,0E0,0E0,0E0,0E0,0E0,0E0],"parents":[2147483647,0,0,1,1,2,2,3,3,4,4,5,5,6,6,7,7,8,8,9,9,10,10,11,11,12,12,13,13,14,14,15,15,16,16,17,17,18,18,21,21,22,22,23,23,24,24,25,25,26,26,27,27,28,28,29,29,30,30,31,31,32,32,33,33,34,34,35,35,36,36,38,38,39,39,40,40,41,41,42,42,43,43,44,44,45,45,46,46,47,47,48,48,49,49,50,50,51,51,52,52,53,53,54,54,56,56,57,57,58,58],"right_children":[2,4,6,8,10,12,14,16,18,20,22,24,26,28,30,32,34,36,38,-1,-1,40,42,44,46,48,50,52,54,56,58,60,62,64,66,68,70,-1,72,74,76,78,80,82,84,86,88,90,92,94,96,98,100,102,104,-1,106,108,110,-1,-1,-1,-1,-1,-1,-1,-1,-1,-1,-1,-1,-1,-1,-1,-1,-1,-1,-1,-1,-1,-1,-1,-1,-1,-1,-1,-1,-1,-1,-1,-1,-1,-1,-1,-1,-1,-1,-1,-1,-1,-1,-1,-1,-1,-1,-1,-1,-1,-1,-1,-1],"split_conditions":[3.9954546E-1,4.6394998E-1,2.0732269E-1,7.590128E-1,3.269415E-1,7.680478E-1,7.918861E-1,8.581482E-1,9.77E-1,4.908741E-1,5.3839195E-1,5.059091E-1,5.2590907E-1,3.20708E-1,3.72578E-1,3.368182E-1,4.488272E-1,7.758175E-1,3.05E-1,1.5035664E-1,3.426025E-1,5.0195E-1,8.650448E-1,6.3216245E-1,4.7568733E-1,5.0549996E-1,1.3636266E-1,6.9920003E-1,4.919263E-1,7.265E-2,2.9563797E-1,3.9765E-1,6.1527693E-1,3.4316885E-1,4.7160944E-1,8.240652E-1,3.666E-1,-4.4485506E-1,4.748197E-1,3.8227272E-1,8.9356995E-1,4.7864768E-1,8.861816E-1,4.3256766E-1,1.0045045E-3,2.624359E-1,5.85E-1,1.8478948E-1,1.7732048E-1,1.3178988E-1,1.4231582E-1,5.7772726E-1,8.8134384E-1,8.850579E-1,5.12567E-1,2.4586172E0,4.4045454E-1,7.1515E-1,7.5804996E-1,-1.345915E-1,-5.0739044E-1,-4.2319845E-2,-1.2707686E-1,-4.0464137E-2,4.8103604E-2,-4.7000143E-1,-9.182491E-2,1.0603289E-2,1.361273E-1,6.9232035E-1,-5.0886977E-2,-1.9605426E-1,-2.9450643E-1,-4.4819242E-1,-2.7590057E-1,-7.3584485E-1,-3.1202948E-1,-9.861975E-2,-1.0667859E0,-1.9133203E-1,-5.996338E-1,2.8386912E-1,-9.2306875E-2,2.1121536E-1,-9.6038364E-2,-4.4998515E-2,1.11874186E-1,-7.254067E-2,-1.929947E-2,-2.508293E-3,1.1718129E-1,-4.412707E-2,-2.7910012E-1,1.083382E-1,-3.1894934E-1,1.2791723E0,1.06899366E-1,2.5614096E-2,2.8102607E-1,-1.3504156E-1,-3.2527822E-1,-1.4013931E-1,2.426727E-3,-9.28353E-2,-3.959904E-2,4.1230893E-1,7.8945404E-1,3.4415527E-4,-2.557656E-1,-2.41018E-2,4.570653E-2],"split_indices":[0,1,5,2,3,3,2,3,2,4,3,0,0,3,1,0,5,5,0,0,0,1,5,3,1,2,5,1,3,1,3,1,3,1,5,2,1,0,3,0,5,4,5,1,2,2,0,2,5,5,5,0,5,5,4,0,0,1,1,0,0,0,0,0,0,0,0,0,0,0,0,0,0,0,0,0,0,0,0,0,0,0,0,0,0,0,0,0,0,0,0,0,0,0,0,0,0,0,0,0,0,0,0,0,0,0,0,0,0,0,0],"split_type":[0,0,0,0,0,0,0,0,0,0,0,0,0,0,0,0,0,0,0,0,0,0,0,0,0,0,0,0,0,0,0,0,0,0,0,0,0,0,0,0,0,0,0,0,0,0,0,0,0,0,0,0,0,0,0,0,0,0,0,0,0,0,0,0,0,0,0,0,0,0,0,0,0,0,0,0,0,0,0,0,0,0,0,0,0,0,0,0,0,0,0,0,0,0,0,0,0,0,0,0,0,0,0,0,0,0,0,0,0,0,0],"sum_hessian":[2.36143E5,3.7943E4,1.982E5,3.6782E4,1.161E3,8.9655E4,1.08545E5,3.5134E4,1.648E3,4E1,1.121E3,8.1585E4,8.07E3,7.1945E4,3.66E4,2.7835E4,7.299E3,1.526E3,1.22E2,3E0,3.7E1,9.63E2,1.58E2,1.0276E4,7.1309E4,7.271E3,7.99E2,1.528E3,7.0417E4,4.2E1,3.6558E4,1.2713E4,1.5122E4,6.983E3,3.16E2,1.405E3,1.21E2,3.6E1,8.6E1,8.41E2,1.22E2,7.5E1,8.3E1,1.82E3,8.456E3,3.618E3,6.7691E4,5.576E3,1.695E3,6.38E2,1.61E2,1.227E3,3.01E2,2.2266E4,4.8151E4,1E0,4.1E1,5.31E2,3.6027E4,1.2117E4,5.96E2,6.939E3,8.183E3,4.983E3,2E3,1.67E2,1.49E2,7.26E2,6.79E2,6.6E1,5.5E1,5E1,3.6E1,4.22E2,4.19E2,1.18E2,4E0,6E0,6.9E1,2.5E1,5.8E1,7.45E2,1.075E3,2.24E2,8.232E3,8.18E2,2.8E3,9.126E3,5.8565E4,3.911E3,1.665E3,1.538E3,1.57E2,6.07E2,3.1E1,4.2E1,1.19E2,6.82E2,5.45E2,2.02E2,9.9E1,1.9038E4,3.228E3,2.0566E4,2.7585E4,3.2E1,9E0,1.5E2,3.81E2,3.3209E4,2.818E3],"tree_param":{"num_deleted":"0","num_feature":"6","num_nodes":"111","size_leaf_vector":"0"}},{"base_weights":[-1.1955668E-1,-1.7588027E-1,-6.595661E-2,-1.6190755E-1,-1.3553349E0,3.7319877E-3,-1.24822184E-1,-6.661564E-2,-2.1320055E-1,-2.5758486E0,-1.0979756E0,-1.1045119E-2,5.182155E-1,-2.5766218E-1,-4.537276E-2,-4.0317375E-2,-2.8278306E-1,-2.5637373E-1,-6.4257674E-2,-2.7993205E0,-1.4556198E0,2.1498519E-1,-1.310188E0,5.3153315E0,-1.2330784E-2,1.2748258E0,2.612004E-1,-3.5085905E-1,1.1591071E-2,-3.9045297E-2,-7.6440305E-1,-7.08024E-2,2.5201628E-1,-6.472232E-2,-8.5213006E-1,-1.3655823E0,-2.496175E-1,2.8130505E-2,-2.5243095E-1,-2.4063516E0,-3.6368454E0,-1.5697182E0,-7.780075E-3,5.391535E-1,-1.6829947E0,-1.135862E0,-2.4763231E0,2.906159E0,8.588776E0,-1.3373647E0,-9.272368E-3,6.436281E-1,2.299909E0,8.544932E-1,-1.5834011E-1,-2.4061082E-1,-6.017113E-1,3.350267E-2,-1.2717937E0,-5.975817E-1,-3.247527E-2,-9.911963E-1,-3.1199646E-1,-9.666665E-2,1.5467334E-1,-2.7909648E-1,3.3571202E-1,1.1954046E-1,-1.9456564E-1,-1.350893E0,-3.3410493E-1,-6.9964236E-1,-2.1395268E0,-2.2316223E-1,-4.3462098E-1,1.588265E-1,-1.4863618E-1,5.9831995E-1,-2.996098E-1,-1.605464E0,-2.6497223E0,-1.3056076E0,-1.8876474E0,3.1466484E-3,-1.2471199E-2,6.121604E-1,6.8500463E-4,-9.962712E-1,-1.7737292E0,-3.4133093E0,-1.4842834E0,4.5571303E0,-5.1508055E0,8.89255E-1,-1.880646E0,9.252503E-2,-4.7845565E-2,2.7971992E0,3.0536643E-1,1.9273314E0,2.6613963E0,2.6036185E-1,1.2144846E0,-7.04686E-1,7.993809E-2,-3.4442762E-1,1.21315075E-2,-1.8960367E-1,-7.584143E-1,-7.610112E-2,1.6719398E-1,-8.545363E0,-1.1211371E0,-4.8018757E-1,-8.0022955E-1,-1.3480718E-2,-2.2322549E-1,-2.7014365E0,-8.8843375E-1,-4.0758008E-1,4.476482E-1],"categories":[],"categories_nodes":[],"categories_segments":[],"categories_sizes":[],"default_left":[true,true,true,true,true,true,true,true,true,true,true,true,true,true,true,true,true,true,true,true,true,true,true,true,true,true,true,true,true,true,true,true,true,true,true,true,true,true,true,true,false,true,true,true,false,true,true,true,false,true,true,true,true,true,true,true,true,true,true,true,true,true,true,false,false,false,false,false,false,false,false,false,false,false,false,false,false,false,false,false,false,false,false,false,false,false,false,false,false,false,false,false,false,false,false,false,false,false,false,false,false,false,false,false,false,false,false,false,false,false,false,false,false,false,false,false,false,false,false,false,false],"id":9,"left_children":[1,3,5,7,9,11,13,15,17,19,21,23,25,27,29,31,33,35,37,39,41,43,45,47,49,51,53,55,57,59,61,63,65,67,69,71,73,75,77,79,-1,81,83,85,-1,87,89,91,-1,93,95,97,99,101,103,105,107,109,111,113,115,117,119,-1,-1,-1,-1,-1,-1,-1,-1,-1,-1,-1,-1,-1,-1,-1,-1,-1,-1,-1,-1,-1,-1,-1,-1,-1,-1,-1,-1,-1,-1,-1,-1,-1,-1,-1,-1,-1,-1,-1,-1,-1,-1,-1,-1,-1,-1,-1,-1,-1,-1,-1,-1,-1,-1,-1,-1,-1,-1],"loss_changes":[7.128948E2,1.8974075E3,4.9636975E2,5.562134E2,4.2059277E2,4.212417E2,6.922608E2,2.2636987E2,4.75687E2,5.450464E1,3.1095032E2,3.6890265E2,3.0049704E2,6.1600073E2,1.8671463E2,3.164223E2,5.361583E2,4.2946582E2,2.890499E2,5.50979E1,6.7608337E0,9.6888725E1,1.9234338E2,7.756143E1,2.1821103E2,2.5215558E2,2.878757E2,5.041902E2,1.7757053E2,1.4929288E2,3.642253E1,1.8751773E2,1.491408E2,7.476586E1,3.0856128E2,1.773471E2,2.7891333E2,2.576649E2,2.199318E2,2.2059204E1,0E0,7.262802E-1,2.4427695E-4,5.267376E0,0E0,7.2759766E1,1.1019513E2,1.4318924E2,0E0,1.5167278E2,2.1096767E2,1.7689267E2,1.4938232E1,1.021333E2,8.831994E1,3.3245105E2,3.5936487E2,9.0979E1,1.0657539E2,1.0868256E1,1.4571182E2,3.9428116E1,8.968211E0,0E0,0E0,0E0,0E0,0E0,0E0,0E0,0E0,0E0,0E0,0E0,0E0,0E0,0E0,0E0,0E0,0E0,0E0,0E0,0E0,0E0,0E0,0E0,0E0,0E0,0E0,0E0,0E0,0E0,0E0,0E0,0E0,0E0,0E0,0E0,0E0,0E0,0E0,0E0,0E0,0E0,0E0,0E0,0E0,0E0,0E0,0E0,0E0,0E0,0E0,0E0,0E0,0E0,0E0,0E0,0E0,0E0,0E0],"parents":[2147483647,0,0,1,1,2,2,3,3,4,4,5,5,6,6,7,7,8,8,9,9,10,10,11,11,12,12,13,13,14,14,15,15,16,16,17,17,18,18,19,19,20,20,21,21,22,22,23,23,24,24,25,25,26,26,27,27,28,28,29,29,30,30,31,31,32,32,33,33,34,34,35,35,36,36,37,37,38,38,39,39,41,41,42,42,43,43,45,45,46,46,47,47,49,49,50,50,51,51,52,52,53,53,54,54,55,55,56,56,57,57,58,58,59,59,60,60,61,61,62,62],"right_children":[2,4,6,8,10,12,14,16,18,20,22,24,26,28,30,32,34,36,38,40,42,44,46,48,50,52,54,56,58,60,62,64,66,68,70,72,74,76,78,80,-1,82,84,86,-1,88,90,92,-1,94,96,98,100,102,104,106,108,110,112,114,116,118,120,-1,-1,-1,-1,-1,-1,-1,-1,-1,-1,-1,-1,-1,-1,-1,-1,-1,-1,-1,-1,-1,-1,-1,-1,-1,-1,-1,-1,-1,-1,-1,-1,-1,-1,-1,-1,-1,-1,-1,-1,-1,-1,-1,-1,-1,-1,-1,-1,-1,-1,-1,-1,-1,-1,-1,-1,-1,-1],"split_conditions":[6.040909E-1,6.364E-1,6.49645E-1,2.7950536E-2,5.6954545E-1,8.6819726E-1,7.722727E-1,5.2258825E-1,6.801791E-1,8.804195E-1,4.145767E-1,5E-4,8.73863E-1,5.891967E-1,8.44925E-1,5.55E-1,8.165976E-1,5E-4,6.43003E-1,8.728237E-1,8.866695E-1,5.415E-1,6.6485E-1,7.4136364E-1,3.2873726E-1,8.24E-1,5.439822E-1,7.0335E-1,7.3759997E-1,3.1581172E-1,8.865657E-1,8.9503413E-1,1.7061539E-1,3.165E-1,6.299238E-1,5.2539533E-1,5.6635E-1,8.354063E-1,1.5517369E-1,4.81E-1,-1.0910536E0,4.675E-1,5.6772727E-1,6.5115E-1,-5.048984E-1,5.3923327E-1,4.15E-1,7.218182E-1,2.5766327E0,7.740909E-1,5.686778E-1,6.0485005E-1,6.531818E-1,8.8501835E-1,5.993031E-1,8.723817E-1,6.2049997E-1,5.7192564E-1,6.8954545E-1,8.827555E-1,9.9762857E-1,4.5099998E-1,5.295E-1,-2.8999995E-2,4.6402004E-2,-8.372895E-2,1.0071361E-1,3.586214E-2,-5.8369692E-2,-4.0526792E-1,-1.0023148E-1,-2.0989272E-1,-6.418581E-1,-6.6948675E-2,-1.303863E-1,4.7647953E-2,-4.4590853E-2,1.7949599E-1,-8.988295E-2,-4.816392E-1,-7.9491675E-1,-3.916823E-1,-5.6629425E-1,9.4399456E-4,-3.7413598E-3,1.8364812E-1,2.055014E-4,-2.9888138E-1,-5.321188E-1,-1.0239929E0,-4.4528505E-1,1.3671391E0,-1.5452417E0,2.667765E-1,-5.6419384E-1,2.7757509E-2,-1.435367E-2,8.391598E-1,9.160993E-2,5.7819945E-1,7.9841894E-1,7.810856E-2,3.6434537E-1,-2.114058E-1,2.3981428E-2,-1.0332829E-1,3.6394524E-3,-5.6881104E-2,-2.2752431E-1,-2.2830335E-2,5.0158195E-2,-2.5636091E0,-3.3634114E-1,-1.4405628E-1,-2.4006887E-1,-4.0442157E-3,-6.696765E-2,-8.10431E-1,-2.6653013E-1,-1.22274026E-1,1.3429447E-1],"split_indices":[0,1,1,5,0,5,0,1,2,5,3,2,5,3,1,0,2,2,3,5,5,2,1,0,4,2,3,1,1,3,5,3,2,2,3,4,1,5,5,2,0,2,0,1,0,3,2,0,0,0,1,1,0,5,3,5,2,4,0,5,2,2,2,0,0,0,0,0,0,0,0,0,0,0,0,0,0,0,0,0,0,0,0,0,0,0,0,0,0,0,0,0,0,0,0,0,0,0,0,0,0,0,0,0,0,0,0,0,0,0,0,0,0,0,0,0,0,0,0,0,0],"split_type":[0,0,0,0,0,0,0,0,0,0,0,0,0,0,0,0,0,0,0,0,0,0,0,0,0,0,0,0,0,0,0,0,0,0,0,0,0,0,0,0,0,0,0,0,0,0,0,0,0,0,0,0,0,0,0,0,0,0,0,0,0,0,0,0,0,0,0,0,0,0,0,0,0,0,0,0,0,0,0,0,0,0,0,0,0,0,0,0,0,0,0,0,0,0,0,0,0,0,0,0,0,0,0,0,0,0,0,0,0,0,0,0,0,0,0,0,0,0,0,0,0],"sum_hessian":[2.36143E5,1.15145E5,1.20998E5,1.13798E5,1.347E3,5.5406E4,6.5592E4,3.9821E4,7.3977E4,2.33E2,1.114E3,5.386E4,1.546E3,2.4547E4,4.1045E4,3.5503E4,4.318E3,5.7352E4,1.6625E4,1.93E2,4E1,1.55E2,9.59E2,1.2E1,5.3848E4,3.91E2,1.155E3,1.8235E4,6.312E3,4.0688E4,3.57E2,3.2151E4,3.352E3,3.123E3,1.195E3,3.46E2,5.7006E4,1.1151E4,5.474E3,1.34E2,5.9E1,3.7E1,3E0,1.33E2,2.2E1,8.36E2,1.23E2,8E0,4E0,1.23E2,5.3725E4,2.43E2,1.48E2,4.78E2,6.77E2,1.2669E4,5.566E3,6.207E3,1.05E2,4.72E2,4.0216E4,2.37E2,1.2E2,2.8843E4,3.308E3,4.56E2,2.896E3,1.291E3,1.832E3,6.08E2,5.87E2,1.87E2,1.59E2,4.9876E4,7.13E3,6.411E3,4.74E3,2.87E2,5.187E3,3.3E1,1.01E2,2.3E1,1.4E1,1E0,2E0,1.17E2,1.6E1,6.88E2,1.48E2,6.2E1,6.1E1,7E0,1E0,2.4E1,9.9E1,1.4763E4,3.8962E4,3.2E1,2.11E2,7.6E1,7.2E1,1.81E2,2.97E2,2.05E2,4.72E2,8.98E3,3.689E3,1.534E3,4.032E3,3.411E3,2.796E3,1E0,1.04E2,3.01E2,1.71E2,3.6575E4,3.641E3,1.2E1,2.25E2,1.07E2,1.3E1],"tree_param":{"num_deleted":"0","num_feature":"6","num_nodes":"121","size_leaf_vector":"0"}},{"base_weights":[-8.37214E-2,-3.4197354E-1,-7.421229E-2,-2.366005E-1,-1.70652E0,-1.3139817E-1,-5.146831E-2,-3.8271683E-1,7.286538E-2,-2.1901374E0,-1.1697744E0,-9.20634E-2,-2.4130031E-1,-8.2680315E-2,1.7643994E-2,-5.660133E-1,-2.3696953E-1,1.7505603E-2,9.212391E-1,-1.6392064E0,-2.6810489E0,-6.066767E-1,-1.3844659E0,-1.6098963E-1,-2.667075E-2,-3.723792E-1,-8.510134E-2,-7.2681755E-2,-3.7252828E-1,5.6749705E-2,-7.42879E-2,-4.4755936E-1,-1.5423087E0,-3.0593282E-1,-3.4090728E-2,-5.346135E-1,1.21490814E-1,1.0594192E0,4.751829E-1,-2.5180552E0,-1.4362614E0,-3.1590545E0,-1.581555E0,-1.312093E-1,-7.404418E-1,-1.135614E0,-2.2074597E0,-4.6750903E-1,-9.2034474E-2,1.1637925E-1,-6.9718055E-2,-4.4943628E-1,4.020244E-1,3.7922114E-2,-2.2677724E-1,-6.675145E-2,-4.8295724E-1,-5.494713E-1,-2.5481353E-2,-6.024421E-1,6.294006E-2,-1.1599884E0,-5.870741E-2,-5.6625915E-1,-1.6063303E-1,-2.2946482E0,-1.1547871E0,-1.808645E-1,-6.9675463E-1,4.6972036E-1,-3.6988902E-1,8.444339E-1,-1.2701753E0,4.3707383E-1,-6.430361E-2,1.1588182E0,7.056359E-1,6.7014116E-1,1.6523147E-1,-1.2279583E0,-2.7554429E0,-1.2408128E0,-2.1684237E0,-3.2360828E0,-2.3175585E-1,-1.7281036E0,-3.9258474E-1,-1.9303524E-1,2.6287413E-1,-1.2055446E0,-5.5645907E-1,-9.263623E-1,-1.7885509E0,-2.5154848E0,-8.16218E-1,-2.509529E-1,-9.0059716E-1,-3.104765E-1,-5.2370142E-2,1.4576703E-1,-6.2579274E-1,-1.1708497E0,-5.0071415E-2,2.2161803E-1,-5.497274E-1,-1.6943102E-1,8.3425045E-1,1.0111066E-2,8.892429E-1,-4.7641742E-1,-2.9321168E-2,-1.4436193E-1,-3.644487E-2,-6.782884E-1,-2.0015213E-1,-2.1788989E-1,-9.330966E-1,-1.4008539E-2,-7.2635593E0,1.2885633E-2,-1.0763463E0,2.4556376E-1,3.7778035E-2,-6.038788E-1,-2.425472E0,-2.0738152E-1,1.9382523E-2],"categories":[],"categories_nodes":[],"categories_segments":[],"categories_sizes":[],"default_left":[true,true,true,true,true,true,true,true,true,true,true,true,true,true,true,true,true,true,true,true,true,true,true,true,true,true,true,true,true,true,true,true,true,true,true,true,true,true,true,true,true,true,true,true,true,true,true,true,true,true,true,true,true,true,true,true,true,true,true,true,true,true,true,false,false,false,false,false,false,false,false,false,false,false,false,false,false,false,false,false,false,false,false,false,false,false,false,false,false,false,false,false,false,false,false,false,false,false,false,false,false,false,false,false,false,false,false,false,false,false,false,false,false,false,false,false,false,false,false,false,false,false,false,false,false,false,false],"id":10,"left_children":[1,3,5,7,9,11,13,15,17,19,21,23,25,27,29,31,33,35,37,39,41,43,45,47,49,51,53,55,57,59,61,63,65,67,69,71,73,75,77,79,81,83,85,87,89,91,93,95,97,99,101,103,105,107,109,111,113,115,117,119,121,123,125,-1,-1,-1,-1,-1,-1,-1,-1,-1,-1,-1,-1,-1,-1,-1,-1,-1,-1,-1,-1,-1,-1,-1,-1,-1,-1,-1,-1,-1,-1,-1,-1,-1,-1,-1,-1,-1,-1,-1,-1,-1,-1,-1,-1,-1,-1,-1,-1,-1,-1,-1,-1,-1,-1,-1,-1,-1,-1,-1,-1,-1,-1,-1,-1],"loss_changes":[5.79885E2,1.2053889E3,2.962245E2,3.5209537E2,1.5344531E2,2.801411E2,3.5151068E2,1.4116138E2,1.1730438E2,8.079956E1,3.385617E1,2.1511865E2,3.4969128E2,3.2529785E2,1.8226308E2,2.7015277E2,4.123561E1,1.3475403E2,8.92691E0,2.331546E1,8.1721924E1,5.0545273E0,3.9887543E1,4.9107532E2,1.5083398E2,5.5436633E2,1.3587123E2,2.639886E2,2.2983441E2,1.4517781E2,2.5586713E2,7.1090485E1,7.1111694E1,1.0740871E2,1.2688875E2,3.7841998E2,1.1582941E2,3.2615204E0,2.1855202E0,4.885269E0,1.519693E1,2.4955322E1,8.382156E0,5.13671E-1,4.720131E0,2.0340286E1,1.8088089E1,3.9996692E2,1.643466E2,1.2367113E2,4.072576E2,5.686112E2,2.0786661E2,9.879147E1,1.7857445E2,2.5159741E2,8.5266266E1,3.15133E2,1.0494527E2,9.653558E1,1.6191576E2,1.491373E2,1.7318967E2,0E0,0E0,0E0,0E0,0E0,0E0,0E0,0E0,0E0,0E0,0E0,0E0,0E0,0E0,0E0,0E0,0E0,0E0,0E0,0E0,0E0,0E0,0E0,0E0,0E0,0E0,0E0,0E0,0E0,0E0,0E0,0E0,0E0,0E0,0E0,0E0,0E0,0E0,0E0,0E0,0E0,0E0,0E0,0E0,0E0,0E0,0E0,0E0,0E0,0E0,0E0,0E0,0E0,0E0,0E0,0E0,0E0,0E0,0E0,0E0,0E0,0E0,0E0,0E0],"parents":[2147483647,0,0,1,1,2,2,3,3,4,4,5,5,6,6,7,7,8,8,9,9,10,10,11,11,12,12,13,13,14,14,15,15,16,16,17,17,18,18,19,19,20,20,21,21,22,22,23,23,24,24,25,25,26,26,27,27,28,28,29,29,30,30,31,31,32,32,33,33,34,34,35,35,36,36,37,37,38,38,39,39,40,40,41,41,42,42,43,43,44,44,45,45,46,46,47,47,48,48,49,49,50,50,51,51,52,52,53,53,54,54,55,55,56,56,57,57,58,58,59,59,60,60,61,61,62,62],"right_children":[2,4,6,8,10,12,14,16,18,20,22,24,26,28,30,32,34,36,38,40,42,44,46,48,50,52,54,56,58,60,62,64,66,68,70,72,74,76,78,80,82,84,86,88,90,92,94,96,98,100,102,104,106,108,110,112,114,116,118,120,122,124,126,-1,-1,-1,-1,-1,-1,-1,-1,-1,-1,-1,-1,-1,-1,-1,-1,-1,-1,-1,-1,-1,-1,-1,-1,-1,-1,-1,-1,-1,-1,-1,-1,-1,-1,-1,-1,-1,-1,-1,-1,-1,-1,-1,-1,-1,-1,-1,-1,-1,-1,-1,-1,-1,-1,-1,-1,-1,-1,-1,-1,-1,-1,-1,-1],"split_conditions":[3.068182E-1,3.5755E-1,4.96262E-1,3.6575E-1,2.9954547E-1,5.397447E-1,6.85E-1,2.8772727E-1,9.0809417E-1,5.271324E-1,3.6465E-1,3.765123E-1,6.2136364E-1,6.5300286E-1,7.217667E-1,3.2903332E-1,4.840625E-1,4.892378E-1,5.257156E-1,2.8681818E-1,5.265312E-1,4.95E-2,5.717077E-1,7.6772726E-1,5.0975E-1,8.9253974E-1,6.826929E-1,8.952171E-1,6.044785E-1,3.953039E-1,7.4136364E-1,4.8064816E-1,2.7863637E-1,4.33675E-1,8.207159E-1,6.600648E-1,5.988538E-1,2.9863638E-1,4.4349998E-1,2.7863637E-1,3.6699998E-1,8.9941776E-1,8.816042E-1,5.5661047E-1,3.0227274E-1,3.9020002E-1,5.2928627E-1,6.356E-1,4.4838914E-1,9.137375E-1,4.4772726E-1,3.5015672E-1,4.059091E-1,8.824564E-1,7.386364E-1,1.8413393E-1,5.1549256E-1,8.6025333E-1,7.5125E-1,7.7772725E-1,5.78375E-1,6.8200004E-1,8.2045454E-1,-1.6987775E-1,-4.8189912E-2,-6.883945E-1,-3.4643614E-1,-5.4259352E-2,-2.090264E-1,1.4091611E-1,-1.1096671E-1,2.5333017E-1,-3.810526E-1,1.3112216E-1,-1.9291082E-2,3.476455E-1,2.1169078E-1,2.0104235E-1,4.9569443E-2,-3.6838752E-1,-8.266329E-1,-3.7224385E-1,-6.505271E-1,-9.708249E-1,-6.952676E-2,-5.184311E-1,-1.17775425E-1,-5.7910576E-2,7.886224E-2,-3.616634E-1,-1.6693772E-1,-2.7790868E-1,-5.365653E-1,-7.5464547E-1,-2.4486542E-1,-7.5285874E-2,-2.7017915E-1,-9.314296E-2,-1.5711043E-2,4.373011E-2,-1.8773784E-1,-3.512549E-1,-1.5021425E-2,6.648541E-2,-1.6491821E-1,-5.0829306E-2,2.5027514E-1,3.0333197E-3,2.6677287E-1,-1.4292523E-1,-8.796351E-3,-4.330858E-2,-1.0933461E-2,-2.0348653E-1,-6.004564E-2,-6.536697E-2,-2.7992898E-1,-4.202562E-3,-2.1790679E0,3.86569E-3,-3.229039E-1,7.366913E-2,1.1333411E-2,-1.8116364E-1,-7.2764164E-1,-6.2214456E-2,5.814757E-3],"split_indices":[0,1,3,2,0,4,0,0,5,4,1,5,0,1,1,1,5,3,3,0,3,2,4,0,1,5,1,5,3,4,0,5,0,5,5,5,3,0,2,0,2,5,5,4,0,1,3,1,4,5,0,3,0,5,0,2,4,5,1,0,1,2,0,0,0,0,0,0,0,0,0,0,0,0,0,0,0,0,0,0,0,0,0,0,0,0,0,0,0,0,0,0,0,0,0,0,0,0,0,0,0,0,0,0,0,0,0,0,0,0,0,0,0,0,0,0,0,0,0,0,0,0,0,0,0,0,0],"split_type":[0,0,0,0,0,0,0,0,0,0,0,0,0,0,0,0,0,0,0,0,0,0,0,0,0,0,0,0,0,0,0,0,0,0,0,0,0,0,0,0,0,0,0,0,0,0,0,0,0,0,0,0,0,0,0,0,0,0,0,0,0,0,0,0,0,0,0,0,0,0,0,0,0,0,0,0,0,0,0,0,0,0,0,0,0,0,0,0,0,0,0,0,0,0,0,0,0,0,0,0,0,0,0,0,0,0,0,0,0,0,0,0,0,0,0,0,0,0,0,0,0,0,0,0,0,0,0],"sum_hessian":[2.36143E5,8.385E3,2.27758E5,7.785E3,6E2,6.4807E4,1.62951E5,5.288E3,2.497E3,3.14E2,2.86E2,4.7727E4,1.708E4,1.12255E5,5.0696E4,2.341E3,2.947E3,2.345E3,1.52E2,1.5E2,1.64E2,8E1,2.06E2,2.3235E4,2.4492E4,9.286E3,7.794E3,1.08513E5,3.742E3,3.5567E4,1.5129E4,2.089E3,2.52E2,2.199E3,7.48E2,3.71E2,1.974E3,1.15E2,3.7E1,2.6E1,1.24E2,1.13E2,5.1E1,1.8E1,6.2E1,1.6E2,4.6E1,4.266E3,1.8969E4,5.665E3,1.8827E4,8.446E3,8.4E2,4.172E3,3.622E3,1.06968E5,1.545E3,2.478E3,1.264E3,3.3E2,3.5237E4,2.13E2,1.4916E4,1.477E3,6.12E2,8.4E1,1.68E2,1.667E3,5.32E2,2.99E2,4.49E2,1.29E2,2.42E2,7.31E2,1.243E3,8.8E1,2.7E1,2.2E1,1.5E1,5E0,2.1E1,1E2,2.4E1,1.1E2,3E0,4.5E1,6E0,1.6E1,2E0,1.6E1,4.6E1,1.23E2,3.7E1,3.7E1,9E0,2.845E3,1.421E3,2.914E3,1.6055E4,5.45E3,2.15E2,3.29E2,1.8498E4,1.098E3,7.348E3,3.62E2,4.78E2,4.041E3,1.31E2,1.599E3,2.023E3,3.0039E4,7.6929E4,9.13E2,6.32E2,1.33E3,1.148E3,1.263E3,1E0,1.44E2,1.86E2,4.266E3,3.0971E4,1.49E2,6.4E1,5.136E3,9.78E3],"tree_param":{"num_deleted":"0","num_feature":"6","num_nodes":"127","size_leaf_vector":"0"}},{"base_weights":[-5.8654536E-2,-1.2688842E-1,-3.8391583E-2,-9.5401615E-2,-8.7132E-1,2.6887915E-1,-4.3846294E-2,-1.0975544E-1,2.6372954E-1,8.491278E-1,-9.5044875E-1,1.8773036E-1,2.71264E0,3.9683683E-3,-6.697817E-2,-1.4306521E-1,2.4212262E-2,3.2305568E-1,-4.9500906E-1,1.073083E0,1.6121332E-1,-1.2179507E0,-6.7242503E-1,-1.6249363E-1,2.8611162E-1,3.0296245E0,3.094679E-1,1.4071573E-1,-3.6936242E-2,-9.879781E-1,-5.4591503E-2,-2.5162458E-1,-7.414695E-2,4.8547495E-2,-5.651448E-1,5.7507116E-1,2.280052E-1,-3.3636647E-1,-8.18639E-1,7.1093386E-1,1.1326709E0,3.07538E-1,-1.014347E0,-6.6448766E-1,-1.3970361E0,-5.4372305E-1,-1.3962913E0,-6.4099497E-1,-5.2577883E-2,5.4100597E-1,1.3237202E-1,-7.054917E-1,3.1225305E0,1.8356432E-1,-2.05148E-1,-1.4906451E-1,-5.5528227E-3,-6.131645E-1,-1.8408052E0,-1.1563086E-1,-8.255908E-3,-2.851092E-1,3.5892057E-1,-8.165265E-3,-1.8117516E-1,7.644932E-2,-2.1111849E-1,3.1537572E-1,-8.3442706E-1,4.7101063E-1,1.6570021E0,3.5810733E-1,1.42927095E-2,-4.027678E-1,6.233209E-2,-7.3657143E-1,-1.5167224E0,4.2990276E-1,-3.3567566E-2,-9.707627E-1,6.5965945E-1,-1.2438604E0,-2.4909596E0,-2.4634879E0,-4.82175E-1,-1.2001165E0,-2.8227258E0,-6.6297084E-1,4.8100635E-1,2.0644127E-1,-1.9657278E-1,7.13607E-1,6.1222184E-2,-2.7686474E-1,2.5773698E-1,5.8895044E0,2.9555843E0,4.392022E-2,3.3130488E-1,6.4237785E0,-2.1845539E-1,-1.2614323E-1,-1.297695E0,6.6708304E-2,-1.0193428E-1,-4.2790478E-1,-1.3072473E0,-1.5454409E0,-3.5258894E0,-9.033571E-2,-6.1949724E-1,5.3469396E-1,-1.5166233E-2],"categories":[],"categories_nodes":[],"categories_segments":[],"categories_sizes":[],"default_left":[true,true,true,true,true,true,true,true,true,true,true,true,true,true,true,true,true,true,true,true,true,true,true,true,true,true,false,true,true,true,true,true,true,true,true,true,true,true,true,false,false,true,false,true,true,true,true,true,true,true,true,false,true,true,true,true,true,true,true,true,true,false,false,false,false,false,false,false,false,false,false,false,false,false,false,false,false,false,false,false,false,false,false,false,false,false,false,false,false,false,false,false,false,false,false,false,false,false,false,false,false,false,false,false,false,false,false,false,false,false,false,false,false],"id":11,"left_children":[1,3,5,7,9,11,13,15,17,19,21,23,25,27,29,31,33,35,37,39,41,43,45,47,49,51,-1,53,55,57,59,61,63,65,67,69,71,73,75,-1,-1,77,-1,79,81,83,85,87,89,91,93,-1,95,97,99,101,103,105,107,109,111,-1,-1,-1,-1,-1,-1,-1,-1,-1,-1,-1,-1,-1,-1,-1,-1,-1,-1,-1,-1,-1,-1,-1,-1,-1,-1,-1,-1,-1,-1,-1,-1,-1,-1,-1,-1,-1,-1,-1,-1,-1,-1,-1,-1,-1,-1,-1,-1,-1,-1,-1,-1],"loss_changes":[3.2649255E2,1.2672821E3,3.051845E2,2.6744492E2,2.9949146E2,6.293177E2,1.9787244E2,2.2260309E2,8.991591E1,1.4771019E1,1.5521313E2,1.0599712E2,7.676276E1,3.2628537E2,1.3754348E3,2.9887622E2,1.4250226E2,4.4184143E1,7.169155E0,7.700653E-1,4.6122866E0,1.0492871E2,9.529196E1,3.546781E1,9.40172E1,3.3434265E1,0E0,1.9908203E2,1.5800438E2,5.1031323E2,3.364869E2,3.172481E2,1.7257726E2,6.914217E1,9.368395E1,5.61882E1,3.739186E1,2.6460419E0,1.5754547E0,0E0,0E0,9.744346E-1,0E0,1.0730089E2,1.3195703E2,1.0243649E2,3.9986115E1,3.4256744E0,2.0554173E1,7.473483E1,7.6975975E1,0E0,2.3243408E1,2.465477E2,1.3204782E2,2.5835175E2,2.44347E2,1.4255637E2,2.3743518E2,6.5429156E2,2.537644E2,0E0,0E0,0E0,0E0,0E0,0E0,0E0,0E0,0E0,0E0,0E0,0E0,0E0,0E0,0E0,0E0,0E0,0E0,0E0,0E0,0E0,0E0,0E0,0E0,0E0,0E0,0E0,0E0,0E0,0E0,0E0,0E0,0E0,0E0,0E0,0E0,0E0,0E0,0E0,0E0,0E0,0E0,0E0,0E0,0E0,0E0,0E0,0E0,0E0,0E0,0E0,0E0],"parents":[2147483647,0,0,1,1,2,2,3,3,4,4,5,5,6,6,7,7,8,8,9,9,10,10,11,11,12,12,13,13,14,14,15,15,16,16,17,17,18,18,19,19,20,20,21,21,22,22,23,23,24,24,25,25,27,27,28,28,29,29,30,30,31,31,32,32,33,33,34,34,35,35,36,36,37,37,38,38,41,41,43,43,44,44,45,45,46,46,47,47,48,48,49,49,50,50,52,52,53,53,54,54,55,55,56,56,57,57,58,58,59,59,60,60],"right_children":[2,4,6,8,10,12,14,16,18,20,22,24,26,28,30,32,34,36,38,40,42,44,46,48,50,52,-1,54,56,58,60,62,64,66,68,70,72,74,76,-1,-1,78,-1,80,82,84,86,88,90,92,94,-1,96,98,100,102,104,106,108,110,112,-1,-1,-1,-1,-1,-1,-1,-1,-1,-1,-1,-1,-1,-1,-1,-1,-1,-1,-1,-1,-1,-1,-1,-1,-1,-1,-1,-1,-1,-1,-1,-1,-1,-1,-1,-1,-1,-1,-1,-1,-1,-1,-1,-1,-1,-1,-1,-1,-1,-1,-1,-1],"split_conditions":[4.440909E-1,4.975E-1,4.2131668E-1,8.161E-1,3.2308993E-1,3.7837481E-1,5.6745E-1,8.4830797E-1,9.95E-1,5.157667E-1,4.2863637E-1,4.8824108E-1,8.91E-1,5.6434166E-1,5.1863635E-1,1.734558E-1,4.488272E-1,3.7414998E-1,4.781436E-1,4.2136362E-1,5.3499997E-1,1.855E-1,5.3565E-1,3.8381314E-1,5.393734E-1,1.709662E-1,9.284037E-2,7.6863635E-1,4.9045455E-1,4.820968E-1,7.3318183E-1,8.904959E-1,6.3950884E-1,4.7685367E-1,1.7449999E-1,7.755319E-1,6.648607E-1,4.1772726E-1,3.85E-1,2.1328017E-1,3.3980128E-1,5.2250004E-1,-3.043041E-1,5.673156E-1,5.231334E-1,2.05E-2,5.197543E-1,8.8538706E-1,4.6136364E-1,6.064217E-1,2.135E-1,-2.1164753E-1,1.00099996E-1,5.0772727E-1,9E-2,5.3886247E-1,7.10641E-1,5.9575E-1,5.968857E-1,7.0334256E-1,4.355E-1,-8.553276E-2,1.0767618E-1,-2.4495798E-3,-5.4352548E-2,2.2934796E-2,-6.333555E-2,9.461272E-2,-2.5032812E-1,1.413032E-1,4.9710065E-1,1.074322E-1,4.287813E-3,-1.2083035E-1,1.8699627E-2,-2.2097144E-1,-4.5501676E-1,1.2897083E-1,-1.007027E-2,-2.9122883E-1,1.9789784E-1,-3.7315813E-1,-7.472879E-1,-7.390464E-1,-1.446525E-1,-3.6003497E-1,-8.468178E-1,-1.9889127E-1,1.443019E-1,6.193238E-2,-5.8971837E-2,2.140821E-1,1.8366655E-2,-8.305942E-2,7.73211E-2,1.7668514E0,8.866753E-1,1.3176066E-2,9.939147E-2,1.9271337E0,-6.553662E-2,-3.784297E-2,-3.8930854E-1,2.0012492E-2,-3.0580284E-2,-1.2837145E-1,-3.921742E-1,-4.636323E-1,-1.0577669E0,-2.7100714E-2,-1.8584917E-1,1.604082E-1,-4.5498703E-3],"split_indices":[0,1,1,2,3,5,1,3,2,1,0,4,2,3,0,2,5,1,3,0,1,2,1,4,4,2,0,0,0,3,0,5,3,2,2,5,3,0,0,0,0,1,0,4,3,2,3,3,0,2,2,0,1,0,2,1,2,1,1,1,2,0,0,0,0,0,0,0,0,0,0,0,0,0,0,0,0,0,0,0,0,0,0,0,0,0,0,0,0,0,0,0,0,0,0,0,0,0,0,0,0,0,0,0,0,0,0,0,0,0,0,0,0],"split_type":[0,0,0,0,0,0,0,0,0,0,0,0,0,0,0,0,0,0,0,0,0,0,0,0,0,0,0,0,0,0,0,0,0,0,0,0,0,0,0,0,0,0,0,0,0,0,0,0,0,0,0,0,0,0,0,0,0,0,0,0,0,0,0,0,0,0,0,0,0,0,0,0,0,0,0,0,0,0,0,0,0,0,0,0,0,0,0,0,0,0,0,0,0,0,0,0,0,0,0,0,0,0,0,0,0,0,0,0,0,0,0,0,0],"sum_hessian":[2.36143E5,5.4068E4,1.82075E5,5.1875E4,2.193E3,3.175E3,1.789E5,4.9882E4,1.993E3,9.6E1,2.097E3,3.074E3,1.01E2,5.833E4,1.2057E5,3.9949E4,9.933E3,1.849E3,1.44E2,7.2E1,2.4E1,1.067E3,1.03E3,6.74E2,2.4E3,8.9E1,1.2E1,1.343E4,4.49E4,1.599E3,1.18971E5,1.5512E4,2.4437E4,9.54E3,3.93E2,5.05E2,1.344E3,9.8E1,4.6E1,1.2E1,6E1,2.2E1,2E0,2.62E2,8.05E2,8.76E2,1.54E2,1.25E2,5.49E2,9.02E2,1.498E3,2E0,8.7E1,1.195E4,1.48E3,9.818E3,3.5082E4,1.112E3,4.87E2,5.1339E4,6.7632E4,1.4706E4,8.06E2,1.5118E4,9.319E3,8.615E3,9.25E2,9.2E1,3.01E2,4.62E2,4.3E1,8.35E2,5.09E2,8.4E1,1.4E1,4.3E1,3E0,1.6E1,6E0,2.13E2,4.9E1,7.08E2,9.7E1,2.6E1,8.5E2,1.37E2,1.7E1,1.23E2,2E0,1.96E2,3.53E2,6.63E2,2.39E2,3.51E2,1.147E3,3E0,8.4E1,6.144E3,5.806E3,2E0,1.478E3,9.627E3,1.91E2,2.005E4,1.5032E4,8.79E2,2.33E2,4.16E2,7.1E1,4.8886E4,2.453E3,8.49E2,6.6783E4],"tree_param":{"num_deleted":"0","num_feature":"6","num_nodes":"113","size_leaf_vector":"0"}},{"base_weights":[-4.10626E-2,-1.4384466E-1,-3.031445E-2,-1.14060745E-1,-1.0845201E0,1.2836424E-1,-3.8371496E-2,-5.90607E-3,-2.151565E-1,-3.01262E-1,-1.3012877E0,9.853509E-2,2.7315805E0,-1.5692736E-1,-2.8461382E-2,-8.681375E-2,1.4633735E-1,-9.329168E-1,-1.6816826E-1,-1.2834579E0,-1.8262202E-1,-2.2997305E0,-1.1516206E0,1.0458282E0,6.0424987E-2,2.9068527E0,1.1057985E0,-9.270717E-2,-8.009596E-1,4.119134E-2,-4.3574713E-2,-3.0501786E-1,-3.626498E-2,1.1782665E-1,5.47246E-1,-6.299415E-1,-1.8669479E0,-5.217931E-2,-4.0801698E-1,-5.15242E-1,-2.197558E0,-1.340196E0,-8.9301676E-2,-9.585601E-1,-1.8455582E0,-3.383415E-1,1.5948224E0,1.4201774E-2,4.9203753E-1,6.1104183E0,2.8172953E0,3.053681E-2,-2.8813925E-1,4.827134E-1,-8.677296E-1,3.46091E-1,-1.4060605E-2,-1.5972137E-1,-2.177609E-2,-2.1667852E0,-2.7239817E-1,1.6505872E-1,-1.2341278E-1,1.5020733E-1,-1.2790164E0,1.0039464E0,-2.033227E-1,-8.6354643E-1,-3.790733E-1,-2.167463E0,-1.2437085E0,-2.8829023E-1,4.6813373E-2,-5.467769E-1,7.636064E-2,-1.3076305E0,1.7695414E0,-2.73655E0,-5.667184E-1,9.786353E-1,-1.6034533E-1,-1.4767696E0,-8.0768603E-1,-4.804013E-1,-2.7704086E0,2.0203125E0,-5.1316124E-1,2.6444435E0,7.5961816E-1,5.3335214E-1,-1.0629368E-2,3.1229147E-1,2.271446E0,3.0235174E0,9.842982E-1,2.9504198E-1,-1.2509106E-1,-3.9877793E-1,9.1090566E-4,1.207856E0,3.7145948E-1,-7.472641E-1,-1.26069E0,9.116812E-1,2.589896E-1,-6.71221E-2,1.5103702E-1,-1.0459396E-1,-1.0244824E0,2.062422E-2,-5.4694865E-2],"categories":[],"categories_nodes":[],"categories_segments":[],"categories_sizes":[],"default_left":[true,true,true,true,true,true,true,true,true,true,true,true,true,true,true,true,true,true,true,true,true,false,true,true,true,true,false,true,true,true,true,true,true,true,true,true,true,true,true,true,true,false,true,true,true,true,true,true,true,false,true,true,true,true,true,true,true,true,true,false,false,false,false,false,false,false,false,false,false,false,false,false,false,false,false,false,false,false,false,false,false,false,false,false,false,false,false,false,false,false,false,false,false,false,false,false,false,false,false,false,false,false,false,false,false,false,false,false,false,false,false],"id":12,"left_children":[1,3,5,7,9,11,13,15,17,19,21,23,25,27,29,31,33,35,37,39,41,-1,43,45,47,49,-1,51,53,55,57,59,61,63,65,67,69,71,73,75,77,-1,79,81,83,85,87,89,91,-1,93,95,97,99,101,103,105,107,109,-1,-1,-1,-1,-1,-1,-1,-1,-1,-1,-1,-1,-1,-1,-1,-1,-1,-1,-1,-1,-1,-1,-1,-1,-1,-1,-1,-1,-1,-1,-1,-1,-1,-1,-1,-1,-1,-1,-1,-1,-1,-1,-1,-1,-1,-1,-1,-1,-1,-1,-1,-1],"loss_changes":[2.6086795E2,6.2622424E2,2.7333026E2,2.3694897E2,1.16080505E2,8.0195056E2,2.3904001E2,1.2899094E2,3.7761127E2,1.7244766E1,7.759766E1,3.6871298E2,3.0125305E1,6.4906885E2,1.9765912E2,7.541173E1,4.1472816E1,1.9351996E2,2.9247607E2,1.0103346E1,1.446372E1,0E0,6.106378E1,3.007005E2,1.9592705E2,1.2910034E1,0E0,3.4378583E2,1.2238544E2,5.639853E2,3.9062866E2,7.750888E1,9.74473E1,1.5370518E2,8.281532E1,3.0205368E1,2.876947E1,1.6568312E2,2.3037799E2,2.0418268E1,4.602215E0,0E0,9.716557E0,2.7657257E1,1.2618826E2,4.763108E1,2.4608264E2,1.1437547E2,3.0314023E2,0E0,3.6336426E1,3.6038983E2,1.7653064E2,5.279253E0,6.3106506E1,2.5278223E2,2.483041E2,1.162185E3,1.8132233E2,0E0,0E0,0E0,0E0,0E0,0E0,0E0,0E0,0E0,0E0,0E0,0E0,0E0,0E0,0E0,0E0,0E0,0E0,0E0,0E0,0E0,0E0,0E0,0E0,0E0,0E0,0E0,0E0,0E0,0E0,0E0,0E0,0E0,0E0,0E0,0E0,0E0,0E0,0E0,0E0,0E0,0E0,0E0,0E0,0E0,0E0,0E0,0E0,0E0,0E0,0E0,0E0],"parents":[2147483647,0,0,1,1,2,2,3,3,4,4,5,5,6,6,7,7,8,8,9,9,10,10,11,11,12,12,13,13,14,14,15,15,16,16,17,17,18,18,19,19,20,20,22,22,23,23,24,24,25,25,27,27,28,28,29,29,30,30,31,31,32,32,33,33,34,34,35,35,36,36,37,37,38,38,39,39,40,40,42,42,43,43,44,44,45,45,46,46,47,47,48,48,50,50,51,51,52,52,53,53,54,54,55,55,56,56,57,57,58,58],"right_children":[2,4,6,8,10,12,14,16,18,20,22,24,26,28,30,32,34,36,38,40,42,-1,44,46,48,50,-1,52,54,56,58,60,62,64,66,68,70,72,74,76,78,-1,80,82,84,86,88,90,92,-1,94,96,98,100,102,104,106,108,110,-1,-1,-1,-1,-1,-1,-1,-1,-1,-1,-1,-1,-1,-1,-1,-1,-1,-1,-1,-1,-1,-1,-1,-1,-1,-1,-1,-1,-1,-1,-1,-1,-1,-1,-1,-1,-1,-1,-1,-1,-1,-1,-1,-1,-1,-1,-1,-1,-1,-1,-1,-1],"split_conditions":[3.531818E-1,4.2115E-1,3.854909E-1,3.1583214E-1,8.234539E-1,7.87444E-1,4.259091E-1,3.0984092E-1,2.8863636E-1,2.8772727E-1,8.313365E-1,1.6574713E-3,8.8338107E-1,4.8775E-1,5.0831664E-1,2.8318182E-1,7.670988E-1,3.4375E-1,5.989233E-1,2.8318182E-1,4.1799262E-1,-6.899192E-1,6.222921E-1,5.2622867E-1,6.62619E-1,7.265E-2,3.3173954E-1,6.3917446E-1,3.2666346E-1,5.987935E-1,5.722727E-1,1.0769231E-3,4.9987502E-2,6.623011E-1,5.0936496E-1,2.505E-1,8.996686E-1,3.0863637E-1,8.7608075E-1,2.8227273E-1,2.859091E-1,-4.020588E-1,2.8954545E-1,8.4212214E-1,8.7254274E-1,6.752424E-1,5.568552E-1,6.164181E-1,9.4664246E-1,1.8331256E0,7.8375E-1,4.33325E-1,8.344682E-1,4.2049998E-1,4.9998477E-1,4.6105E-1,5.3318185E-1,6.110059E-1,6.384393E-1,-6.500356E-1,-8.171946E-2,4.9517617E-2,-3.7023835E-2,4.50622E-2,-3.8370493E-1,3.0118394E-1,-6.099681E-2,-2.5906393E-1,-1.1372199E-1,-6.5023893E-1,-3.7311256E-1,-8.648707E-2,1.4044012E-2,-1.6403307E-1,2.2908194E-2,-3.922892E-1,5.3086245E-1,-8.2096505E-1,-1.7001553E-1,2.935906E-1,-4.81036E-2,-4.430309E-1,-2.4230582E-1,-1.441204E-1,-8.3112264E-1,6.0609376E-1,-1.5394838E-1,7.933331E-1,2.2788545E-1,1.6000564E-1,-3.1888105E-3,9.3687445E-2,6.814338E-1,9.0705526E-1,2.952895E-1,8.85126E-2,-3.752732E-2,-1.19633384E-1,2.732717E-4,3.6235684E-1,1.1143785E-1,-2.2417924E-1,-3.78207E-1,2.7350438E-1,7.769688E-2,-2.0136632E-2,4.531111E-2,-3.137819E-2,-3.0734473E-1,6.187266E-3,-1.640846E-2],"split_indices":[0,1,1,1,5,5,0,2,0,0,5,2,5,1,1,0,5,1,3,0,3,0,4,4,4,1,0,3,3,3,0,2,2,5,4,2,5,0,3,0,0,0,0,5,5,3,4,3,3,0,2,1,3,2,3,1,0,1,1,0,0,0,0,0,0,0,0,0,0,0,0,0,0,0,0,0,0,0,0,0,0,0,0,0,0,0,0,0,0,0,0,0,0,0,0,0,0,0,0,0,0,0,0,0,0,0,0,0,0,0,0],"split_type":[0,0,0,0,0,0,0,0,0,0,0,0,0,0,0,0,0,0,0,0,0,0,0,0,0,0,0,0,0,0,0,0,0,0,0,0,0,0,0,0,0,0,0,0,0,0,0,0,0,0,0,0,0,0,0,0,0,0,0,0,0,0,0,0,0,0,0,0,0,0,0,0,0,0,0,0,0,0,0,0,0,0,0,0,0,0,0,0,0,0,0,0,0,0,0,0,0,0,0,0,0,0,0,0,0,0,0,0,0,0,0],"sum_hessian":[2.36143E5,2.2355E4,2.13788E5,2.167E4,6.85E2,1.033E4,2.03458E5,1.047E4,1.12E4,1.49E2,5.36E2,1.0214E4,1.16E2,1.5694E4,1.87764E5,6.837E3,3.633E3,6.87E2,1.0513E4,1.5E1,1.34E2,6.8E1,4.68E2,3.94E2,9.82E3,1.04E2,1.2E1,1.4272E4,1.422E3,3.3477E4,1.54287E5,1.285E3,5.552E3,3.393E3,2.4E2,5.2E2,1.67E2,7.087E3,3.426E3,9E0,6E0,9E0,1.25E2,3.68E2,1E2,1.12E2,2.82E2,8.871E3,9.49E2,1E0,1.03E2,8.753E3,5.519E3,7E1,1.352E3,5.135E3,2.8342E4,2.438E4,1.29907E5,2.1E1,1.264E3,1.677E3,3.875E3,3.317E3,7.6E1,1.49E2,9.1E1,2.68E2,2.52E2,1.11E2,5.6E1,2.093E3,4.994E3,2.663E3,7.63E2,7E0,2E0,4E0,2E0,7E0,1.18E2,8.1E1,2.87E2,4.1E1,5.9E1,7E0,1.05E2,1.24E2,1.58E2,4.04E2,8.467E3,8.63E2,8.6E1,9.2E1,1.1E1,3.242E3,5.511E3,3.991E3,1.528E3,8E0,6.2E1,1.037E3,3.15E2,6.84E2,4.451E3,2.1449E4,6.893E3,2.292E4,1.46E3,5.6777E4,7.313E4],"tree_param":{"num_deleted":"0","num_feature":"6","num_nodes":"111","size_leaf_vector":"0"}},{"base_weights":[-2.8744597E-2,-9.932247E-2,-1.7202588E-2,-6.26638E-2,-5.2809554E-1,8.494523E-2,-3.0741336E-2,-8.2599804E-2,1.2413664E-1,-3.9728728E-1,-1.0126666E0,4.901949E-2,1.3282686E0,-1.2930085E-1,-1.7053938E-2,-5.2857623E-2,-3.28779E-1,1.129613E0,-6.07078E-2,-3.3537632E-1,-1.352986E0,-7.511386E-1,-1.5955647E0,4.6712804E-1,1.952899E-2,2.3592849E0,7.202181E-1,-9.6636765E-2,-1.0636815E0,-1.9198967E-2,5.07394E-1,-7.995732E-2,3.198881E-1,-1.0726528E0,-2.3756284E-1,2.2193089E-1,2.4557831E0,1.2052158E-2,-6.9626766E-1,3.4574696E-1,-4.019857E-1,1.124431E-1,-2.2374425E0,-1.2244724E0,-4.503881E-1,-2.3006382E0,-1.0841215E0,2.8871684E0,4.1151747E-1,-2.2211605E-1,8.5658066E-2,1.25025E0,2.943923E0,-3.6714647E-2,1.4737376E0,-2.3311171E-1,-2.5042354E-3,-7.269889E-1,-2.4123776E0,-2.047907E-2,6.1442286E-1,9.61869E-1,1.3621834E-1,-2.8407576E-2,-2.4654195E-1,5.3991836E-1,4.3008097E-2,-1.5438472E0,-3.8082442E-1,-3.6144134E-1,7.277374E-2,7.323572E-1,-9.9701E-1,3.4393685E0,1.8044014E0,-1.9611779E-1,4.527294E-1,-1.367719E0,-4.311824E-1,7.8864515E-1,-4.5990366E-1,-6.001126E-1,-2.7654883E-1,-6.805747E-2,4.7769782E-1,-6.558306E-1,-2.5436752E0,-1.3593554E0,-5.340888E-1,-1.5580033E0,-3.2406494E-1,-7.3200196E-1,-2.5760214E0,-2.0255935E0,-8.963578E-1,5.128518E-1,-4.1535845E-1,-3.6580622E-1,2.8643765E-2,3.301438E-1,5.544853E-2,1.5599293E0,8.647579E-1,3.3119187E0,1.4161845E0,3.1608096E-1,-7.673387E-1,1.0764993E0,2.7650864E0,-2.621624E-1,3.9918303E-1,-1.2124939E-1,1.4824025E-1,-1.9471541E-1,-1.1696726E0,-1.9587638E0,-3.6619868E0,1.4717068E-2,-4.1116387E-2,1.3923343E-1,9.288157E-1,4.686066E-1,2.3819983E0,5.6903857E-1,-2.3193748E-1],"categories":[],"categories_nodes":[],"categories_segments":[],"categories_sizes":[],"default_left":[true,true,true,true,true,true,true,true,true,true,true,true,true,true,true,true,true,true,true,true,true,true,true,true,true,true,true,true,true,true,true,true,true,true,true,true,true,true,true,true,true,true,true,true,true,true,true,false,true,true,true,true,true,true,true,true,true,true,true,true,true,true,true,false,false,false,false,false,false,false,false,false,false,false,false,false,false,false,false,false,false,false,false,false,false,false,false,false,false,false,false,false,false,false,false,false,false,false,false,false,false,false,false,false,false,false,false,false,false,false,false,false,false,false,false,false,false,false,false,false,false,false,false,false,false],"id":13,"left_children":[1,3,5,7,9,11,13,15,17,19,21,23,25,27,29,31,33,35,37,39,41,43,45,47,49,51,53,55,57,59,61,63,65,67,69,71,73,75,77,79,81,83,85,87,89,91,93,-1,95,97,99,101,103,105,107,109,111,113,115,117,119,121,123,-1,-1,-1,-1,-1,-1,-1,-1,-1,-1,-1,-1,-1,-1,-1,-1,-1,-1,-1,-1,-1,-1,-1,-1,-1,-1,-1,-1,-1,-1,-1,-1,-1,-1,-1,-1,-1,-1,-1,-1,-1,-1,-1,-1,-1,-1,-1,-1,-1,-1,-1,-1,-1,-1,-1,-1,-1,-1,-1,-1,-1,-1],"loss_changes":[1.9236363E2,5.2165564E2,2.8067996E2,1.13880646E2,1.6528839E2,1.060873E3,2.4174817E2,2.0227959E2,5.481601E2,1.214328E2,8.340802E1,2.8464655E2,4.164497E2,6.668353E2,1.7702504E2,2.4904272E2,2.0181238E2,5.507683E2,1.1524671E2,8.797374E1,1.622651E2,5.425534E1,5.916928E1,2.0350775E2,3.4463858E2,1.564701E2,2.4017715E2,2.7125815E2,3.3336908E2,1.2712254E2,1.0799931E2,1.973485E2,1.01777435E2,1.0535742E2,1.0205678E2,1.7058519E2,1.1296216E2,2.0530168E2,4.4976173E1,6.2092766E1,4.3673706E1,3.1970878E0,3.6110413E1,1.3149017E1,3.265554E1,2.8784668E1,1.6038544E1,0E0,1.2489383E2,1.6698149E2,1.2504547E2,9.037003E0,8.58241E1,5.4630104E1,1.0526071E2,1.5842352E2,2.2371649E2,1.3926453E2,7.615253E1,1.13600876E2,4.7079865E1,2.0062677E2,5.654022E1,0E0,0E0,0E0,0E0,0E0,0E0,0E0,0E0,0E0,0E0,0E0,0E0,0E0,0E0,0E0,0E0,0E0,0E0,0E0,0E0,0E0,0E0,0E0,0E0,0E0,0E0,0E0,0E0,0E0,0E0,0E0,0E0,0E0,0E0,0E0,0E0,0E0,0E0,0E0,0E0,0E0,0E0,0E0,0E0,0E0,0E0,0E0,0E0,0E0,0E0,0E0,0E0,0E0,0E0,0E0,0E0,0E0,0E0,0E0,0E0,0E0,0E0],"parents":[2147483647,0,0,1,1,2,2,3,3,4,4,5,5,6,6,7,7,8,8,9,9,10,10,11,11,12,12,13,13,14,14,15,15,16,16,17,17,18,18,19,19,20,20,21,21,22,22,23,23,24,24,25,25,26,26,27,27,28,28,29,29,30,30,31,31,32,32,33,33,34,34,35,35,36,36,37,37,38,38,39,39,40,40,41,41,42,42,43,43,44,44,45,45,46,46,48,48,49,49,50,50,51,51,52,52,53,53,54,54,55,55,56,56,57,57,58,58,59,59,60,60,61,61,62,62],"right_children":[2,4,6,8,10,12,14,16,18,20,22,24,26,28,30,32,34,36,38,40,42,44,46,48,50,52,54,56,58,60,62,64,66,68,70,72,74,76,78,80,82,84,86,88,90,92,94,-1,96,98,100,102,104,106,108,110,112,114,116,118,120,122,124,-1,-1,-1,-1,-1,-1,-1,-1,-1,-1,-1,-1,-1,-1,-1,-1,-1,-1,-1,-1,-1,-1,-1,-1,-1,-1,-1,-1,-1,-1,-1,-1,-1,-1,-1,-1,-1,-1,-1,-1,-1,-1,-1,-1,-1,-1,-1,-1,-1,-1,-1,-1,-1,-1,-1,-1,-1,-1,-1,-1,-1,-1],"split_conditions":[3.8590908E-1,4.298125E-1,4.5501524E-1,8.8677883E-1,5.41105E-1,8.37865E-1,5.040909E-1,8.2157755E-1,8.945425E-1,6.2605476E-1,4.4645715E-1,3.7181978E-3,4.3965E-1,5.7095003E-1,7.9131186E-1,5.106402E-1,8.340064E-1,5.284495E-1,9.136509E-1,3.652619E-1,8.752616E-1,3.740909E-1,8.3957994E-1,3.5029954E-1,7.476562E-2,4.3025E-1,3.968182E-1,4.313376E-1,4.9505013E-1,6.878108E-1,4.7813967E-1,4.3241552E-1,4.215E-1,3.3136365E-1,3.4045455E-1,5.216202E-1,8.9113235E-1,9.0482116E-1,9.221894E-1,8.663072E-1,3.6772728E-1,8.678942E-1,3.2050002E-1,5.582814E-1,1.33E-1,4.904818E-1,4.7039336E-1,8.6615056E-1,8.7646294E-1,7.972814E-1,6.2048995E-1,3.9318183E-1,8.708382E-1,5.7449996E-1,4.2772728E-1,9.235E-1,4.559091E-1,4.755E-1,5.8795E-1,6.0037255E-1,8.717125E-1,1.372185E-1,4.6850002E-1,-8.522273E-3,-7.3962584E-2,1.6197552E-1,1.2902429E-2,-4.6315417E-1,-1.1424733E-1,-1.08432405E-1,2.1832123E-2,2.1970718E-1,-2.9910302E-1,1.0318106E0,5.4132044E-1,-5.883534E-2,1.3581882E-1,-4.1031572E-1,-1.2935473E-1,2.3659356E-1,-1.379711E-1,-1.8003379E-1,-8.296465E-2,-2.0417241E-2,1.4330935E-1,-1.967492E-1,-7.631026E-1,-4.0780666E-1,-1.6022664E-1,-4.67401E-1,-9.721949E-2,-2.196006E-1,-7.7280647E-1,-6.0767806E-1,-2.6890734E-1,1.5385553E-1,-1.2460754E-1,-1.09741874E-1,8.59313E-3,9.9043146E-2,1.663456E-2,4.679788E-1,2.5942737E-1,9.9357563E-1,4.2485538E-1,9.482429E-2,-2.3020162E-1,3.2294983E-1,8.2952595E-1,-7.8648716E-2,1.1975492E-1,-3.637482E-2,4.4472076E-2,-5.8414627E-2,-3.5090178E-1,